{"learner":{"attributes":{"scikit_learn":"{\"_estimator_type\": \"classifier\"}"},"feature_names":[],"feature_types":[],"gradient_booster":{"model":{"cats":{"enc":[],"feature_segments":[],"sorted_idx":[]},"gbtree_model_param":{"num_parallel_tree":"1","num_trees":"300"},"iteration_indptr":[0,3,6,9,12,15,18,21,24,27,30,33,36,39,42,45,48,51,54,57,60,63,66,69,72,75,78,81,84,87,90,93,96,99,102,105,108,111,114,117,120,123,126,129,132,135,138,141,144,147,150,153,156,159,162,165,168,171,174,177,180,183,186,189,192,195,198,201,204,207,210,213,216,219,222,225,228,231,234,237,240,243,246,249,252,255,258,261,264,267,270,273,276,279,282,285,288,291,294,297,300],"tree_info":[0,1,2,0,1,2,0,1,2,0,1,2,0,1,2,0,1,2,0,1,2,0,1,2,0,1,2,0,1,2,0,1,2,0,1,2,0,1,2,0,1,2,0,1,2,0,1,2,0,1,2,0,1,2,0,1,2,0,1,2,0,1,2,0,1,2,0,1,2,0,1,2,0,1,2,0,1,2,0,1,2,0,1,2,0,1,2,0,1,2,0,1,2,0,1,2,0,1,2,0,1,2,0,1,2,0,1,2,0,1,2,0,1,2,0,1,2,0,1,2,0,1,2,0,1,2,0,1,2,0,1,2,0,1,2,0,1,2,0,1,2,0,1,2,0,1,2,0,1,2,0,1,2,0,1,2,0,1,2,0,1,2,0,1,2,0,1,2,0,1,2,0,1,2,0,1,2,0,1,2,0,1,2,0,1,2,0,1,2,0,1,2,0,1,2,0,1,2,0,1,2,0,1,2,0,1,2,0,1,2,0,1,2,0,1,2,0,1,2,0,1,2,0,1,2,0,1,2,0,1,2,0,1,2,0,1,2,0,1,2,0,1,2,0,1,2,0,1,2,0,1,2,0,1,2,0,1,2,0,1,2,0,1,2,0,1,2,0,1,2,0,1,2,0,1,2,0,1,2,0,1,2,0,1,2,0,1,2,0,1,2,0,1,2,0,1,2,0,1,2],"trees":[{"base_weights":[-1.1838246E-5,-2.487013E-1,8.142334E-1,9.146451E-1,-3.8371164E-1,5.63171E-1,1.3160603E0,-4.3189043E-1,1.0394186E0,-5.416761E-1,-7.3927715E-2,3.610419E-1,9.2983353E-1,3.6647364E-1,1.3501222E0,8.333483E-2,-5.604102E-1,5.7929343E-1,1.2279807E0,-6.2492055E-1,-4.0737173E-1,4.6731317E-1,-1.7747115E-1,-2.3673557E-1,4.913779E-1,-2.652292E-1,9.975432E-1,-5.970146E-2,1.2096762E-1,1.419953E0,8.2083213E-1,-7.023456E-2,1.2868327E-1,1.1505055E0,1.2772854E-1,1.3986149E0,8.3081484E-1,5.941531E-1,-6.335427E-1,-4.323772E-1,2.9850814E-1,7.9547244E-1,-1.39183E-2,-2.6143888E-1,2.8988245E-1,-4.5774847E-1,5.0555426E-1,6.536544E-1,-3.3279315E-2,6.4667076E-2,-5.3175724E-1,8.238359E-1,1.413669E0,1.4294821E0,6.9814897E-1,1.155625E0,-4.8190558E-1,-4.8257306E-2,8.333483E-2,3.2965433E-2,1.3957587E-1,4.6708167E-2,-4.8368834E-2,5.1859688E-2,1.4227615E-1,4.1643023E-2,1.303138E-1,-4.8257306E-2,1.1538482E-1,-6.4006194E-2,5.240755E-2,2.9072592E-2,-4.5050435E-2,-2.8365029E-2,8.859481E-2,5.705433E-2,1.3098875E-1,1.22435115E-1,-3.8005352E-2,-3.980537E-2,-4.573965E-3,-1.764579E-2,6.652128E-2,3.8736E-2,-5.7513144E-2,1.02682665E-1,-2.9232064E-2,4.7012687E-2,1.0608824E-1,-4.3034516E-2,4.4046726E-2,8.617538E-3,-6.383005E-2,4.8959393E-2,1.1479566E-1,1.4637624E-1,-4.457911E-3,1.4360325E-1,6.2694445E-2,-2.226968E-3,1.0135225E-1,1.3401513E-1,2.9800711E-2,-4.457911E-3,-5.970146E-2],"categories":[],"categories_nodes":[],"categories_segments":[],"categories_sizes":[],"default_left":[0,0,0,0,0,0,0,0,0,0,0,0,0,0,0,0,0,0,0,0,0,0,0,0,0,0,0,0,0,0,0,0,0,0,0,0,0,0,0,0,0,0,0,0,0,0,0,0,0,0,0,0,0,0,0,0,0,0,0,0,0,0,0,0,0,0,0,0,0,0,0,0,0,0,0,0,0,0,0,0,0,0,0,0,0,0,0,0,0,0,0,0,0,0,0,0,0,0,0,0,0,0,0,0,0],"id":0,"left_children":[1,3,5,7,9,11,13,15,17,19,21,23,25,27,29,-1,31,33,35,37,39,41,43,45,47,49,51,-1,-1,53,55,-1,57,59,61,63,65,67,69,71,73,75,77,79,81,83,85,87,89,-1,91,93,95,97,99,101,103,-1,-1,-1,-1,-1,-1,-1,-1,-1,-1,-1,-1,-1,-1,-1,-1,-1,-1,-1,-1,-1,-1,-1,-1,-1,-1,-1,-1,-1,-1,-1,-1,-1,-1,-1,-1,-1,-1,-1,-1,-1,-1,-1,-1,-1,-1,-1,-1],"loss_changes":[5.78823E2,3.4427124E2,8.351849E1,3.8754135E1,9.600415E1,3.283098E1,6.6943665E0,3.7258654E0,1.7417618E1,1.4276276E1,3.729392E1,2.2719933E1,1.3081604E1,8.090203E0,6.7513733E0,0E0,1.928268E0,1.6008099E1,8.821808E0,8.790619E0,8.958061E0,1.6893093E1,2.1976408E1,8.861948E0,2.0328396E1,2.6001158E0,9.686157E0,0E0,0E0,2.9412842E-1,1.2479406E1,0E0,2.1485758E0,5.081585E0,7.7169776E0,1.4207764E0,8.604507E0,4.255841E0,6.337921E0,6.468567E0,6.306037E0,6.6089287E0,2.056118E1,1.3938023E1,1.5077634E1,4.296221E0,5.517763E0,1.3119522E1,1.0967339E1,0E0,5.6407523E-1,1.1170761E1,3.192604E0,6.939697E-2,1.0228052E0,3.088749E0,2.902546E-1,0E0,0E0,0E0,0E0,0E0,0E0,0E0,0E0,0E0,0E0,0E0,0E0,0E0,0E0,0E0,0E0,0E0,0E0,0E0,0E0,0E0,0E0,0E0,0E0,0E0,0E0,0E0,0E0,0E0,0E0,0E0,0E0,0E0,0E0,0E0,0E0,0E0,0E0,0E0,0E0,0E0,0E0,0E0,0E0,0E0,0E0,0E0,0E0],"parents":[2147483647,0,0,1,1,2,2,3,3,4,4,5,5,6,6,7,7,8,8,9,9,10,10,11,11,12,12,13,13,14,14,16,16,17,17,18,18,19,19,20,20,21,21,22,22,23,23,24,24,25,25,26,26,29,29,30,30,32,32,33,33,34,34,35,35,36,36,37,37,38,38,39,39,40,40,41,41,42,42,43,43,44,44,45,45,46,46,47,47,48,48,50,50,51,51,52,52,53,53,54,54,55,55,56,56],"right_children":[2,4,6,8,10,12,14,16,18,20,22,24,26,28,30,-1,32,34,36,38,40,42,44,46,48,50,52,-1,-1,54,56,-1,58,60,62,64,66,68,70,72,74,76,78,80,82,84,86,88,90,-1,92,94,96,98,100,102,104,-1,-1,-1,-1,-1,-1,-1,-1,-1,-1,-1,-1,-1,-1,-1,-1,-1,-1,-1,-1,-1,-1,-1,-1,-1,-1,-1,-1,-1,-1,-1,-1,-1,-1,-1,-1,-1,-1,-1,-1,-1,-1,-1,-1,-1,-1,-1,-1],"split_conditions":[6.461999E-1,-1.265713E0,2.1246092E0,-1.0812857E0,-1.9656086E-1,4.0752283E-1,-1.5986085E0,8.703473E-1,7.0132583E-1,-5.743441E-1,-4.4201213E-1,-1.5083176E-1,-3.0569212E0,4.8760846E-2,2.0523226E0,8.333483E-2,-1.9069351E-2,-7.045831E-1,1.3164091E-1,-1.6135459E0,-2.9519433E-2,7.723059E-1,-8.199629E-2,6.1921746E-1,3.3436662E-1,-2.2091292E-1,7.8028834E-1,-5.970146E-2,1.2096762E-1,7.724627E-1,6.992386E-1,-7.023456E-2,1.9245593E-1,-4.2942217E-1,-9.4993055E-2,-1.0463634E0,-1.032181E-1,-1.3421614E-1,2.299362E0,-1.1629113E0,8.9111894E-2,1.0644598E0,-4.7447893E-1,4.4382524E-1,-1.0065641E-1,-5.9917235E-1,8.7915075E-1,3.1523593E-2,-6.716923E-2,6.4667076E-2,-2.0811358E-1,-2.9195542E-2,5.7067466E-1,7.130506E-1,-2.5315456E-2,1.4311141E0,-6.8518454E-1,-4.8257306E-2,8.333483E-2,3.2965433E-2,1.3957587E-1,4.6708167E-2,-4.8368834E-2,5.1859688E-2,1.4227615E-1,4.1643023E-2,1.303138E-1,-4.8257306E-2,1.1538482E-1,-6.4006194E-2,5.240755E-2,2.9072592E-2,-4.5050435E-2,-2.8365029E-2,8.859481E-2,5.705433E-2,1.3098875E-1,1.22435115E-1,-3.8005352E-2,-3.980537E-2,-4.573965E-3,-1.764579E-2,6.652128E-2,3.8736E-2,-5.7513144E-2,1.02682665E-1,-2.9232064E-2,4.7012687E-2,1.0608824E-1,-4.3034516E-2,4.4046726E-2,8.617538E-3,-6.383005E-2,4.8959393E-2,1.1479566E-1,1.4637624E-1,-4.457911E-3,1.4360325E-1,6.2694445E-2,-2.226968E-3,1.0135225E-1,1.3401513E-1,2.9800711E-2,-4.457911E-3,-5.970146E-2],"split_indices":[82,104,82,82,82,132,123,132,133,82,84,24,0,24,124,0,47,24,120,6,55,4,131,0,12,115,133,0,0,57,27,0,20,82,84,3,24,129,46,104,14,104,0,4,76,50,6,59,51,0,1,11,32,10,47,132,0,0,0,0,0,0,0,0,0,0,0,0,0,0,0,0,0,0,0,0,0,0,0,0,0,0,0,0,0,0,0,0,0,0,0,0,0,0,0,0,0,0,0,0,0,0,0,0,0],"split_type":[0,0,0,0,0,0,0,0,0,0,0,0,0,0,0,0,0,0,0,0,0,0,0,0,0,0,0,0,0,0,0,0,0,0,0,0,0,0,0,0,0,0,0,0,0,0,0,0,0,0,0,0,0,0,0,0,0,0,0,0,0,0,0,0,0,0,0,0,0,0,0,0,0,0,0,0,0,0,0,0,0,0,0,0,0,0,0,0,0,0,0,0,0,0,0,0,0,0,0,0,0,0,0,0,0],"sum_hessian":[2.8564668E3,2.1886858E3,6.6778107E2,2.269912E2,1.9616946E3,4.465139E2,2.2126717E2,1.9041111E1,2.0795009E2,1.2987101E3,6.6298456E2,2.8911746E2,1.5739642E2,8.069261E0,2.131979E2,1.2500949E0,1.7791016E1,6.1631207E1,1.4631888E2,7.9950714E2,4.9920288E2,1.0590197E2,5.570826E2,5.1607346E1,2.3751012E2,8.283162E0,1.4911327E2,3.9022772E0,4.166983E0,1.8686194E2,2.6335966E1,1.4736457E1,3.054559E0,2.6527336E1,3.510387E1,1.0058368E2,4.5735207E1,5.1380506E0,7.943691E2,4.824981E2,1.6704786E1,6.2576847E1,4.3325123E1,4.726109E2,8.447168E1,4.006233E1,1.1545019E1,1.8121457E2,5.6295555E1,1.550839E0,6.7323227E0,1.0730126E2,4.1812004E1,1.8345952E2,3.402422E0,2.1041422E1,5.2945447E0,1.8044641E0,1.2500949E0,6.641771E0,1.9885565E1,2.2726246E1,1.2377624E1,3.2864676E0,9.729721E1,2.5364107E1,2.0371098E1,1.8044641E0,3.3335865E0,7.903652E2,4.00391E0,1.1431958E1,4.7106613E2,8.649848E0,8.054938E0,4.5006683E1,1.7570164E1,9.352153E0,3.397297E1,2.8883163E2,1.8377927E2,3.790515E1,4.6566525E1,4.605398E0,3.545693E1,6.8093457E0,4.735674E0,1.2640255E2,5.4812016E1,3.0676214E1,2.561934E1,1.0181863E0,5.7141366E0,5.4061802E1,5.323946E1,4.0419735E1,1.3922676E0,1.8119124E2,2.2682812E0,1.3189304E0,2.0834916E0,1.6852722E1,4.1886997E0,1.3922676E0,3.9022772E0],"tree_param":{"num_deleted":"0","num_feature":"134","num_nodes":"105","size_leaf_vector":"1"}},{"base_weights":[1.3518916E-5,3.0466703E-1,-3.2837906E-1,4.9916983E-1,-2.1378814E-1,3.004502E-2,-3.9643127E-1,-3.723385E-2,7.5215805E-1,-3.2408118E-1,5.731696E-1,-2.0995224E-1,1.1308182E0,-1.3220541E-1,-4.8227665E-1,-2.407091E-1,4.9372587E-1,9.8250294E-1,1.8919758E-1,-1.7324056E-1,-6.425689E-1,9.8819274E-1,-6.2154956E-2,-4.1706568E-1,1.164996E0,-3.853628E-1,1.3493553E0,1.9688231E-1,-4.175961E-1,4.5479774E-1,-4.9896637E-1,1.1392656E-1,-5.6025296E-1,7.984339E-1,-5.633621E-1,6.3734956E-2,1.0551776E0,-1.8477976E-1,8.870747E-1,5.664405E-1,-2.5203562E-1,9.072982E-2,-6.750612E-1,9.072982E-2,1.1496207E0,6.0423464E-1,-6.282438E-1,4.65574E-1,-4.843228E-1,1.3021787E0,-1.0642703E-1,-5.921073E-2,2.922042E-2,1.4526708E-1,2.411054E-1,4.085449E-1,-5.4435146E-1,1.839786E-1,-5.2545714E-1,-3.9062956E-1,1.1271279E0,-4.401262E-1,-6.603045E-1,5.932445E-2,-2.940018E-2,-1.9183533E-2,-6.582969E-2,1.1439592E-1,7.7454345E-3,4.4884663E-2,-6.490084E-2,1.052834E-1,-1.6702628E-2,1.1516746E-1,3.0707553E-2,-5.101146E-2,3.0956188E-2,-3.4820992E-2,1.1046634E-1,-6.250005E-2,9.184458E-2,1.1266934E-1,-2.9277936E-2,9.6515015E-2,-5.58514E-2,-6.862763E-2,-4.741272E-3,5.722302E-2,-5.0676193E-2,-1.9069621E-2,1.2436443E-1,9.585082E-2,-5.0676193E-2,-8.149241E-3,-6.791315E-2,-5.970024E-2,1.06997035E-1,-5.3462394E-2,5.618328E-2,1.4212622E-1,3.511234E-2,2.922042E-2,-4.1667383E-2,-4.6875615E-2,9.009018E-2,-3.9335866E-2,6.776185E-2,-6.5088764E-2,6.65346E-2,8.086264E-2,-6.7932814E-2,-6.003743E-2,6.427803E-2,-6.3311696E-2,4.4884663E-2,-8.149241E-3,1.3105579E-1,-5.5760898E-2,-2.07427E-2,3.375194E-2,-6.714668E-2],"categories":[],"categories_nodes":[],"categories_segments":[],"categories_sizes":[],"default_left":[0,0,0,0,0,0,0,0,0,0,0,0,0,0,0,0,0,0,0,0,0,0,0,0,0,0,0,0,0,0,0,0,0,0,0,0,0,0,0,0,0,0,0,0,0,0,0,0,0,0,0,0,0,0,0,0,0,0,0,0,0,0,0,0,0,0,0,0,0,0,0,0,0,0,0,0,0,0,0,0,0,0,0,0,0,0,0,0,0,0,0,0,0,0,0,0,0,0,0,0,0,0,0,0,0,0,0,0,0,0,0,0,0,0,0,0,0,0,0,0,0],"id":1,"left_children":[1,3,5,7,9,11,13,15,17,19,21,23,25,27,29,31,33,35,37,39,41,43,45,47,49,51,53,55,57,59,61,63,65,67,69,71,73,75,77,79,81,83,85,87,89,91,93,95,97,99,101,-1,-1,-1,103,105,107,109,111,113,115,117,119,-1,-1,-1,-1,-1,-1,-1,-1,-1,-1,-1,-1,-1,-1,-1,-1,-1,-1,-1,-1,-1,-1,-1,-1,-1,-1,-1,-1,-1,-1,-1,-1,-1,-1,-1,-1,-1,-1,-1,-1,-1,-1,-1,-1,-1,-1,-1,-1,-1,-1,-1,-1,-1,-1,-1,-1,-1,-1],"loss_changes":[2.8597324E2,1.496342E2,3.3565277E1,1.4639523E2,3.5357697E1,5.8472324E1,2.6161346E1,3.7566803E1,9.486044E1,1.699377E1,1.329072E1,5.226284E1,1.3645836E1,2.6839537E1,1.3868973E1,2.853725E1,3.1487398E1,3.464685E1,5.6031696E1,1.4304865E1,2.779026E0,4.300968E0,8.21313E0,9.649712E0,4.33617E0,9.8107105E-1,3.6395798E0,2.1088835E1,1.0017805E1,9.413726E0,7.849716E0,2.36226E1,4.6539536E0,1.8647964E1,2.211279E0,9.1170845E0,3.4421875E1,2.2705978E1,2.050573E1,1.051385E1,1.2704403E1,3.7870848E0,7.371483E-1,1.9359515E0,3.474144E0,4.4404254E0,2.7068472E-1,8.185068E0,8.088718E0,1.9697037E0,5.259508E-1,0E0,0E0,0E0,2.3755968E0,2.2712772E1,4.295659E0,1.348474E1,1.1756004E1,1.8589097E0,2.113409E0,1.7143936E1,2.7567215E0,0E0,0E0,0E0,0E0,0E0,0E0,0E0,0E0,0E0,0E0,0E0,0E0,0E0,0E0,0E0,0E0,0E0,0E0,0E0,0E0,0E0,0E0,0E0,0E0,0E0,0E0,0E0,0E0,0E0,0E0,0E0,0E0,0E0,0E0,0E0,0E0,0E0,0E0,0E0,0E0,0E0,0E0,0E0,0E0,0E0,0E0,0E0,0E0,0E0,0E0,0E0,0E0,0E0,0E0,0E0,0E0,0E0,0E0],"parents":[2147483647,0,0,1,1,2,2,3,3,4,4,5,5,6,6,7,7,8,8,9,9,10,10,11,11,12,12,13,13,14,14,15,15,16,16,17,17,18,18,19,19,20,20,21,21,22,22,23,23,24,24,25,25,26,26,27,27,28,28,29,29,30,30,31,31,32,32,33,33,34,34,35,35,36,36,37,37,38,38,39,39,40,40,41,41,42,42,43,43,44,44,45,45,46,46,47,47,48,48,49,49,50,50,54,54,55,55,56,56,57,57,58,58,59,59,60,60,61,61,62,62],"right_children":[2,4,6,8,10,12,14,16,18,20,22,24,26,28,30,32,34,36,38,40,42,44,46,48,50,52,54,56,58,60,62,64,66,68,70,72,74,76,78,80,82,84,86,88,90,92,94,96,98,100,102,-1,-1,-1,104,106,108,110,112,114,116,118,120,-1,-1,-1,-1,-1,-1,-1,-1,-1,-1,-1,-1,-1,-1,-1,-1,-1,-1,-1,-1,-1,-1,-1,-1,-1,-1,-1,-1,-1,-1,-1,-1,-1,-1,-1,-1,-1,-1,-1,-1,-1,-1,-1,-1,-1,-1,-1,-1,-1,-1,-1,-1,-1,-1,-1,-1,-1,-1],"split_conditions":[2.75557E-1,3.176166E-1,-7.7786607E-1,-1.0086459E0,7.7506554E-1,8.1021614E-2,7.8028834E-1,2.4624672E-2,5.9143865E-1,2.1246092E0,2.65651E-1,4.0752283E-1,-1.3299788E0,-1.7795452E-1,-3.0569212E0,5.3509433E-2,1.6227376E-1,-1.1269864E0,1.4796568E0,-1.0245243E0,-1.1629113E0,4.8555097E-1,-7.092171E-1,-1.4501045E0,1.3448906E-1,-6.7053926E-1,1.7042756E0,7.134486E-1,-5.2183264E-1,-3.1259804E0,5.1344955E-1,-2.5812715E-1,-3.0347106E-1,-2.3409959E-2,-2.6612338E-1,-9.302894E-1,1.6273627E0,-1.4224358E-1,-2.792909E-1,-4.4470465E-1,-7.846855E-1,-2.2536924E-1,1.4889811E0,-1.0174385E-2,-8.373724E-1,1.9058168E-1,-1.7588496E-1,1.0644598E0,9.638222E-1,-1.9069351E-2,-3.4382766E-1,-5.921073E-2,2.922042E-2,1.4526708E-1,-1.5720329E-1,-1.1106014E0,8.8592485E-2,1.3900272E0,9.5631635E-1,1.3900272E0,1.5024047E-1,1.5151769E-1,-6.1887402E-2,5.932445E-2,-2.940018E-2,-1.9183533E-2,-6.582969E-2,1.1439592E-1,7.7454345E-3,4.4884663E-2,-6.490084E-2,1.052834E-1,-1.6702628E-2,1.1516746E-1,3.0707553E-2,-5.101146E-2,3.0956188E-2,-3.4820992E-2,1.1046634E-1,-6.250005E-2,9.184458E-2,1.1266934E-1,-2.9277936E-2,9.6515015E-2,-5.58514E-2,-6.862763E-2,-4.741272E-3,5.722302E-2,-5.0676193E-2,-1.9069621E-2,1.2436443E-1,9.585082E-2,-5.0676193E-2,-8.149241E-3,-6.791315E-2,-5.970024E-2,1.06997035E-1,-5.3462394E-2,5.618328E-2,1.4212622E-1,3.511234E-2,2.922042E-2,-4.1667383E-2,-4.6875615E-2,9.009018E-2,-3.9335866E-2,6.776185E-2,-6.5088764E-2,6.65346E-2,8.086264E-2,-6.7932814E-2,-6.003743E-2,6.427803E-2,-6.3311696E-2,4.4884663E-2,-8.149241E-3,1.3105579E-1,-5.5760898E-2,-2.07427E-2,3.375194E-2,-6.714668E-2],"split_indices":[133,82,82,132,76,4,133,4,6,82,20,132,24,80,0,20,89,24,4,104,104,57,133,4,75,0,98,6,82,0,128,78,77,79,30,104,27,68,24,77,24,2,98,20,104,52,9,104,30,47,4,0,0,0,9,78,0,124,0,124,24,130,29,0,0,0,0,0,0,0,0,0,0,0,0,0,0,0,0,0,0,0,0,0,0,0,0,0,0,0,0,0,0,0,0,0,0,0,0,0,0,0,0,0,0,0,0,0,0,0,0,0,0,0,0,0,0,0,0,0,0],"split_type":[0,0,0,0,0,0,0,0,0,0,0,0,0,0,0,0,0,0,0,0,0,0,0,0,0,0,0,0,0,0,0,0,0,0,0,0,0,0,0,0,0,0,0,0,0,0,0,0,0,0,0,0,0,0,0,0,0,0,0,0,0,0,0,0,0,0,0,0,0,0,0,0,0,0,0,0,0,0,0,0,0,0,0,0,0,0,0,0,0,0,0,0,0,0,0,0,0,0,0,0,0,0,0,0,0,0,0,0,0,0,0,0,0,0,0,0,0,0,0,0,0],"sum_hessian":[2.856419E3,1.4818044E3,1.3746144E3,1.0775789E3,4.0422556E2,2.1943431E2,1.15518E3,3.456211E2,7.3195776E2,3.550527E2,4.9172863E1,1.808201E2,3.8614223E1,2.8389914E2,8.7128094E2,2.5026196E2,9.535914E1,5.18897E2,2.1306082E2,2.4198763E2,1.1306507E2,2.940727E1,1.9765593E1,1.5775374E2,2.3066349E1,4.768391E0,3.3845833E1,1.3199924E2,1.518999E2,1.4787013E1,8.5649396E2,1.1892277E2,1.3133919E2,7.4212036E1,2.1147104E1,3.8173717E1,4.8072324E2,1.3920114E2,7.385967E1,2.2700462E1,2.1928717E2,4.721273E0,1.08343796E2,4.721273E0,2.4685997E1,9.04757E0,1.0718021E1,1.0750374E1,1.4700337E2,2.0798107E1,2.268243E0,3.7502217E0,1.0181692E0,3.0675373E1,3.17046E0,1.0302797E2,2.8971264E1,2.2987226E1,1.2891267E2,6.735895E0,8.051118E0,6.3033734E2,2.2615659E2,5.4468132E1,6.445463E1,2.822717E1,1.0311202E2,4.9772285E1,2.4439747E1,1.3189082E0,1.9828196E1,6.547423E0,3.1626293E1,4.253218E2,5.5401417E1,8.3932076E1,5.5269066E1,1.09716425E1,6.288803E1,5.0002956E0,1.7700167E1,5.5292535E0,2.1375792E2,1.8044338E0,2.9168391E0,1.06350075E2,1.9937222E0,2.6378164E0,2.0834565E0,1.5508128E0,2.3135183E1,6.964114E0,2.0834565E0,1.1341215E0,9.5839E0,3.9022117E0,6.8481617E0,1.4072597E2,6.277404E0,1.8044338E1,2.7537687E0,1.0181692E0,1.2500739E0,1.6667652E0,1.5036948E0,2.5768824E1,7.725915E1,2.7050877E1,1.9203861E0,1.3373869E1,9.6133585E0,1.216007E2,7.311971E0,5.416987E0,1.3189082E0,1.1341215E0,6.916996E0,4.1793723E2,2.124001E2,2.1785088E0,2.2397809E2],"tree_param":{"num_deleted":"0","num_feature":"134","num_nodes":"121","size_leaf_vector":"1"}},{"base_weights":[-1.667417E-6,-4.4065148E-1,4.7670585E-1,3.221604E-1,-6.071979E-1,6.643782E-1,-5.243523E-1,8.6328065E-1,-3.161669E-1,-7.486731E-2,-4.8439443E-1,7.3856974E-1,-6.337107E-1,1.1677729E0,-6.2876755E-1,1.411384E0,6.688261E-2,1.4301865E-1,-6.7855906E-1,-7.109311E-1,-2.923805E-1,5.526772E-1,1.1492145E0,-7.36806E-2,2.6384765E-1,-4.1667998E-2,1.3721327E-1,-7.33249E-1,-6.8748174E-3,-4.825686E-2,1.4578973E0,-5.143238E-1,1.2047132E0,-7.203734E-1,4.5373958E-1,-7.25365E-1,7.762169E-2,-7.410939E-2,-1.5310277E-1,9.299128E-1,3.1970417E-1,1.1807407E0,-6.355792E-2,1.1179962E-1,-5.759125E-2,1.6299816E-2,-7.4567996E-2,-7.062312E-2,8.251233E-1,3.9278578E-2,1.4735399E-1,7.3768474E-2,-7.2859116E-2,1.4191784E-1,-5.0299417E-2,1.4392194E-2,-7.422774E-2,-4.2657427E-2,9.917171E-2,3.435804E-2,-7.3263854E-2,-3.2764178E-2,2.3418527E-2,-7.219384E-2,1.0947543E-1,-9.912992E-4,6.253501E-2,1.2059011E-1,-6.0861465E-2,-5.88919E-2,1.360535E-1],"categories":[],"categories_nodes":[],"categories_segments":[],"categories_sizes":[],"default_left":[0,0,0,0,0,0,0,0,0,0,0,0,0,0,0,0,0,0,0,0,0,0,0,0,0,0,0,0,0,0,0,0,0,0,0,0,0,0,0,0,0,0,0,0,0,0,0,0,0,0,0,0,0,0,0,0,0,0,0,0,0,0,0,0,0,0,0,0,0,0,0],"id":2,"left_children":[1,3,5,7,9,11,13,15,17,-1,19,21,23,25,27,29,31,-1,33,35,37,39,41,-1,43,-1,-1,45,47,-1,49,51,53,55,57,59,-1,-1,61,63,65,67,-1,-1,-1,-1,-1,-1,69,-1,-1,-1,-1,-1,-1,-1,-1,-1,-1,-1,-1,-1,-1,-1,-1,-1,-1,-1,-1,-1,-1],"loss_changes":[6.004486E2,1.8890628E2,2.5830396E2,9.244467E1,2.082547E1,1.11868195E2,3.9133022E1,6.306286E1,7.891315E1,0E0,2.8313583E1,8.292511E1,6.031023E0,4.7750587E0,1.3337776E1,8.24913E0,4.032058E1,0E0,5.1879883E0,7.004898E0,2.2171661E1,6.609653E1,1.9891907E1,0E0,5.8332806E0,0E0,0E0,2.0802002E0,1.8356798E1,0E0,8.1822205E-1,1.1385266E1,8.257166E0,1.9886551E0,2.4452887E0,2.5666656E0,0E0,0E0,1.8556475E1,7.9184586E1,4.721108E1,1.5799255E1,0E0,0E0,0E0,0E0,0E0,0E0,1.1712232E1,0E0,0E0,0E0,0E0,0E0,0E0,0E0,0E0,0E0,0E0,0E0,0E0,0E0,0E0,0E0,0E0,0E0,0E0,0E0,0E0,0E0,0E0],"parents":[2147483647,0,0,1,1,2,2,3,3,4,4,5,5,6,6,7,7,8,8,10,10,11,11,12,12,13,13,14,14,15,15,16,16,18,18,19,19,20,20,21,21,22,22,24,24,27,27,28,28,30,30,31,31,32,32,33,33,34,34,35,35,38,38,39,39,40,40,41,41,48,48],"right_children":[2,4,6,8,10,12,14,16,18,-1,20,22,24,26,28,30,32,-1,34,36,38,40,42,-1,44,-1,-1,46,48,-1,50,52,54,56,58,60,-1,-1,62,64,66,68,-1,-1,-1,-1,-1,-1,70,-1,-1,-1,-1,-1,-1,-1,-1,-1,-1,-1,-1,-1,-1,-1,-1,-1,-1,-1,-1,-1,-1],"split_conditions":[3.639582E-1,-7.7786607E-1,7.0949024E-1,1.6893034E-1,-7.431375E-1,1.8265263E0,-2.2826428E0,-3.499072E-1,-4.8564814E-2,-7.486731E-2,-1.8468902E-1,4.5770848E-1,3.5993293E-1,-2.1977368E-1,8.277884E-1,-1.5224214E0,1.3937973E0,1.4301865E-1,7.8135574E-1,1.3110275E0,-7.142238E-2,-6.364172E-1,1.4134374E0,-7.36806E-2,5.0277394E-1,-4.1667998E-2,1.3721327E-1,-2.3174953E0,-8.840794E-2,-4.825686E-2,-6.956958E-2,-1.583344E0,1.0234096E-1,-1.0096236E0,6.019583E-1,-4.2352715E0,7.762169E-2,-7.410939E-2,-1.4367668E-1,-3.393958E-1,-1.1831041E-1,5.125276E-1,-6.355792E-2,1.1179962E-1,-5.759125E-2,1.6299816E-2,-7.4567996E-2,-7.062312E-2,1.6995925E-1,3.9278578E-2,1.4735399E-1,7.3768474E-2,-7.2859116E-2,1.4191784E-1,-5.0299417E-2,1.4392194E-2,-7.422774E-2,-4.2657427E-2,9.917171E-2,3.435804E-2,-7.3263854E-2,-3.2764178E-2,2.3418527E-2,-7.219384E-2,1.0947543E-1,-9.912992E-4,6.253501E-2,1.2059011E-1,-6.0861465E-2,-5.88919E-2,1.360535E-1],"split_indices":[104,82,82,132,104,7,2,2,76,0,78,8,24,30,2,4,4,0,52,98,0,82,84,0,24,0,0,3,10,0,11,42,104,16,12,69,0,0,108,24,80,132,0,0,0,0,0,0,24,0,0,0,0,0,0,0,0,0,0,0,0,0,0,0,0,0,0,0,0,0,0],"split_type":[0,0,0,0,0,0,0,0,0,0,0,0,0,0,0,0,0,0,0,0,0,0,0,0,0,0,0,0,0,0,0,0,0,0,0,0,0,0,0,0,0,0,0,0,0,0,0,0,0,0,0,0,0,0,0,0,0,0,0,0,0,0,0,0,0,0,0,0,0,0,0],"sum_hessian":[2.8564478E3,1.4844011E3,1.3720468E3,2.658459E2,1.2185552E3,1.1557163E3,2.1633044E2,1.4368738E2,1.221585E2,5.6386285E2,6.546924E2,1.0936409E3,6.207534E1,1.1981277E1,2.0434917E2,8.465395E1,5.903342E1,2.0486818E1,1.01671684E2,2.991063E2,3.5558606E2,7.544562E2,3.3918472E2,5.584049E1,6.234851E0,1.2500865E0,1.0731191E1,1.7480234E2,2.9546822E1,1.8044522E0,8.28495E1,3.9436928E1,1.9596489E1,9.8401634E1,3.2700472E0,2.967385E2,2.3678212E0,8.320433E1,2.723817E2,2.869035E2,4.6755267E2,3.3363E2,5.554712E0,2.9266884E0,3.3081622E0,2.2256494E0,1.7257669E2,1.6135172E1,1.3411651E1,1.5770469E0,8.127245E1,5.4059615E0,3.4030968E1,1.7560131E1,2.036359E0,2.2944844E0,9.610715E1,1.3189216E0,1.9511256E0,1.6930003E0,2.9504547E2,1.8786891E2,8.451282E1,2.5726145E1,2.6117737E2,2.2542049E2,2.4213219E2,3.2932538E2,4.304625E0,3.6560228E0,9.755629E0],"tree_param":{"num_deleted":"0","num_feature":"134","num_nodes":"71","size_leaf_vector":"1"}},{"base_weights":[2.7341675E-4,-2.327895E-1,7.25697E-1,8.1328416E-1,-3.617498E-1,5.0504774E-1,1.1545404E0,-4.094583E-1,9.190732E-1,-5.1613563E-1,-6.5682836E-2,3.1419224E-1,8.148376E-1,3.269155E-1,1.1832219E0,7.74555E-2,-5.3644466E-1,5.191052E-1,1.078971E0,-5.9733987E-1,-3.871048E-1,4.63608E-1,-1.5899183E-1,1.9195248E-1,8.6805266E-1,-3.0930927E-1,8.804812E-1,-5.895411E-2,1.0939916E-1,1.2423166E0,7.2707546E-1,-6.769938E-2,1.1872657E-1,1.0193062E0,1.0936435E-1,1.2260281E0,7.318892E-1,5.427479E-1,-6.0588384E-1,-4.1150403E-1,2.8164196E-1,1.087992E0,2.1399671E-1,-2.420746E-1,2.861983E-1,1.2200745E-1,1.2133324E0,1.2777296E-1,2.499577E-1,6.053356E-2,-5.450648E-1,6.680103E-1,1.0940742E0,1.2498163E0,6.4176315E-1,1.0226661E0,-4.7841132E-1,-4.761485E-2,7.9066925E-2,2.9416418E-2,1.2290465E-1,4.0248267E-2,-5.250988E-2,4.6915594E-2,1.2461539E-1,3.593951E-2,1.1480154E-1,-4.74448E-2,1.0511159E-1,-6.124493E-2,5.0900023E-2,6.8647794E-2,-4.225553E-2,-2.7507653E-2,8.2604066E-2,-1.2433878E-2,1.1686021E-1,-4.8595507E-2,5.6955595E-2,-3.7278157E-2,-4.565205E-3,-1.5537734E-2,6.282457E-2,3.8061436E-2,-7.386971E-3,5.6969426E-3,1.296517E-1,6.3532524E-2,-6.46419E-2,-6.404196E-2,9.586051E-3,8.9189716E-2,-3.1974155E-2,2.2637421E-2,1.1759364E-1,1.2552024E-1,5.6745928E-2,9.473611E-2,-4.2929016E-3,1.1803541E-1,2.6617957E-2,-3.7154567E-3,-5.952064E-2],"categories":[],"categories_nodes":[],"categories_segments":[],"categories_sizes":[],"default_left":[0,0,0,0,0,0,0,0,0,0,0,0,0,0,0,0,0,0,0,0,0,0,0,0,0,0,0,0,0,0,0,0,0,0,0,0,0,0,0,0,0,0,0,0,0,0,0,0,0,0,0,0,0,0,0,0,0,0,0,0,0,0,0,0,0,0,0,0,0,0,0,0,0,0,0,0,0,0,0,0,0,0,0,0,0,0,0,0,0,0,0,0,0,0,0,0,0,0,0,0,0,0,0],"id":3,"left_children":[1,3,5,7,9,11,13,15,17,19,21,23,25,27,29,-1,31,33,35,37,39,41,43,45,47,49,51,-1,-1,53,55,-1,57,59,61,63,65,67,69,71,73,75,77,79,81,83,85,-1,87,-1,89,91,93,95,97,99,101,-1,-1,-1,-1,-1,-1,-1,-1,-1,-1,-1,-1,-1,-1,-1,-1,-1,-1,-1,-1,-1,-1,-1,-1,-1,-1,-1,-1,-1,-1,-1,-1,-1,-1,-1,-1,-1,-1,-1,-1,-1,-1,-1,-1,-1,-1],"loss_changes":[4.8183627E2,2.9127133E2,6.498959E1,3.1037323E1,8.776849E1,2.6902237E1,5.1831055E0,3.3573945E0,1.3411758E1,1.2996033E1,3.2645386E1,1.9186892E1,1.3147774E1,7.1413774E0,5.1996765E0,0E0,1.7620125E0,1.3071402E1,7.021469E0,7.858124E0,8.118546E0,1.5211653E1,2.083469E1,1.6673088E1,1.2695881E1,2.5653045E0,6.762375E0,0E0,0E0,9.429932E-2,1.0601284E1,0E0,2.0059185E0,4.0252876E0,6.995286E0,1.0527649E0,7.128847E0,3.7446094E0,5.930908E0,6.0366898E0,5.6395426E0,2.887188E0,1.820554E1,1.2143675E1,1.35029E1,1.1247104E1,1.3669949E0,0E0,7.917415E0,0E0,5.9726524E-1,1.9158104E1,5.4711304E0,6.3171387E-3,9.843898E-1,2.4424267E0,3.0099416E-1,0E0,0E0,0E0,0E0,0E0,0E0,0E0,0E0,0E0,0E0,0E0,0E0,0E0,0E0,0E0,0E0,0E0,0E0,0E0,0E0,0E0,0E0,0E0,0E0,0E0,0E0,0E0,0E0,0E0,0E0,0E0,0E0,0E0,0E0,0E0,0E0,0E0,0E0,0E0,0E0,0E0,0E0,0E0,0E0,0E0,0E0],"parents":[2147483647,0,0,1,1,2,2,3,3,4,4,5,5,6,6,7,7,8,8,9,9,10,10,11,11,12,12,13,13,14,14,16,16,17,17,18,18,19,19,20,20,21,21,22,22,23,23,24,24,25,25,26,26,29,29,30,30,32,32,33,33,34,34,35,35,36,36,37,37,38,38,39,39,40,40,41,41,42,42,43,43,44,44,45,45,46,46,48,48,50,50,51,51,52,52,53,53,54,54,55,55,56,56],"right_children":[2,4,6,8,10,12,14,16,18,20,22,24,26,28,30,-1,32,34,36,38,40,42,44,46,48,50,52,-1,-1,54,56,-1,58,60,62,64,66,68,70,72,74,76,78,80,82,84,86,-1,88,-1,90,92,94,96,98,100,102,-1,-1,-1,-1,-1,-1,-1,-1,-1,-1,-1,-1,-1,-1,-1,-1,-1,-1,-1,-1,-1,-1,-1,-1,-1,-1,-1,-1,-1,-1,-1,-1,-1,-1,-1,-1,-1,-1,-1,-1,-1,-1,-1,-1,-1,-1],"split_conditions":[6.461999E-1,-1.265713E0,2.1246092E0,-1.0812857E0,-1.9656086E-1,3.1681034E-1,-1.5986085E0,8.703473E-1,7.0132583E-1,-5.743441E-1,-5.0276554E-1,3.6896944E-1,-3.0569212E0,4.8760846E-2,2.0523226E0,7.74555E-2,-1.9069351E-2,-7.045831E-1,1.3164091E-1,-1.6135459E0,-2.9519433E-2,-3.422466E-1,-8.199629E-2,8.3842534E-1,1.3902929E0,-2.2091292E-1,-2.9195542E-2,-5.895411E-2,1.0939916E-1,7.724627E-1,6.992386E-1,-6.769938E-2,1.9245593E-1,-4.2942217E-1,-1.9656086E-1,-1.0463634E0,-1.032181E-1,-1.3421614E-1,2.299362E0,-1.5268184E0,8.9111894E-2,-1.2940057E-1,-7.7396137E-1,4.4382524E-1,-1.0065641E-1,-4.298782E-2,-5.123678E-3,1.2777296E-1,-1.8924087E-1,6.053356E-2,-1.38139175E-2,1.3943803E0,-6.1866987E-1,7.130506E-1,3.1848191E-3,1.4311141E0,-6.368085E-1,-4.761485E-2,7.9066925E-2,2.9416418E-2,1.2290465E-1,4.0248267E-2,-5.250988E-2,4.6915594E-2,1.2461539E-1,3.593951E-2,1.1480154E-1,-4.74448E-2,1.0511159E-1,-6.124493E-2,5.0900023E-2,6.8647794E-2,-4.225553E-2,-2.7507653E-2,8.2604066E-2,-1.2433878E-2,1.1686021E-1,-4.8595507E-2,5.6955595E-2,-3.7278157E-2,-4.565205E-3,-1.5537734E-2,6.282457E-2,3.8061436E-2,-7.386971E-3,5.6969426E-3,1.296517E-1,6.3532524E-2,-6.46419E-2,-6.404196E-2,9.586051E-3,8.9189716E-2,-3.1974155E-2,2.2637421E-2,1.1759364E-1,1.2552024E-1,5.6745928E-2,9.473611E-2,-4.2929016E-3,1.1803541E-1,2.6617957E-2,-3.7154567E-3,-5.952064E-2],"split_indices":[82,104,82,82,82,132,123,132,133,82,84,60,0,24,124,0,47,24,120,6,55,77,131,0,42,115,11,0,0,57,27,0,20,82,82,3,24,129,46,24,14,21,133,4,76,12,4,0,132,0,47,132,98,10,93,132,2,0,0,0,0,0,0,0,0,0,0,0,0,0,0,0,0,0,0,0,0,0,0,0,0,0,0,0,0,0,0,0,0,0,0,0,0,0,0,0,0,0,0,0,0,0,0],"split_type":[0,0,0,0,0,0,0,0,0,0,0,0,0,0,0,0,0,0,0,0,0,0,0,0,0,0,0,0,0,0,0,0,0,0,0,0,0,0,0,0,0,0,0,0,0,0,0,0,0,0,0,0,0,0,0,0,0,0,0,0,0,0,0,0,0,0,0,0,0,0,0,0,0,0,0,0,0,0,0,0,0,0,0,0,0,0,0,0,0,0,0,0,0,0,0,0,0,0,0,0,0,0,0],"sum_hessian":[2.8479338E3,2.1559521E3,6.919817E2,2.3603395E2,1.9199182E3,4.5833572E2,2.3364597E2,1.8566473E1,2.1746748E2,1.2614069E3,6.585112E2,2.848558E2,1.7347993E2,8.241107E0,2.2540486E2,1.3044399E0,1.7262033E1,6.3321533E1,1.5414595E2,7.7195526E2,4.8945163E2,9.8096275E1,5.60415E2,2.3445662E2,5.0399178E1,9.36651E0,1.6411342E2,3.860389E0,4.3807178E0,1.9802663E2,2.737823E1,1.4185594E1,3.0764399E0,2.7843378E1,3.5478157E1,1.0649293E2,4.7653023E1,5.277022E0,7.666782E2,4.7259372E2,1.6857912E1,2.7056849E1,7.103942E1,4.7266165E2,8.775333E1,2.2047757E2,1.3979051E1,2.9667912E1,2.0731266E1,1.5982492E0,7.7682614E0,8.434202E1,7.97714E1,1.9451642E2,3.510219E0,2.2108728E1,5.2694993E0,1.7863544E0,1.2900853E0,6.7856474E0,2.1057732E1,2.4517054E1,1.0961103E1,3.3880887E0,1.0310484E2,2.612815E1,2.1524872E1,1.7807112E0,3.4963107E0,7.626378E2,4.040441E0,4.1002593E0,4.6849347E2,8.579239E0,8.278674E0,1.6530753E0,2.5403774E1,2.3806787E1,4.7232635E1,2.8326712E2,1.8939452E2,3.8542088E1,4.9211243E1,9.461671E1,1.2586086E2,1.0511856E0,1.2927865E1,1.47019E1,6.029367E0,6.7628903E0,1.0053711E0,6.8836395E1,1.5505624E1,7.2017303E0,7.256967E1,1.921601E2,2.356318E0,2.161741E0,1.3484782E0,1.7831484E1,4.277246E0,1.3787271E0,3.8907723E0],"tree_param":{"num_deleted":"0","num_feature":"134","num_nodes":"103","size_leaf_vector":"1"}},{"base_weights":[2.4077811E-4,2.7885634E-1,-3.0928323E-1,4.5297587E-1,-2.006142E-1,3.216214E-2,-3.751868E-1,-4.419608E-2,6.688612E-1,-3.063263E-1,5.266011E-1,-1.9206081E-1,9.973212E-1,-1.21568836E-1,-4.588613E-1,-2.4016005E-1,4.5108473E-1,8.6260283E-1,1.7587082E-1,-1.6402973E-1,-6.1526763E-1,8.951757E-1,-6.011181E-2,-3.9168844E-1,1.0475999E0,-3.7155873E-1,1.1816509E0,1.8540598E-1,-3.953727E-1,4.3180847E-1,-4.7529715E-1,9.360374E-2,-5.4734033E-1,7.1056724E-1,-5.274592E-1,5.1529102E-2,9.2334276E-1,-1.7045386E-1,7.936865E-1,-5.694189E-2,-7.0393133E-1,1.0000001E-1,-6.479684E-1,-1.9344803E-2,1.0181379E0,5.524302E-1,-6.0672975E-1,-5.3188556E-1,2.9860917E-2,1.1655505E0,-1.0155041E-1,2.9616132E-2,-5.7929456E-2,1.270287E-1,2.0399775E-1,3.7803856E-1,-5.194687E-1,1.7728034E-1,-5.011436E-1,-3.709135E-1,1.0371107E0,-4.029504E-1,-6.031297E-1,5.2317616E-2,-2.8271291E-2,-1.6615063E-2,-6.524759E-2,1.0275593E-1,2.9715463E-3,-6.5003395E-2,3.5669696E-2,3.822655E-2,-5.6001138E-2,1.0182109E-1,3.607146E-2,-4.981786E-2,2.7051622E-2,-3.311861E-2,9.779847E-2,-1.4725394E-2,9.911748E-2,-1.8042507E-2,-7.2014116E-2,9.153465E-2,-5.3669162E-2,-6.5909706E-2,-4.657279E-3,-5.0563555E-2,5.5597443E-2,-1.7917693E-2,1.0946323E-1,8.702065E-2,-4.9222056E-2,-6.589783E-2,-6.2623294E-3,-5.5885535E-2,9.4325535E-2,8.2056336E-2,-2.7296338E-2,1.2356003E-1,8.812633E-3,2.8454417E-2,-4.0689327E-2,-4.7295284E-2,8.284178E-2,-3.7951346E-2,6.2294718E-2,-6.259334E-2,6.300532E-2,7.476782E-2,-6.568211E-2,-5.759263E-2,6.171601E-2,-6.1335087E-2,4.3977987E-2,1.20724045E-1,-9.411692E-3,-5.2550055E-2,4.779417E-3,3.325048E-2,-6.111131E-2],"categories":[],"categories_nodes":[],"categories_segments":[],"categories_sizes":[],"default_left":[0,0,0,0,0,0,0,0,0,0,0,0,0,0,0,0,0,0,0,0,0,0,0,0,0,0,0,0,0,0,0,0,0,0,0,0,0,0,0,0,0,0,0,0,0,0,0,0,0,0,0,0,0,0,0,0,0,0,0,0,0,0,0,0,0,0,0,0,0,0,0,0,0,0,0,0,0,0,0,0,0,0,0,0,0,0,0,0,0,0,0,0,0,0,0,0,0,0,0,0,0,0,0,0,0,0,0,0,0,0,0,0,0,0,0,0,0,0,0,0,0],"id":4,"left_children":[1,3,5,7,9,11,13,15,17,19,21,23,25,27,29,31,33,35,37,39,41,43,45,47,49,51,53,55,57,59,61,63,65,67,69,71,73,75,77,79,81,83,85,87,89,91,93,95,97,99,101,-1,-1,-1,103,105,107,109,111,113,115,117,119,-1,-1,-1,-1,-1,-1,-1,-1,-1,-1,-1,-1,-1,-1,-1,-1,-1,-1,-1,-1,-1,-1,-1,-1,-1,-1,-1,-1,-1,-1,-1,-1,-1,-1,-1,-1,-1,-1,-1,-1,-1,-1,-1,-1,-1,-1,-1,-1,-1,-1,-1,-1,-1,-1,-1,-1,-1,-1],"loss_changes":[2.4585478E2,1.2534793E2,3.0402313E1,1.1819762E2,3.0941765E1,4.767607E1,2.3969147E1,3.255105E1,7.317279E1,1.5294739E1,1.1122281E1,4.4680855E1,1.0917198E1,2.3793396E1,1.2661514E1,2.4673235E1,2.4524494E1,2.7090027E1,4.6745083E1,1.3901617E1,2.639408E0,3.5618076E0,7.2611585E0,9.165026E0,3.5183582E0,9.6068084E-1,2.933033E0,1.8354088E1,9.143087E0,8.130461E0,7.4881287E0,1.8891994E1,4.9093246E0,1.6286041E1,2.4544516E0,8.190661E0,2.6983185E1,2.0426794E1,1.658247E1,1.9296255E1,2.0801544E-1,3.4392002E0,6.74675E-1,1.600138E0,2.740841E0,3.8402245E0,2.8303242E-1,5.151062E0,9.701843E0,1.6141224E0,4.9950024E-1,0E0,0E0,0E0,2.1897435E0,1.9829231E1,3.9585614E0,1.1930618E1,1.09295635E1,1.7614405E0,1.913415E0,2.9679962E1,2.4448776E0,0E0,0E0,0E0,0E0,0E0,0E0,0E0,0E0,0E0,0E0,0E0,0E0,0E0,0E0,0E0,0E0,0E0,0E0,0E0,0E0,0E0,0E0,0E0,0E0,0E0,0E0,0E0,0E0,0E0,0E0,0E0,0E0,0E0,0E0,0E0,0E0,0E0,0E0,0E0,0E0,0E0,0E0,0E0,0E0,0E0,0E0,0E0,0E0,0E0,0E0,0E0,0E0,0E0,0E0,0E0,0E0,0E0,0E0],"parents":[2147483647,0,0,1,1,2,2,3,3,4,4,5,5,6,6,7,7,8,8,9,9,10,10,11,11,12,12,13,13,14,14,15,15,16,16,17,17,18,18,19,19,20,20,21,21,22,22,23,23,24,24,25,25,26,26,27,27,28,28,29,29,30,30,31,31,32,32,33,33,34,34,35,35,36,36,37,37,38,38,39,39,40,40,41,41,42,42,43,43,44,44,45,45,46,46,47,47,48,48,49,49,50,50,54,54,55,55,56,56,57,57,58,58,59,59,60,60,61,61,62,62],"right_children":[2,4,6,8,10,12,14,16,18,20,22,24,26,28,30,32,34,36,38,40,42,44,46,48,50,52,54,56,58,60,62,64,66,68,70,72,74,76,78,80,82,84,86,88,90,92,94,96,98,100,102,-1,-1,-1,104,106,108,110,112,114,116,118,120,-1,-1,-1,-1,-1,-1,-1,-1,-1,-1,-1,-1,-1,-1,-1,-1,-1,-1,-1,-1,-1,-1,-1,-1,-1,-1,-1,-1,-1,-1,-1,-1,-1,-1,-1,-1,-1,-1,-1,-1,-1,-1,-1,-1,-1,-1,-1,-1,-1,-1,-1,-1,-1,-1,-1,-1,-1,-1],"split_conditions":[2.75557E-1,3.176166E-1,-7.7786607E-1,-1.0365319E0,7.7506554E-1,8.1021614E-2,7.8028834E-1,2.4624672E-2,5.9143865E-1,2.1246092E0,2.65651E-1,4.0752283E-1,-1.3299788E0,-1.7795452E-1,-3.0569212E0,5.3509433E-2,1.6227376E-1,-1.1269864E0,1.4796568E0,4.659346E-1,-1.1629113E0,4.6721184E-1,-7.092171E-1,7.2773165E-1,1.3448906E-1,1.1886903E0,1.7042756E0,7.134486E-1,-5.2183264E-1,-3.1259804E0,3.7090856E-1,-2.5812715E-1,-3.0347106E-1,-2.3409959E-2,-1.0890261E-1,-5.775787E-3,1.2544926E0,-1.4279799E-1,-2.792909E-1,1.8532889E-1,-9.09349E-3,-2.2536924E-1,1.4889811E0,-2.1650116E-1,-8.373724E-1,1.9058168E-1,2.488243E0,3.229001E-1,-1.3733208E-1,7.826544E-1,-3.4382766E-1,2.9616132E-2,-5.7929456E-2,1.270287E-1,-1.5720329E-1,-1.1106014E0,8.8592485E-2,1.3900272E0,9.5631635E-1,1.3900272E0,2.797613E0,1.59687E-1,-6.1887402E-2,5.2317616E-2,-2.8271291E-2,-1.6615063E-2,-6.524759E-2,1.0275593E-1,2.9715463E-3,-6.5003395E-2,3.5669696E-2,3.822655E-2,-5.6001138E-2,1.0182109E-1,3.607146E-2,-4.981786E-2,2.7051622E-2,-3.311861E-2,9.779847E-2,-1.4725394E-2,9.911748E-2,-1.8042507E-2,-7.2014116E-2,9.153465E-2,-5.3669162E-2,-6.5909706E-2,-4.657279E-3,-5.0563555E-2,5.5597443E-2,-1.7917693E-2,1.0946323E-1,8.702065E-2,-4.9222056E-2,-6.589783E-2,-6.2623294E-3,-5.5885535E-2,9.4325535E-2,8.2056336E-2,-2.7296338E-2,1.2356003E-1,8.812633E-3,2.8454417E-2,-4.0689327E-2,-4.7295284E-2,8.284178E-2,-3.7951346E-2,6.2294718E-2,-6.259334E-2,6.300532E-2,7.476782E-2,-6.568211E-2,-5.759263E-2,6.171601E-2,-6.1335087E-2,4.3977987E-2,1.20724045E-1,-9.411692E-3,-5.2550055E-2,4.779417E-3,3.325048E-2,-6.111131E-2],"split_indices":[133,82,82,132,76,4,133,4,6,82,20,132,24,80,0,20,89,24,4,10,104,57,133,124,75,6,98,6,82,0,130,78,77,79,129,6,24,68,24,130,125,2,98,48,104,52,42,24,131,42,4,0,0,0,9,78,0,124,0,124,34,130,29,0,0,0,0,0,0,0,0,0,0,0,0,0,0,0,0,0,0,0,0,0,0,0,0,0,0,0,0,0,0,0,0,0,0,0,0,0,0,0,0,0,0,0,0,0,0,0,0,0,0,0,0,0,0,0,0,0,0],"split_type":[0,0,0,0,0,0,0,0,0,0,0,0,0,0,0,0,0,0,0,0,0,0,0,0,0,0,0,0,0,0,0,0,0,0,0,0,0,0,0,0,0,0,0,0,0,0,0,0,0,0,0,0,0,0,0,0,0,0,0,0,0,0,0,0,0,0,0,0,0,0,0,0,0,0,0,0,0,0,0,0,0,0,0,0,0,0,0,0,0,0,0,0,0,0,0,0,0,0,0,0,0,0,0,0,0,0,0,0,0,0,0,0,0,0,0,0,0,0,0,0,0],"sum_hessian":[2.8488801E3,1.4993507E3,1.3495294E3,1.099957E3,3.993937E2,2.1841846E2,1.131111E3,3.3326392E2,7.666931E2,3.492094E2,5.018428E1,1.7789209E2,4.0526367E1,2.8121106E2,8.4989984E2,2.3915457E2,9.410935E1,5.498545E2,2.1683858E2,2.401354E2,1.0907402E2,3.049899E1,1.9685293E1,1.5380783E2,2.4084269E1,4.6889896E0,3.583738E1,1.327271E2,1.4848396E2,1.4941453E1,8.3495844E2,1.1495097E2,1.242036E2,7.460108E1,1.950827E1,3.8437557E1,5.1141696E2,1.3941293E2,7.7425644E1,2.0131137E2,3.8824036E1,4.6786814E0,1.0439534E2,3.7146091E0,2.678438E1,9.277858E0,1.0407434E1,1.1522503E2,3.8582794E1,2.1829393E1,2.2548747E0,1.0116394E0,3.67735E0,3.2583923E1,3.2534535E0,1.0460396E2,2.812314E1,2.3044252E1,1.2543971E2,6.589719E0,8.351734E0,5.358479E2,2.9911053E2,5.3495087E1,6.1455887E1,2.7408596E1,9.6795E1,5.0554577E1,2.4046505E1,1.7365595E1,2.1426773E0,2.518941E1,1.3248148E1,4.3693326E2,7.448371E1,7.990131E1,5.951162E1,1.07873745E1,6.663827E1,1.8613257E2,1.5178799E1,1.5303752E0,3.729366E1,1.8596083E0,2.819073E0,1.0240445E2,1.9908965E0,2.078701E0,1.635908E0,1.5278349E0,2.5256544E1,7.241904E0,2.0359542E0,9.302982E0,1.1044521E0,1.1376621E2,1.4588194E0,1.0211061E1,2.8371733E1,2.0358929E1,1.4704651E0,1.0258465E0,1.2290285E0,1.6774535E0,1.576E0,2.5421255E1,7.91827E1,2.6156136E1,1.967005E0,1.3747011E1,9.297241E0,1.18031746E2,7.407967E0,5.2601104E0,1.3296084E0,7.2014804E0,1.1502539E0,4.2117215E2,1.1467571E2,2.1866786E0,2.9692386E2],"tree_param":{"num_deleted":"0","num_feature":"134","num_nodes":"121","size_leaf_vector":"1"}},{"base_weights":[-5.1425345E-4,-4.2856777E-1,4.2102125E-1,2.7164164E-1,-5.853964E-1,5.852849E-1,-5.063653E-1,-7.158396E-2,5.684038E-1,-7.2166376E-2,-4.642536E-1,6.4887565E-1,-6.107971E-1,1.0465881E0,-6.06998E-1,9.8887765E-1,-6.413466E-2,-6.8440425E-1,-2.797773E-1,4.8658586E-1,1.0011901E0,-7.129048E-2,2.2822785E-1,-4.114234E-2,1.2266958E-1,-7.079662E-1,-1.8697206E-2,1.0995854E0,-6.3934766E-2,-6.362531E-1,1.0293484E0,-6.9937253E-1,7.125822E-2,-7.138713E-2,-1.4856222E-1,8.1904334E-1,2.775458E-1,1.0719553E0,2.7821642E-1,1.04693495E-1,-5.6154795E-2,7.1222335E-2,-7.2028294E-2,-6.882335E-2,7.1869457E-1,4.247588E-3,1.2448473E-1,-7.150908E-2,6.4975545E-2,1.2790835E-1,-5.742867E-2,-7.06977E-2,3.3199754E-2,-3.366282E-2,2.4878094E-2,-7.009246E-2,9.626485E-2,4.6576213E-2,-1.7655669E-2,1.09017245E-1,-5.7477202E-2,7.104632E-2,-5.2161068E-2,-5.6407966E-2,1.11989036E-1],"categories":[],"categories_nodes":[],"categories_segments":[],"categories_sizes":[],"default_left":[0,0,0,0,0,0,0,0,0,0,0,0,0,0,0,0,0,0,0,0,0,0,0,0,0,0,0,0,0,0,0,0,0,0,0,0,0,0,0,0,0,0,0,0,0,0,0,0,0,0,0,0,0,0,0,0,0,0,0,0,0,0,0,0,0],"id":5,"left_children":[1,3,5,7,9,11,13,-1,15,-1,17,19,21,23,25,27,29,31,33,35,37,-1,39,-1,-1,41,43,45,-1,47,49,51,-1,-1,53,55,57,59,61,-1,-1,-1,-1,-1,63,-1,-1,-1,-1,-1,-1,-1,-1,-1,-1,-1,-1,-1,-1,-1,-1,-1,-1,-1,-1],"loss_changes":[5.142649E2,1.5544531E2,2.1904547E2,7.643729E1,1.8742218E1,9.321628E1,3.448662E1,0E0,5.327047E1,0E0,2.4768188E1,6.5794495E1,5.4846687E0,4.062743E0,1.2107895E1,2.2375534E1,5.1216736E1,6.342987E0,1.9036602E1,5.5064056E1,1.8357208E1,0E0,5.4356117E0,0E0,0E0,3.559082E0,1.5759724E1,1.7290604E1,0E0,5.906803E0,1.2005495E1,2.407608E0,0E0,0E0,1.9462614E1,6.76021E1,4.196017E1,1.0579559E1,1.2076661E1,0E0,0E0,0E0,0E0,0E0,8.455898E0,0E0,0E0,0E0,0E0,0E0,0E0,0E0,0E0,0E0,0E0,0E0,0E0,0E0,0E0,0E0,0E0,0E0,0E0,0E0,0E0],"parents":[2147483647,0,0,1,1,2,2,3,3,4,4,5,5,6,6,8,8,10,10,11,11,12,12,13,13,14,14,15,15,16,16,17,17,18,18,19,19,20,20,22,22,25,25,26,26,27,27,29,29,30,30,31,31,34,34,35,35,36,36,37,37,38,38,44,44],"right_children":[2,4,6,8,10,12,14,-1,16,-1,18,20,22,24,26,28,30,32,34,36,38,-1,40,-1,-1,42,44,46,-1,48,50,52,-1,-1,54,56,58,60,62,-1,-1,-1,-1,-1,64,-1,-1,-1,-1,-1,-1,-1,-1,-1,-1,-1,-1,-1,-1,-1,-1,-1,-1,-1,-1],"split_conditions":[3.2507807E-1,-7.7786607E-1,7.0949024E-1,-7.431375E-1,-7.431375E-1,1.8265263E0,-2.2826428E0,-7.158396E-2,-3.499072E-1,-7.2166376E-2,-1.8468902E-1,4.5770848E-1,3.5993293E-1,-2.1977368E-1,8.277884E-1,1.1541176E-1,1.0277568E-1,1.3110275E0,-7.142238E-2,-6.364172E-1,-1.1694133E-1,-7.129048E-2,5.0277394E-1,-4.114234E-2,1.2266958E-1,-2.3719957E0,5.218929E-2,-9.4931656E-1,-6.3934766E-2,1.895408E-1,1.0234096E-1,1.2748762E0,7.125822E-2,-7.138713E-2,-1.4367668E-1,-3.393958E-1,6.543608E-2,5.125276E-1,7.1496457E-1,1.04693495E-1,-5.6154795E-2,7.1222335E-2,-7.2028294E-2,-6.882335E-2,-2.1273859E-1,4.247588E-3,1.2448473E-1,-7.150908E-2,6.4975545E-2,1.2790835E-1,-5.742867E-2,-7.06977E-2,3.3199754E-2,-3.366282E-2,2.4878094E-2,-7.009246E-2,9.626485E-2,4.6576213E-2,-1.7655669E-2,1.09017245E-1,-5.7477202E-2,7.104632E-2,-5.2161068E-2,-5.6407966E-2,1.11989036E-1],"split_indices":[104,82,82,104,104,7,2,0,2,0,78,8,24,30,2,75,7,98,0,82,131,0,24,0,0,0,89,75,0,51,104,84,0,0,108,24,124,132,84,0,0,0,0,0,114,0,0,0,0,0,0,0,0,0,0,0,0,0,0,0,0,0,0,0,0],"split_type":[0,0,0,0,0,0,0,0,0,0,0,0,0,0,0,0,0,0,0,0,0,0,0,0,0,0,0,0,0,0,0,0,0,0,0,0,0,0,0,0,0,0,0,0,0,0,0,0,0,0,0,0,0,0,0,0,0,0,0,0,0,0,0,0,0],"sum_hessian":[2.8480645E3,1.4130988E3,1.4349656E3,2.5844778E2,1.154651E3,1.2193557E3,2.156099E2,5.9395634E1,1.9905215E2,5.410711E2,6.135799E2,1.1582346E3,6.1121075E1,1.2549363E1,2.0306053E2,1.1923109E2,7.9821075E1,2.78506E2,3.3507385E2,7.945945E2,3.6364014E2,5.462379E1,6.4972854E0,1.2385678E0,1.1310795E1,1.731414E2,2.9919117E1,1.11944336E2,7.2867475E0,5.2677795E1,2.7143276E1,2.760476E2,2.4584033E0,7.674402E1,2.5832983E2,3.0561923E2,4.8897525E2,3.3078043E2,3.2859722E1,3.0303335E0,3.466952E0,1.0000799E0,1.7214133E2,1.5715992E1,1.4203126E1,1.368045E1,9.8263885E1,5.005327E1,2.6245263E0,2.3660929E1,3.482346E0,2.743394E2,1.7082207E0,1.7544365E2,8.288619E1,2.6047043E1,2.7957217E2,3.4567447E2,1.4330077E2,3.2749545E2,3.2849889E0,2.1404121E1,1.14556E1,3.2870831E0,1.0916042E1],"tree_param":{"num_deleted":"0","num_feature":"134","num_nodes":"65","size_leaf_vector":"1"}},{"base_weights":[5.4819783E-4,-2.1830286E-1,6.5432674E-1,7.31875E-1,-3.4118333E-1,4.5675972E-1,1.0323585E0,-3.8838252E-1,8.23391E-1,-4.9228236E-1,-5.8266748E-2,2.7594492E-1,7.2655517E-1,2.9156864E-1,1.0575162E0,7.230372E-2,-5.1392937E-1,9.289692E-1,3.4535557E-1,-5.7221675E-1,-3.6739892E-1,4.3622166E-1,-1.4731906E-1,1.5810962E-1,7.968003E-1,8.0093557E-1,-3.2227477E-1,-5.8191795E-2,9.9878706E-2,1.1099529E0,6.4934313E-1,-6.5486364E-2,1.19113155E-1,1.713199E-2,9.910954E-1,-7.100277E-2,9.3855387E-1,5.134923E-1,-5.807536E-1,-3.911903E-1,2.6594546E-1,1.0090737E0,2.0211941E-1,-2.2662212E-1,2.6829237E-1,9.058788E-2,1.0849903E0,1.1575891E-1,2.4024393E-1,8.820133E-1,3.6747092E-1,5.6830306E-2,-4.9907812E-1,3.4903366E-2,1.1128867E0,9.16136E-1,-4.744245E-1,-4.626989E-2,7.5629435E-2,-6.511228E-2,4.902993E-2,7.2419964E-2,1.0720072E-1,8.859599E-2,-3.0825976E-2,1.0696057E-1,-4.306009E-2,-4.6252117E-2,9.848538E-2,-5.96455E-2,-6.686265E-3,3.1444933E-2,-4.0946703E-2,-2.697505E-2,7.779593E-2,-1.1929728E-2,1.0817883E-1,-4.6751183E-2,5.2973818E-2,-3.5129603E-2,-4.2928187E-3,-1.4474221E-2,5.788948E-2,-1.856524E-2,2.3981912E-2,3.0440935E-3,1.1609715E-1,5.5208206E-2,-6.1364837E-2,9.9609576E-2,5.378289E-2,-6.874286E-2,9.045598E-2,-6.347104E-2,-5.221229E-3,1.117868E-1,4.959541E-2,1.0551142E-1,2.3822634E-2,-2.9283417E-3,-5.927388E-2],"categories":[],"categories_nodes":[],"categories_segments":[],"categories_sizes":[],"default_left":[0,0,0,0,0,0,0,0,0,0,0,0,0,0,0,0,0,0,0,0,0,0,0,0,0,0,0,0,0,0,0,0,0,0,0,0,0,0,0,0,0,0,0,0,0,0,0,0,0,0,0,0,0,0,0,0,0,0,0,0,0,0,0,0,0,0,0,0,0,0,0,0,0,0,0,0,0,0,0,0,0,0,0,0,0,0,0,0,0,0,0,0,0,0,0,0,0,0,0,0,0],"id":6,"left_children":[1,3,5,7,9,11,13,15,17,19,21,23,25,27,29,-1,31,33,35,37,39,41,43,45,47,49,51,-1,-1,53,55,-1,57,59,61,63,65,67,69,71,73,75,77,79,81,83,85,-1,87,89,91,-1,93,-1,95,97,99,-1,-1,-1,-1,-1,-1,-1,-1,-1,-1,-1,-1,-1,-1,-1,-1,-1,-1,-1,-1,-1,-1,-1,-1,-1,-1,-1,-1,-1,-1,-1,-1,-1,-1,-1,-1,-1,-1,-1,-1,-1,-1,-1,-1],"loss_changes":[4.0458383E2,2.4760321E2,5.2493652E1,2.5224045E1,8.019267E1,2.2607864E1,4.2132263E0,3.0262759E0,1.10295105E1,1.1999695E1,2.8883379E1,1.7154095E1,1.4846336E1,6.356835E0,4.293396E0,0E0,1.6552534E0,1.038472E1,1.0508022E1,7.193878E0,7.3389816E0,1.3223631E1,1.8363989E1,1.4349476E1,1.0102566E1,5.822708E0,2.3457441E0,0E0,0E0,7.18689E-2,9.153026E0,0E0,1.8570021E0,4.344406E0,2.9355469E0,6.1241174E0,3.6015978E0,3.3699727E0,5.9201508E0,6.1021576E0,5.141177E0,2.491808E0,1.6115644E1,1.0677473E1,1.1558176E1,8.959868E0,1.213356E0,0E0,6.088766E0,5.2216873E0,1.7207708E1,0E0,6.614132E-1,0E0,7.537842E-2,1.9948521E0,3.1117654E-1,0E0,0E0,0E0,0E0,0E0,0E0,0E0,0E0,0E0,0E0,0E0,0E0,0E0,0E0,0E0,0E0,0E0,0E0,0E0,0E0,0E0,0E0,0E0,0E0,0E0,0E0,0E0,0E0,0E0,0E0,0E0,0E0,0E0,0E0,0E0,0E0,0E0,0E0,0E0,0E0,0E0,0E0,0E0,0E0],"parents":[2147483647,0,0,1,1,2,2,3,3,4,4,5,5,6,6,7,7,8,8,9,9,10,10,11,11,12,12,13,13,14,14,16,16,17,17,18,18,19,19,20,20,21,21,22,22,23,23,24,24,25,25,26,26,29,29,30,30,32,32,33,33,34,34,35,35,36,36,37,37,38,38,39,39,40,40,41,41,42,42,43,43,44,44,45,45,46,46,48,48,49,49,50,50,52,52,54,54,55,55,56,56],"right_children":[2,4,6,8,10,12,14,16,18,20,22,24,26,28,30,-1,32,34,36,38,40,42,44,46,48,50,52,-1,-1,54,56,-1,58,60,62,64,66,68,70,72,74,76,78,80,82,84,86,-1,88,90,92,-1,94,-1,96,98,100,-1,-1,-1,-1,-1,-1,-1,-1,-1,-1,-1,-1,-1,-1,-1,-1,-1,-1,-1,-1,-1,-1,-1,-1,-1,-1,-1,-1,-1,-1,-1,-1,-1,-1,-1,-1,-1,-1,-1,-1,-1,-1,-1,-1],"split_conditions":[6.461999E-1,-1.265713E0,2.1246092E0,-1.0812857E0,-1.9656086E-1,2.5133345E-1,-1.5986085E0,8.703473E-1,1.3645095E-1,-5.743441E-1,-5.0276554E-1,7.5402373E-1,2.0535803E0,4.8760846E-2,2.0523226E0,7.230372E-2,-1.9069351E-2,-1.0276703E0,-1.4556028E-1,-1.6135459E0,-2.9519433E-2,-3.422466E-1,-8.199629E-2,8.3842534E-1,1.3902929E0,1.4373791E0,-2.2091292E-1,-5.8191795E-2,9.9878706E-2,-1.704526E-1,6.992386E-1,-6.5486364E-2,1.9245593E-1,6.23779E-1,7.0132583E-1,-1.5925698E0,7.9746115E-1,-1.3421614E-1,1.5962611E0,-1.1629113E0,8.9111894E-2,-1.2940057E-1,-7.7396137E-1,4.4382524E-1,-1.0065641E-1,7.664261E-1,1.500035E-3,1.1575891E-1,-1.8924087E-1,1.2559682E-1,-7.679266E-2,5.6830306E-2,5.9510285E-1,3.4903366E-2,7.6232266E-1,1.4311141E0,-1.7247011E-1,-4.626989E-2,7.5629435E-2,-6.511228E-2,4.902993E-2,7.2419964E-2,1.0720072E-1,8.859599E-2,-3.0825976E-2,1.0696057E-1,-4.306009E-2,-4.6252117E-2,9.848538E-2,-5.96455E-2,-6.686265E-3,3.1444933E-2,-4.0946703E-2,-2.697505E-2,7.779593E-2,-1.1929728E-2,1.0817883E-1,-4.6751183E-2,5.2973818E-2,-3.5129603E-2,-4.2928187E-3,-1.4474221E-2,5.788948E-2,-1.856524E-2,2.3981912E-2,3.0440935E-3,1.1609715E-1,5.5208206E-2,-6.1364837E-2,9.9609576E-2,5.378289E-2,-6.874286E-2,9.045598E-2,-6.347104E-2,-5.221229E-3,1.117868E-1,4.959541E-2,1.0551142E-1,2.3822634E-2,-2.9283417E-3,-5.927388E-2],"split_indices":[82,104,82,82,82,132,123,132,120,82,84,128,6,24,124,0,47,3,4,6,55,77,131,0,42,132,115,0,0,45,27,0,20,8,133,104,24,129,104,104,14,21,133,4,76,82,6,0,132,14,8,0,98,0,130,132,5,0,0,0,0,0,0,0,0,0,0,0,0,0,0,0,0,0,0,0,0,0,0,0,0,0,0,0,0,0,0,0,0,0,0,0,0,0,0,0,0,0,0,0,0],"split_type":[0,0,0,0,0,0,0,0,0,0,0,0,0,0,0,0,0,0,0,0,0,0,0,0,0,0,0,0,0,0,0,0,0,0,0,0,0,0,0,0,0,0,0,0,0,0,0,0,0,0,0,0,0,0,0,0,0,0,0,0,0,0,0,0,0,0,0,0,0,0,0,0,0,0,0,0,0,0,0,0,0,0,0,0,0,0,0,0,0,0,0,0,0,0,0,0,0,0,0,0,0],"sum_hessian":[2.8256746E3,2.1175088E3,7.081658E2,2.4191742E2,1.8755914E3,4.6654712E2,2.4161867E2,1.8025192E1,2.2389223E2,1.2221371E3,6.5345435E2,2.805485E2,1.8599864E2,8.349514E0,2.3326915E2,1.346452E0,1.667874E1,1.8261652E2,4.1275703E1,7.429887E2,4.791484E2,9.912668E1,5.543277E2,2.2985173E2,5.0696754E1,1.7390227E2,1.2096368E1,3.8148992E0,4.534615E0,2.0518976E2,2.8079397E1,1.3613497E1,3.065243E0,1.1729943E1,1.7088658E2,2.4770153E1,1.6505548E1,5.3350153E0,7.376537E2,4.621695E2,1.697891E1,2.7796873E1,7.13298E1,4.6588635E2,8.8441315E1,2.1526756E2,1.4584158E1,3.0102705E1,2.059405E1,1.4562831E2,2.827396E1,1.6368835E0,1.0459484E1,1.248863E0,2.0394089E2,2.2841398E1,5.2379975E0,1.7453728E0,1.3198702E0,4.706647E0,7.023297E0,4.2068794E1,1.2881778E2,4.377913E0,2.039224E1,1.5263365E1,1.2421838E0,1.7435435E0,3.5914717E0,7.156278E2,2.2025875E1,1.1259278E1,4.5091022E2,8.528792E0,8.450118E0,1.6440569E0,2.6152815E1,2.3293146E1,4.803666E1,2.7698383E2,1.8890254E2,3.8190346E1,5.025097E1,7.541804E1,1.3984953E2,1.0743151E0,1.3509843E1,1.534395E1,5.2500987E0,1.0795257E2,3.7675743E1,9.444346E0,1.8829615E1,7.7015553E0,2.757929E0,2.0150195E2,2.4389381E0,1.8493607E1,4.3477926E0,1.3618251E0,3.8761725E0],"tree_param":{"num_deleted":"0","num_feature":"134","num_nodes":"101","size_leaf_vector":"1"}},{"base_weights":[6.395088E-4,2.5660136E-1,-2.913763E-1,3.7526527E-1,-3.348751E-1,3.4125797E-2,-3.550348E-1,-1.0176889E-1,5.470296E-1,-1.4963429E-1,-5.904596E-1,-1.7543617E-1,8.9418393E-1,-1.1171912E-1,-4.365468E-1,4.4077244E-1,-2.3067921E-1,7.2848284E-1,2.0442323E-1,-2.3914042E-1,1.0076089E0,1.09533764E-1,-6.2349176E-1,-3.6747497E-1,9.543409E-1,-3.6079854E-1,1.0556204E0,1.7642301E-1,-3.7546483E-1,3.9620775E-1,-4.5251346E-1,6.136559E-1,-6.8109063E-3,-3.211592E-1,7.40746E-1,7.8123224E-1,-6.67734E-2,-5.9067523E-1,3.2724828E-1,-3.3996993E-1,3.247078E-1,1.3143152E-1,-2.5922013E-2,8.719771E-2,-5.1613957E-2,-6.345922E-1,-4.6052076E-3,-5.0666904E-1,4.0873375E-2,1.0588562E0,-9.873953E-2,-5.665469E-2,2.8633123E-2,1.1351222E-1,1.7019534E-1,3.4824625E-1,-5.125753E-1,1.7186144E-1,-4.7934592E-1,-3.551891E-1,9.355218E-1,-3.9517057E-1,-6.075339E-1,1.1788043E-1,3.919458E-2,9.467047E-2,-3.3918735E-2,-3.6687706E-2,5.248316E-2,9.9072196E-2,-4.25849E-2,5.5831064E-2,9.703277E-2,4.0603247E-2,-5.0125867E-2,-6.930449E-2,5.7527214E-2,5.866331E-2,6.386477E-3,7.609569E-2,-4.0393464E-2,9.3948364E-2,-4.6369843E-2,-1.670815E-2,-6.466898E-2,-5.3393967E-2,9.09658E-2,7.835683E-2,-2.5359048E-2,1.15471065E-1,2.7739469E-2,-3.969934E-2,2.730659E-2,-4.7604393E-2,7.6509796E-2,-3.6572002E-2,5.6878895E-2,-6.253754E-2,6.0352333E-2,6.952908E-2,-6.362598E-2,-5.5374045E-2,5.835845E-2,-5.9675205E-2,4.253865E-2,-9.930703E-3,1.0877093E-1,-5.1222544E-2,-1.6232047E-2,3.2869525E-2,-6.1858214E-2],"categories":[],"categories_nodes":[],"categories_segments":[],"categories_sizes":[],"default_left":[0,0,0,0,0,0,0,0,0,0,0,0,0,0,0,0,0,0,0,0,0,0,0,0,0,0,0,0,0,0,0,0,0,0,0,0,0,0,0,0,0,0,0,0,0,0,0,0,0,0,0,0,0,0,0,0,0,0,0,0,0,0,0,0,0,0,0,0,0,0,0,0,0,0,0,0,0,0,0,0,0,0,0,0,0,0,0,0,0,0,0,0,0,0,0,0,0,0,0,0,0,0,0,0,0,0,0,0,0,0,0],"id":7,"left_children":[1,3,5,7,9,11,13,15,17,19,21,23,25,27,29,31,33,35,37,39,41,43,45,47,49,51,53,55,57,59,61,63,65,67,69,71,73,75,77,79,81,-1,-1,-1,-1,83,-1,85,87,89,91,-1,-1,-1,93,95,97,99,101,103,105,107,109,-1,-1,-1,-1,-1,-1,-1,-1,-1,-1,-1,-1,-1,-1,-1,-1,-1,-1,-1,-1,-1,-1,-1,-1,-1,-1,-1,-1,-1,-1,-1,-1,-1,-1,-1,-1,-1,-1,-1,-1,-1,-1,-1,-1,-1,-1,-1,-1],"loss_changes":[2.1157732E2,1.05999054E2,2.7409592E1,1.030396E2,1.1870399E1,3.9303665E1,2.1886917E1,2.3432484E1,5.7310364E1,1.5548807E1,2.5146751E0,3.8423058E1,9.035507E0,2.1260498E1,1.1190292E1,4.986514E0,2.3986916E1,2.5383575E1,3.158208E1,7.955216E0,4.537635E0,3.1302207E0,6.193466E-1,8.586889E0,2.9411488E0,9.0970737E-1,2.489048E0,1.6037361E1,8.379307E0,6.861636E0,6.9870605E0,5.3591595E0,6.3204474E0,9.779539E0,7.223901E0,2.3332886E1,8.109114E0,5.574548E0,1.902665E1,8.584739E0,1.0829123E1,0E0,0E0,0E0,0E0,4.5298386E-1,0E0,4.82975E0,8.7798605E0,1.4423084E0,4.6787542E-1,0E0,0E0,0E0,2.0234318E0,1.7184685E1,3.7946591E0,1.0600344E1,1.004258E1,1.6599728E0,1.628583E0,1.6170906E1,2.4548569E0,0E0,0E0,0E0,0E0,0E0,0E0,0E0,0E0,0E0,0E0,0E0,0E0,0E0,0E0,0E0,0E0,0E0,0E0,0E0,0E0,0E0,0E0,0E0,0E0,0E0,0E0,0E0,0E0,0E0,0E0,0E0,0E0,0E0,0E0,0E0,0E0,0E0,0E0,0E0,0E0,0E0,0E0,0E0,0E0,0E0,0E0,0E0,0E0],"parents":[2147483647,0,0,1,1,2,2,3,3,4,4,5,5,6,6,7,7,8,8,9,9,10,10,11,11,12,12,13,13,14,14,15,15,16,16,17,17,18,18,19,19,20,20,21,21,22,22,23,23,24,24,25,25,26,26,27,27,28,28,29,29,30,30,31,31,32,32,33,33,34,34,35,35,36,36,37,37,38,38,39,39,40,40,45,45,47,47,48,48,49,49,50,50,54,54,55,55,56,56,57,57,58,58,59,59,60,60,61,61,62,62],"right_children":[2,4,6,8,10,12,14,16,18,20,22,24,26,28,30,32,34,36,38,40,42,44,46,48,50,52,54,56,58,60,62,64,66,68,70,72,74,76,78,80,82,-1,-1,-1,-1,84,-1,86,88,90,92,-1,-1,-1,94,96,98,100,102,104,106,108,110,-1,-1,-1,-1,-1,-1,-1,-1,-1,-1,-1,-1,-1,-1,-1,-1,-1,-1,-1,-1,-1,-1,-1,-1,-1,-1,-1,-1,-1,-1,-1,-1,-1,-1,-1,-1,-1,-1,-1,-1,-1,-1,-1,-1,-1,-1,-1,-1],"split_conditions":[2.75557E-1,7.664261E-1,-7.7786607E-1,-1.1251367E0,2.1246092E0,8.1021614E-2,7.8028834E-1,-5.089465E-1,3.5680208E-1,5.516851E-1,-1.1629113E0,4.0752283E-1,-1.3299788E0,-1.7795452E-1,-3.0569212E0,-1.9287288E-1,2.4364477E-1,3.652429E-1,-1.3389466E0,-2.2354496E-1,4.0876514E-1,-2.2536924E-1,1.4889811E0,7.2773165E-1,1.3448906E-1,4.9100366E0,1.7042756E0,8.099372E-1,-5.2183264E-1,-3.1259804E0,5.014197E-1,-4.9390563E-1,-1.1690727E0,1.6109868E0,6.0185945E-1,-2.1137244E-1,-4.3143734E-1,1.0234096E-1,4.241611E-1,-2.2391371E-1,-1.3995984E-1,1.3143152E-1,-2.5922013E-2,8.719771E-2,-5.1613957E-2,-4.317741E-1,-4.6052076E-3,3.229001E-1,-1.3733208E-1,-1.9069351E-2,2.625605E0,-5.665469E-2,2.8633123E-2,1.1351222E-1,-1.5720329E-1,-1.1106014E0,8.8592485E-2,1.3900272E0,9.5631635E-1,1.3900272E0,-2.2139567E-1,1.5151769E-1,-6.1887402E-2,1.1788043E-1,3.919458E-2,9.467047E-2,-3.3918735E-2,-3.6687706E-2,5.248316E-2,9.9072196E-2,-4.25849E-2,5.5831064E-2,9.703277E-2,4.0603247E-2,-5.0125867E-2,-6.930449E-2,5.7527214E-2,5.866331E-2,6.386477E-3,7.609569E-2,-4.0393464E-2,9.3948364E-2,-4.6369843E-2,-1.670815E-2,-6.466898E-2,-5.3393967E-2,9.09658E-2,7.835683E-2,-2.5359048E-2,1.15471065E-1,2.7739469E-2,-3.969934E-2,2.730659E-2,-4.7604393E-2,7.6509796E-2,-3.6572002E-2,5.6878895E-2,-6.253754E-2,6.0352333E-2,6.952908E-2,-6.362598E-2,-5.5374045E-2,5.835845E-2,-5.9675205E-2,4.253865E-2,-9.930703E-3,1.0877093E-1,-5.1222544E-2,-1.6232047E-2,3.2869525E-2,-6.1858214E-2],"split_indices":[133,82,82,132,82,4,133,80,7,34,104,132,24,80,0,114,54,92,82,133,13,2,98,124,75,30,98,6,82,0,130,77,2,12,35,32,104,104,11,115,17,0,0,0,0,25,0,24,131,47,13,0,0,0,9,78,0,124,0,124,115,130,29,0,0,0,0,0,0,0,0,0,0,0,0,0,0,0,0,0,0,0,0,0,0,0,0,0,0,0,0,0,0,0,0,0,0,0,0,0,0,0,0,0,0,0,0,0,0,0,0],"split_type":[0,0,0,0,0,0,0,0,0,0,0,0,0,0,0,0,0,0,0,0,0,0,0,0,0,0,0,0,0,0,0,0,0,0,0,0,0,0,0,0,0,0,0,0,0,0,0,0,0,0,0,0,0,0,0,0,0,0,0,0,0,0,0,0,0,0,0,0,0,0,0,0,0,0,0,0,0,0,0,0,0,0,0,0,0,0,0,0,0,0,0,0,0,0,0,0,0,0,0,0,0,0,0,0,0,0,0,0,0,0,0],"sum_hessian":[2.8286587E3,1.5074491E3,1.3212095E3,1.25586E3,2.5158911E2,2.1619806E2,1.1050115E3,3.3258707E2,9.232729E2,1.4678716E2,1.0480195E2,1.744802E2,4.171787E1,2.778856E2,8.2712585E2,6.3388103E1,2.6919897E2,6.028576E2,3.204153E2,1.3698547E2,9.801688E0,4.618305E0,1.0018365E2,1.4970772E2,2.4772486E1,4.614047E0,3.710382E1,1.32959E2,1.4492659E2,1.5112348E1,8.120135E2,4.5458332E1,1.7929771E1,2.4687413E2,2.2324833E1,5.6537396E2,3.7483646E1,4.236429E1,2.7805103E2,1.1654203E2,2.0443438E1,7.86101E0,1.9406784E0,1.9041963E0,2.714109E0,9.819698E1,1.9866625E0,1.1147003E2,3.823768E1,2.2530874E1,2.2416117E0,3.5954375E0,1.0186095E0,3.3788006E1,3.3158133E0,1.0681573E2,2.6143272E1,2.3014406E1,1.2191218E2,6.457237E0,8.65511E0,5.953424E2,2.166711E2,1.1592272E1,3.386606E1,4.156729E0,1.3773042E1,2.3475421E2,1.2119916E1,1.8509424E1,3.8154092E0,2.6129266E2,3.040813E2,1.79816E1,1.9502047E1,3.93178E1,3.0464892E0,1.3947061E2,1.3858043E2,5.80104E0,1.1074099E2,1.1378892E1,9.064547E0,2.8505177E0,9.5346466E1,1.09975525E2,1.4945046E0,1.0384628E1,2.785305E1,1.9643734E1,2.8871393E0,1.2062447E0,1.035367E0,1.6850972E0,1.6307161E0,2.5053E1,8.1762726E1,2.4142912E1,2.0003598E0,1.4052233E1,8.9621725E0,1.1438539E2,7.5267906E0,5.1110344E0,1.3462026E0,1.1542225E0,7.5008883E0,3.953821E2,1.9996028E2,2.1917462E0,2.1447934E2],"tree_param":{"num_deleted":"0","num_feature":"134","num_nodes":"111","size_leaf_vector":"1"}},{"base_weights":[-1.1889518E-3,-3.986929E-1,3.938346E-1,2.7689165E-1,-5.581907E-1,5.400457E-1,-4.7835386E-1,-6.9565E-2,5.4201066E-1,-6.99008E-2,-4.399119E-1,5.970617E-1,-5.877765E-1,9.5571166E-1,-5.8028084E-1,9.176363E-1,-4.5645334E-2,-6.6430134E-1,-2.57224E-1,4.530212E-1,9.201214E-1,-6.926806E-2,2.6825204E-1,-4.0530037E-2,1.11886196E-1,-6.844716E-1,-8.184748E-4,-6.1653137E-2,1.0099348E0,-5.4891664E-1,8.9934546E-1,-6.7882186E-1,6.626645E-2,-6.91608E-2,-1.3091388E-1,5.542622E-1,-1.505218E-1,-6.1226E-2,9.415107E-1,9.8615736E-2,-5.277903E-2,6.757325E-2,-6.973664E-2,-6.6622145E-2,7.12807E-1,3.8739224E-3,1.131727E-1,6.070599E-2,-6.9527194E-2,1.1524703E-1,-5.8025844E-2,-6.863677E-2,6.816591E-2,3.1201994E-2,-2.72184E-2,6.1251976E-2,-4.4426363E-2,-6.595146E-2,2.9324738E-2,9.625941E-2,-6.1115034E-2,-5.6584068E-2,1.1545452E-1],"categories":[],"categories_nodes":[],"categories_segments":[],"categories_sizes":[],"default_left":[0,0,0,0,0,0,0,0,0,0,0,0,0,0,0,0,0,0,0,0,0,0,0,0,0,0,0,0,0,0,0,0,0,0,0,0,0,0,0,0,0,0,0,0,0,0,0,0,0,0,0,0,0,0,0,0,0,0,0,0,0,0,0],"id":8,"left_children":[1,3,5,7,9,11,13,-1,15,-1,17,19,21,23,25,27,29,31,33,35,37,-1,39,-1,-1,41,43,-1,45,47,49,51,-1,-1,53,55,57,-1,59,-1,-1,-1,-1,-1,61,-1,-1,-1,-1,-1,-1,-1,-1,-1,-1,-1,-1,-1,-1,-1,-1,-1,-1],"loss_changes":[4.4379678E2,1.5195122E2,1.8103314E2,6.99243E1,1.8679993E1,7.844983E1,3.0380775E1,0E0,4.6951946E1,0E0,2.533844E1,5.3403046E1,5.479454E0,3.5440578E0,1.1539024E1,1.8987358E1,4.0357883E1,5.818634E0,1.881919E1,4.908174E1,1.2234619E1,0E0,4.610137E0,0E0,0E0,3.312683E0,1.4782273E1,0E0,1.4471054E1,9.780315E0,1.1719776E1,3.302414E0,0E0,0E0,1.6869564E1,4.0231125E1,2.6389727E1,0E0,1.2084381E1,0E0,0E0,0E0,0E0,0E0,9.137852E0,0E0,0E0,0E0,0E0,0E0,0E0,0E0,0E0,0E0,0E0,0E0,0E0,0E0,0E0,0E0,0E0,0E0,0E0],"parents":[2147483647,0,0,1,1,2,2,3,3,4,4,5,5,6,6,8,8,10,10,11,11,12,12,13,13,14,14,15,15,16,16,17,17,18,18,19,19,20,20,22,22,25,25,26,26,28,28,29,29,30,30,31,31,34,34,35,35,36,36,38,38,44,44],"right_children":[2,4,6,8,10,12,14,-1,16,-1,18,20,22,24,26,28,30,32,34,36,38,-1,40,-1,-1,42,44,-1,46,48,50,52,-1,-1,54,56,58,-1,60,-1,-1,-1,-1,-1,62,-1,-1,-1,-1,-1,-1,-1,-1,-1,-1,-1,-1,-1,-1,-1,-1,-1,-1],"split_conditions":[3.639582E-1,-7.7786607E-1,7.0949024E-1,-7.431375E-1,-7.431375E-1,1.8265263E0,-2.2826428E0,-6.9565E-2,-3.499072E-1,-6.99008E-2,-1.8468902E-1,5.426755E-1,3.5993293E-1,-2.1977368E-1,8.277884E-1,-1.5224214E0,1.0277568E-1,1.3110275E0,-7.142238E-2,4.3406028E-1,5.801232E-1,-6.926806E-2,5.0277394E-1,-4.0530037E-2,1.11886196E-1,-2.3719957E0,-8.840794E-2,-6.1653137E-2,-9.4931656E-1,-1.583344E0,1.0234096E-1,1.3100365E0,6.626645E-2,-6.91608E-2,-1.3202815E0,7.102618E-2,3.5680208E-1,-6.1226E-2,5.125276E-1,9.8615736E-2,-5.277903E-2,6.757325E-2,-6.973664E-2,-6.6622145E-2,1.6995925E-1,3.8739224E-3,1.131727E-1,6.070599E-2,-6.9527194E-2,1.1524703E-1,-5.8025844E-2,-6.863677E-2,6.816591E-2,3.1201994E-2,-2.72184E-2,6.1251976E-2,-4.4426363E-2,-6.595146E-2,2.9324738E-2,9.625941E-2,-6.1115034E-2,-5.6584068E-2,1.1545452E-1],"split_indices":[104,82,82,104,104,7,2,0,2,0,78,128,24,30,2,4,7,98,0,27,76,0,24,0,0,0,10,0,75,42,104,84,0,0,133,54,7,0,132,0,0,0,0,0,24,0,0,0,0,0,0,0,0,0,0,0,0,0,0,0,0,0,0],"split_type":[0,0,0,0,0,0,0,0,0,0,0,0,0,0,0,0,0,0,0,0,0,0,0,0,0,0,0,0,0,0,0,0,0,0,0,0,0,0,0,0,0,0,0,0,0,0,0,0,0,0,0,0,0,0,0,0,0,0,0,0,0,0,0],"sum_hessian":[2.8243096E3,1.4077303E3,1.4165791E3,2.68731E2,1.1389994E3,1.2135277E3,2.0305139E2,5.7216953E1,2.1151402E2,5.177182E2,6.212812E2,1.1555791E3,5.794864E1,1.29184475E1,1.9013295E2,1.286929E2,8.282112E1,2.7763507E2,3.4364615E2,8.0089264E2,3.5468643E2,5.1792427E1,6.156209E0,1.2239496E0,1.1694498E1,1.6100252E2,2.913042E1,6.980735E0,1.21712166E2,5.431425E1,2.8506868E1,2.7511304E2,2.5220275E0,7.640653E1,2.672396E2,6.859157E2,1.14976944E2,4.5023565E0,3.5018408E2,3.1113944E0,3.0448146E0,1.0292418E0,1.5997328E2,1.5108909E1,1.4021513E1,1.3709319E1,1.08002846E2,5.75005E0,4.85642E1,2.4531254E1,3.9756162E0,2.7408832E2,1.0247108E0,6.433064E1,2.0290897E2,6.484683E2,3.744735E1,5.332652E1,6.1650425E1,3.4586765E2,4.316452E0,3.5281243E0,1.0493388E1],"tree_param":{"num_deleted":"0","num_feature":"134","num_nodes":"63","size_leaf_vector":"1"}},{"base_weights":[6.863628E-4,-2.0503423E-1,5.9534633E-1,6.208015E-1,-3.2862025E-1,4.1562194E-1,9.370679E-1,-4.156449E-1,7.0725125E-1,-4.7479042E-1,-5.9676446E-2,2.4876548E-1,6.626565E-1,2.571724E-1,9.5999026E-1,6.81768E-2,-5.246201E-1,8.852832E-1,3.999768E-1,-5.4877824E-1,-3.6037388E-1,3.6862108E-1,-1.4515947E-1,1.4050066E-1,7.229663E-1,7.29399E-1,-3.107517E-1,-5.771926E-2,9.206065E-2,1.0076245E0,5.876227E-1,-6.4584576E-2,1.112849E-1,7.201601E-2,9.4665754E-1,1.3379996E-1,7.3929095E-1,4.920376E-1,-5.5740637E-1,-3.8469034E-1,2.7168378E-1,7.039703E-1,-3.938522E-2,-2.5176853E-1,1.17101885E-1,7.801799E-2,9.8167104E-1,1.0319469E0,2.2715756E-1,5.274497E-1,8.8378406E-1,5.3352416E-2,-4.8399177E-1,1.0122685E0,4.4255993E-1,8.3342326E-1,-4.69263E-1,-4.558849E-2,7.2202966E-2,-6.411365E-2,7.459023E-2,6.977807E-2,1.00790694E-1,-3.3099663E-2,5.34054E-2,-4.584409E-2,7.969617E-2,-4.5095082E-2,9.345451E-2,-5.6453597E-2,5.438767E-2,2.2877572E-2,-4.0600285E-2,-2.5696797E-2,7.7734426E-2,3.148798E-2,9.7350016E-2,9.8301105E-2,-3.0158473E-2,-2.980802E-2,4.1973945E-2,2.2419093E-3,8.121943E-2,-6.2123608E-2,1.32044E-2,1.0522165E-1,9.586878E-4,3.14646E-2,1.05118826E-1,5.2307066E-2,-5.9864033E-2,7.0608534E-2,-4.8072226E-2,-7.1845166E-3,9.4991E-2,-6.2025156E-2,-4.382917E-3,3.198254E-2,1.0149608E-1,-6.237037E-4,6.521628E-2,9.6027285E-2,2.1328913E-2,-3.2025636E-3,-5.8601346E-2],"categories":[],"categories_nodes":[],"categories_segments":[],"categories_sizes":[],"default_left":[0,0,0,0,0,0,0,0,0,0,0,0,0,0,0,0,0,0,0,0,0,0,0,0,0,0,0,0,0,0,0,0,0,0,0,0,0,0,0,0,0,0,0,0,0,0,0,0,0,0,0,0,0,0,0,0,0,0,0,0,0,0,0,0,0,0,0,0,0,0,0,0,0,0,0,0,0,0,0,0,0,0,0,0,0,0,0,0,0,0,0,0,0,0,0,0,0,0,0,0,0,0,0,0,0],"id":9,"left_children":[1,3,5,7,9,11,13,15,17,19,21,23,25,27,29,-1,31,33,35,37,39,41,43,45,47,49,51,-1,-1,53,55,-1,57,59,61,63,65,67,69,71,73,75,77,79,81,83,85,87,89,91,93,-1,95,97,99,101,103,-1,-1,-1,-1,-1,-1,-1,-1,-1,-1,-1,-1,-1,-1,-1,-1,-1,-1,-1,-1,-1,-1,-1,-1,-1,-1,-1,-1,-1,-1,-1,-1,-1,-1,-1,-1,-1,-1,-1,-1,-1,-1,-1,-1,-1,-1,-1,-1],"loss_changes":[3.419508E2,2.1216348E2,4.3734802E1,2.4547012E1,7.1011505E1,1.9316391E1,3.5999146E0,2.9251623E0,1.3333595E1,9.712158E0,2.3392296E1,1.4462906E1,1.256617E1,5.743673E0,3.636734E0,0E0,1.6209388E0,7.7981415E0,8.355945E0,6.6413574E0,7.2148666E0,1.4578116E1,1.4907161E1,1.2127594E1,7.8067093E0,5.084915E0,2.1433277E0,0E0,0E0,1.03012085E-1,8.03872E0,0E0,1.7391436E0,6.313059E0,1.5292358E0,1.0163406E1,3.192669E0,3.0754733E0,5.8318787E0,5.922882E0,4.937968E0,5.8202457E0,1.3410961E1,1.1900448E1,1.0148111E1,8.288617E0,1.0850163E0,1.1166382E-1,5.5509243E0,1.467856E1,6.3510895E0,0E0,6.456599E-1,6.2179565E-2,3.322217E-1,1.7023144E0,2.974447E-1,0E0,0E0,0E0,0E0,0E0,0E0,0E0,0E0,0E0,0E0,0E0,0E0,0E0,0E0,0E0,0E0,0E0,0E0,0E0,0E0,0E0,0E0,0E0,0E0,0E0,0E0,0E0,0E0,0E0,0E0,0E0,0E0,0E0,0E0,0E0,0E0,0E0,0E0,0E0,0E0,0E0,0E0,0E0,0E0,0E0,0E0,0E0,0E0],"parents":[2147483647,0,0,1,1,2,2,3,3,4,4,5,5,6,6,7,7,8,8,9,9,10,10,11,11,12,12,13,13,14,14,16,16,17,17,18,18,19,19,20,20,21,21,22,22,23,23,24,24,25,25,26,26,29,29,30,30,32,32,33,33,34,34,35,35,36,36,37,37,38,38,39,39,40,40,41,41,42,42,43,43,44,44,45,45,46,46,47,47,48,48,49,49,50,50,52,52,53,53,54,54,55,55,56,56],"right_children":[2,4,6,8,10,12,14,16,18,20,22,24,26,28,30,-1,32,34,36,38,40,42,44,46,48,50,52,-1,-1,54,56,-1,58,60,62,64,66,68,70,72,74,76,78,80,82,84,86,88,90,92,94,-1,96,98,100,102,104,-1,-1,-1,-1,-1,-1,-1,-1,-1,-1,-1,-1,-1,-1,-1,-1,-1,-1,-1,-1,-1,-1,-1,-1,-1,-1,-1,-1,-1,-1,-1,-1,-1,-1,-1,-1,-1,-1,-1,-1,-1,-1,-1,-1,-1,-1,-1,-1],"split_conditions":[6.461999E-1,-1.2024504E0,2.1246092E0,-1.0812857E0,-1.9656086E-1,2.5133345E-1,-1.5986085E0,8.703473E-1,1.2965715E-1,-5.743441E-1,-4.4201213E-1,3.6896944E-1,2.0535803E0,4.8760846E-2,2.0523226E0,6.81768E-2,-1.9069351E-2,-1.0276703E0,-1.4556028E-1,-1.6135459E0,-2.9519433E-2,5.1315826E-1,6.543608E-2,8.3842534E-1,1.3902929E0,-1.250984E-1,-2.2091292E-1,-5.771926E-2,9.206065E-2,7.687896E-1,6.992386E-1,-6.4584576E-2,1.9245593E-1,-6.411346E-2,6.212422E-1,8.276465E-1,-5.2183264E-1,-1.3421614E-1,4.0392094E0,-1.4174918E0,8.9111894E-2,-9.700068E-1,-4.7447893E-1,1.4284586E0,-6.848904E-2,-4.624848E-1,-8.918509E-2,-5.615543E-2,-1.8924087E-1,1.3943803E0,-7.1468633E-1,5.3352416E-2,5.9510285E-1,-1.704526E-1,-2.4524907E-2,1.4311141E0,-6.368085E-1,-4.558849E-2,7.2202966E-2,-6.411365E-2,7.459023E-2,6.977807E-2,1.00790694E-1,-3.3099663E-2,5.34054E-2,-4.584409E-2,7.969617E-2,-4.5095082E-2,9.345451E-2,-5.6453597E-2,5.438767E-2,2.2877572E-2,-4.0600285E-2,-2.5696797E-2,7.7734426E-2,3.148798E-2,9.7350016E-2,9.8301105E-2,-3.0158473E-2,-2.980802E-2,4.1973945E-2,2.2419093E-3,8.121943E-2,-6.2123608E-2,1.32044E-2,1.0522165E-1,9.586878E-4,3.14646E-2,1.05118826E-1,5.2307066E-2,-5.9864033E-2,7.0608534E-2,-4.8072226E-2,-7.1845166E-3,9.4991E-2,-6.2025156E-2,-4.382917E-3,3.198254E-2,1.0149608E-1,-6.237037E-4,6.521628E-2,9.6027285E-2,2.1328913E-2,-3.2025636E-3,-5.8601346E-2],"split_indices":[82,104,82,82,82,132,123,132,120,82,84,60,6,24,124,0,47,3,4,6,55,6,124,0,42,57,115,0,0,128,27,0,20,84,133,133,82,129,124,0,14,4,0,133,54,24,94,28,132,132,84,0,98,45,47,132,2,0,0,0,0,0,0,0,0,0,0,0,0,0,0,0,0,0,0,0,0,0,0,0,0,0,0,0,0,0,0,0,0,0,0,0,0,0,0,0,0,0,0,0,0,0,0,0,0],"split_type":[0,0,0,0,0,0,0,0,0,0,0,0,0,0,0,0,0,0,0,0,0,0,0,0,0,0,0,0,0,0,0,0,0,0,0,0,0,0,0,0,0,0,0,0,0,0,0,0,0,0,0,0,0,0,0,0,0,0,0,0,0,0,0,0,0,0,0,0,0,0,0,0,0,0,0,0,0,0,0,0,0,0,0,0,0,0,0,0,0,0,0,0,0,0,0,0,0,0,0,0,0,0,0,0,0],"sum_hessian":[2.7932295E3,2.0757769E3,7.174527E2,2.6967972E2,1.8060972E3,4.7162396E2,2.4582875E2,2.0468988E1,2.4921072E2,1.1696372E3,6.364599E2,2.8269092E2,1.8893306E2,8.416207E0,2.3741254E2,1.3742003E0,1.9094788E1,1.5659814E2,9.261258E1,7.080065E2,4.6163077E2,1.05343376E2,5.311166E2,2.3120155E2,5.1489357E1,1.7704454E2,1.1888524E1,3.7854478E0,4.6307592E0,2.0897403E2,2.8438507E1,1.6024357E1,3.0704317E0,1.114114E1,1.45457E2,5.2681004E1,3.9931576E1,5.3603406E0,7.026461E2,4.4490576E2,1.6724995E1,5.7421776E1,4.7921597E1,3.7764438E2,1.5347217E2,2.1623242E2,1.4969131E1,3.1055E1,2.0434357E1,7.86196E1,9.842494E1,1.670032E0,1.0218492E1,2.064856E2,2.488437E0,2.3244057E1,5.19445E0,1.7234781E0,1.3469536E0,5.436482E0,5.704658E0,3.1174974E1,1.1428203E2,2.4455265E1,2.8225739E1,1.5151418E0,3.8416435E1,1.7059218E0,3.654419E0,6.986108E2,4.035351E0,1.4610768E1,4.30295E2,8.417053E0,8.307941E0,2.4386263E1,3.303551E1,9.220182E0,3.8701416E1,3.5380008E2,2.3844316E1,1.3598154E2,1.7490627E1,1.4755422E1,2.0147699E2,1.3879447E1,1.0896847E0,1.2645922E0,2.9790407E1,1.5313549E1,5.120807E0,6.704049E1,1.1579109E1,6.3642635E0,9.206068E1,7.49053E0,2.727962E0,1.2636812E0,2.0522192E2,1.1010776E0,1.3873594E0,1.8841501E1,4.402556E0,1.3632619E0,3.8311877E0],"tree_param":{"num_deleted":"0","num_feature":"134","num_nodes":"105","size_leaf_vector":"1"}},{"base_weights":[1.355005E-3,2.3696099E-1,-2.74225E-1,3.8106525E-1,-1.7917009E-1,3.4376357E-2,-3.353029E-1,-6.7139617E-3,5.7027376E-1,-2.7722552E-1,4.6089727E-1,-1.6238905E-1,8.16326E-1,-1.00266434E-1,-4.151549E-1,-1.7960605E-1,4.0516242E-1,7.299299E-1,1.507786E-1,-1.4869547E-1,-5.8038574E-1,7.480096E-1,-9.567941E-2,-3.469577E-1,8.8088405E-1,-3.5095337E-1,9.6201605E-1,1.7194788E-1,-3.556032E-1,3.6587742E-1,-4.3061143E-1,4.4327584E-1,-3.1776214E-1,6.3920236E-1,-5.235084E-1,5.9520476E-3,7.861462E-1,-1.5202431E-1,6.514775E-1,1.0212544E0,-2.0582278E-1,4.552905E-1,-6.100176E-1,-2.9693235E-2,8.219108E-1,4.0951568E-1,-5.6406265E-1,-4.8495355E-1,4.7795784E-2,9.7629744E-1,-9.8351434E-2,-5.5553973E-2,2.8133927E-2,1.0354026E-1,1.4404903E-1,3.2980493E-1,-4.8940665E-1,1.6721539E-1,-4.5766276E-1,-3.4025145E-1,8.5401726E-1,-3.604381E-1,-5.5759054E-1,9.573323E-2,2.1111196E-2,1.3161606E-2,-4.135495E-2,8.942544E-2,8.197E-3,4.4416327E-2,-6.0448993E-2,-3.179914E-2,5.8885504E-2,8.7277986E-2,2.8220614E-2,-4.7145825E-2,2.5146073E-2,-3.427042E-2,8.156578E-2,2.0491602E-2,1.0892625E-1,6.027945E-3,-3.7496757E-2,7.239777E-2,-5.8710943E-3,-6.518353E-2,-3.518616E-2,-2.6282966E-2,8.99074E-2,7.094816E-2,-4.8134338E-2,-6.23164E-2,-2.5597268E-3,-5.1255193E-2,8.825999E-2,6.431527E-2,-2.9361648E-2,1.0642723E-1,2.5567919E-2,2.640756E-2,-3.907847E-2,-4.7584042E-2,7.144692E-2,-3.5186153E-2,5.346313E-2,-6.0352903E-2,5.8304466E-2,6.5535866E-2,-6.2052615E-2,-5.323846E-2,5.6753535E-2,-5.812604E-2,4.1175798E-2,9.944203E-2,-1.066814E-2,-4.825586E-2,7.018789E-3,5.2941818E-2,-5.6424838E-2],"categories":[],"categories_nodes":[],"categories_segments":[],"categories_sizes":[],"default_left":[0,0,0,0,0,0,0,0,0,0,0,0,0,0,0,0,0,0,0,0,0,0,0,0,0,0,0,0,0,0,0,0,0,0,0,0,0,0,0,0,0,0,0,0,0,0,0,0,0,0,0,0,0,0,0,0,0,0,0,0,0,0,0,0,0,0,0,0,0,0,0,0,0,0,0,0,0,0,0,0,0,0,0,0,0,0,0,0,0,0,0,0,0,0,0,0,0,0,0,0,0,0,0,0,0,0,0,0,0,0,0,0,0,0,0,0,0,0,0],"id":10,"left_children":[1,3,5,7,9,11,13,15,17,19,21,23,25,27,29,31,33,35,37,39,41,43,45,47,49,51,53,55,57,59,61,63,65,67,69,71,73,75,77,79,81,83,85,-1,87,89,91,93,95,97,99,-1,-1,-1,101,103,105,107,109,111,113,115,117,-1,-1,-1,-1,-1,-1,-1,-1,-1,-1,-1,-1,-1,-1,-1,-1,-1,-1,-1,-1,-1,-1,-1,-1,-1,-1,-1,-1,-1,-1,-1,-1,-1,-1,-1,-1,-1,-1,-1,-1,-1,-1,-1,-1,-1,-1,-1,-1,-1,-1,-1,-1,-1,-1,-1,-1],"loss_changes":[1.8196017E2,9.0665985E1,2.4357788E1,8.236426E1,2.4560581E1,3.310711E1,2.0197037E1,2.6355722E1,5.0417847E1,1.3091795E1,8.395694E0,3.3437057E1,7.6932125E0,1.9159811E1,9.870438E0,2.2571758E1,2.4119219E1,2.2225006E1,3.1821922E1,1.6174065E1,3.3573914E0,2.9064865E0,4.6353936E0,8.02627E0,2.5389748E0,8.7192106E-1,2.1751556E0,1.4116139E1,7.6592865E0,5.85874E0,6.8332214E0,5.495019E0,9.262629E0,1.2412914E1,2.037713E0,7.808928E0,2.188095E1,1.7027884E1,1.3180923E1,4.0345383E-1,1.0310197E1,5.070789E-1,8.284607E-1,0E0,2.9537334E0,2.8893003E0,3.0481076E-1,4.5643845E0,8.108956E0,1.2441254E0,4.455244E-1,0E0,0E0,0E0,1.8779553E0,1.5338268E1,3.553546E0,9.613375E0,9.430859E0,1.5656339E0,1.4328494E0,2.6920547E1,2.3189926E0,0E0,0E0,0E0,0E0,0E0,0E0,0E0,0E0,0E0,0E0,0E0,0E0,0E0,0E0,0E0,0E0,0E0,0E0,0E0,0E0,0E0,0E0,0E0,0E0,0E0,0E0,0E0,0E0,0E0,0E0,0E0,0E0,0E0,0E0,0E0,0E0,0E0,0E0,0E0,0E0,0E0,0E0,0E0,0E0,0E0,0E0,0E0,0E0,0E0,0E0,0E0,0E0,0E0,0E0,0E0,0E0],"parents":[2147483647,0,0,1,1,2,2,3,3,4,4,5,5,6,6,7,7,8,8,9,9,10,10,11,11,12,12,13,13,14,14,15,15,16,16,17,17,18,18,19,19,20,20,21,21,22,22,23,23,24,24,25,25,26,26,27,27,28,28,29,29,30,30,31,31,32,32,33,33,34,34,35,35,36,36,37,37,38,38,39,39,40,40,41,41,42,42,44,44,45,45,46,46,47,47,48,48,49,49,50,50,54,54,55,55,56,56,57,57,58,58,59,59,60,60,61,61,62,62],"right_children":[2,4,6,8,10,12,14,16,18,20,22,24,26,28,30,32,34,36,38,40,42,44,46,48,50,52,54,56,58,60,62,64,66,68,70,72,74,76,78,80,82,84,86,-1,88,90,92,94,96,98,100,-1,-1,-1,102,104,106,108,110,112,114,116,118,-1,-1,-1,-1,-1,-1,-1,-1,-1,-1,-1,-1,-1,-1,-1,-1,-1,-1,-1,-1,-1,-1,-1,-1,-1,-1,-1,-1,-1,-1,-1,-1,-1,-1,-1,-1,-1,-1,-1,-1,-1,-1,-1,-1,-1,-1,-1,-1,-1,-1,-1,-1,-1,-1,-1,-1],"split_conditions":[2.75557E-1,3.176166E-1,-7.7786607E-1,-9.3114465E-1,7.7506554E-1,8.1021614E-2,7.8028834E-1,2.4624672E-2,5.9143865E-1,4.6129617E-1,3.032272E-1,4.0752283E-1,-1.3299788E0,-1.7795452E-1,-3.0569212E0,-5.068079E-1,1.6227376E-1,-1.1269864E0,1.4796568E0,6.461999E-1,-1.1629113E0,4.3587932E-1,-7.092171E-1,7.2773165E-1,1.3448906E-1,-4.6914297E-1,1.7042756E0,8.099372E-1,-5.2183264E-1,-3.1259804E0,3.7090856E-1,2.8174597E-1,-3.7116674E-1,-2.3409959E-2,-2.6612338E-1,-2.434624E-1,1.2544926E0,-1.4279799E-1,-2.792909E-1,-1.777317E-1,-2.1521124E-1,-1.6421072E-1,7.937412E-2,-2.9693235E-2,-3.1196811E0,1.9058168E-1,1.0985491E0,3.229001E-1,-4.2123407E-1,-1.9069351E-2,-3.4382766E-1,-5.5553973E-2,2.8133927E-2,1.0354026E-1,-1.5720329E-1,-1.1106014E0,8.8592485E-2,1.3900272E0,9.5631635E-1,1.3900272E0,2.797613E0,1.59687E-1,-1.7177953E-1,9.573323E-2,2.1111196E-2,1.3161606E-2,-4.135495E-2,8.942544E-2,8.197E-3,4.4416327E-2,-6.0448993E-2,-3.179914E-2,5.8885504E-2,8.7277986E-2,2.8220614E-2,-4.7145825E-2,2.5146073E-2,-3.427042E-2,8.156578E-2,2.0491602E-2,1.0892625E-1,6.027945E-3,-3.7496757E-2,7.239777E-2,-5.8710943E-3,-6.518353E-2,-3.518616E-2,-2.6282966E-2,8.99074E-2,7.094816E-2,-4.8134338E-2,-6.23164E-2,-2.5597268E-3,-5.1255193E-2,8.825999E-2,6.431527E-2,-2.9361648E-2,1.0642723E-1,2.5567919E-2,2.640756E-2,-3.907847E-2,-4.7584042E-2,7.144692E-2,-3.5186153E-2,5.346313E-2,-6.0352903E-2,5.8304466E-2,6.5535866E-2,-6.2052615E-2,-5.323846E-2,5.6753535E-2,-5.812604E-2,4.1175798E-2,9.944203E-2,-1.066814E-2,-4.825586E-2,7.018789E-3,5.2941818E-2,-5.6424838E-2],"split_indices":[133,82,82,132,76,4,133,4,6,10,20,132,24,80,0,78,89,24,4,82,104,10,133,124,75,50,98,6,82,0,130,123,77,79,30,35,24,68,24,5,114,5,131,0,0,52,36,24,71,47,4,0,0,0,9,78,0,124,0,124,34,130,13,0,0,0,0,0,0,0,0,0,0,0,0,0,0,0,0,0,0,0,0,0,0,0,0,0,0,0,0,0,0,0,0,0,0,0,0,0,0,0,0,0,0,0,0,0,0,0,0,0,0,0,0,0,0,0,0],"split_type":[0,0,0,0,0,0,0,0,0,0,0,0,0,0,0,0,0,0,0,0,0,0,0,0,0,0,0,0,0,0,0,0,0,0,0,0,0,0,0,0,0,0,0,0,0,0,0,0,0,0,0,0,0,0,0,0,0,0,0,0,0,0,0,0,0,0,0,0,0,0,0,0,0,0,0,0,0,0,0,0,0,0,0,0,0,0,0,0,0,0,0,0,0,0,0,0,0,0,0,0,0,0,0,0,0,0,0,0,0,0,0,0,0,0,0,0,0,0,0],"sum_hessian":[2.8004778E3,1.5098112E3,1.2906667E3,1.1215187E3,3.8829248E2,2.1331436E2,1.0773524E3,3.6808987E2,7.5342883E2,3.3720157E2,5.109089E1,1.7106169E2,4.225267E1,2.7377594E2,8.035764E2,2.59658E2,1.084319E2,5.4519305E2,2.0823575E2,2.3785098E2,9.93506E1,3.347746E1,1.761343E1,1.4591487E2,2.5146816E1,4.532115E0,3.7720554E1,1.3266669E2,1.4110927E2,1.515412E1,7.884223E2,4.673645E1,2.1292154E2,8.6854805E1,2.15771E1,3.936315E1,5.058299E2,1.3019522E2,7.804054E1,1.0287586E1,2.275634E2,2.3639E0,9.69867E1,2.0118942E0,3.1465565E1,8.53419E0,9.07924E0,1.0794984E2,3.796504E1,2.2916874E1,2.229942E0,3.5158916E0,1.0162234E0,3.437103E1,3.3495283E0,1.0750735E2,2.5159338E1,2.2942709E1,1.1816656E2,6.3178563E0,8.836264E0,5.1026794E2,2.7815433E2,1.3568844E1,3.3167606E1,3.7345272E1,1.7557626E2,5.916805E1,2.7686752E1,1.3199445E0,2.0257156E1,2.559398E1,1.3769171E1,4.3100317E2,7.4826744E1,7.257224E1,5.7622974E1,1.0906946E1,6.713359E1,1.0997531E0,9.187833E0,8.8685326E1,1.3887807E2,1.284127E0,1.0797728E0,8.215393E1,1.4832768E1,1.929864E0,2.9535702E1,6.5367613E0,1.9974294E0,8.039534E0,1.0397059E0,1.0642725E2,1.5225822E0,1.35145235E1,2.4450514E1,1.999852E1,2.9183545E0,1.0391023E0,1.1908398E0,1.684619E0,1.6649094E0,2.4673983E1,8.283337E1,2.313475E1,2.0245876E0,1.4268771E1,8.673938E0,1.105871E2,7.579465E0,4.956441E0,1.3614156E0,7.6789145E0,1.1573498E0,3.9743848E2,1.1282949E2,1.2153131E0,2.7693903E2],"tree_param":{"num_deleted":"0","num_feature":"134","num_nodes":"119","size_leaf_vector":"1"}},{"base_weights":[-2.0475257E-3,-5.698288E-1,2.4182208E-1,3.329847E-1,-6.170205E-1,3.592087E-1,-4.4312042E-1,-6.474116E-2,1.0375916E-1,-6.317543E-1,-4.2972412E-2,-5.576478E-3,4.9615073E-1,8.5683656E-1,-5.1017493E-1,-6.801545E-2,-5.248163E-1,-6.385449E-2,1.1299076E0,6.868502E-1,-3.68867E-1,5.4751676E-1,-5.676546E-1,-4.0120233E-2,1.0030668E-1,-1.6383892E-1,-6.711729E-1,-5.694778E-1,4.767186E-1,3.8104698E-2,1.2741148E-1,1.0797111E0,4.7085453E-2,-6.93532E-2,-8.5953504E-2,8.2956904E-1,4.101837E-1,-6.740133E-2,2.631601E-1,3.7033343E-1,-5.5045944E-1,6.4774364E-2,-6.8216555E-2,2.0485071E-2,-6.278651E-2,9.3784474E-2,-5.316356E-2,1.11088835E-1,-4.4205736E-2,8.731392E-2,-4.284782E-2,-3.19875E-2,4.9014E-2,9.400226E-2,4.8643384E-2,6.917869E-2,2.2700198E-2,9.295932E-2,-5.1113125E-2,-6.09519E-2,6.04545E-2,-6.246356E-2,4.3091614E-2],"categories":[],"categories_nodes":[],"categories_segments":[],"categories_sizes":[],"default_left":[0,0,0,0,0,0,0,0,0,0,0,0,0,0,0,0,0,0,0,0,0,0,0,0,0,0,0,0,0,0,0,0,0,0,0,0,0,0,0,0,0,0,0,0,0,0,0,0,0,0,0,0,0,0,0,0,0,0,0,0,0,0,0],"id":11,"left_children":[1,3,5,7,9,11,13,-1,-1,15,17,19,21,23,25,-1,27,-1,29,31,33,35,37,-1,-1,39,41,43,45,-1,-1,47,49,-1,51,53,55,-1,57,59,61,-1,-1,-1,-1,-1,-1,-1,-1,-1,-1,-1,-1,-1,-1,-1,-1,-1,-1,-1,-1,-1,-1],"loss_changes":[3.8654025E2,3.594153E1,1.5717447E2,2.9903112E1,6.717682E0,8.331113E1,2.5381485E1,0E0,0E0,3.6668396E0,1.5410787E1,1.1500369E2,6.6566925E1,3.05336E0,1.509864E1,0E0,1.1302322E1,0E0,3.18285E-1,3.9491028E1,2.7481712E1,4.4483093E1,5.155901E0,0E0,0E0,1.8352806E1,3.136757E0,1.0822678E1,5.6467986E0,0E0,0E0,5.1134033E0,2.4298035E1,0E0,2.1902557E1,1.3867401E1,4.0090393E1,0E0,4.1456814E0,8.973604E0,4.009555E0,0E0,0E0,0E0,0E0,0E0,0E0,0E0,0E0,0E0,0E0,0E0,0E0,0E0,0E0,0E0,0E0,0E0,0E0,0E0,0E0,0E0,0E0],"parents":[2147483647,0,0,1,1,2,2,3,3,4,4,5,5,6,6,9,9,10,10,11,11,12,12,13,13,14,14,16,16,18,18,19,19,20,20,21,21,22,22,25,25,26,26,27,27,28,28,31,31,32,32,34,34,35,35,36,36,38,38,39,39,40,40],"right_children":[2,4,6,8,10,12,14,-1,-1,16,18,20,22,24,26,-1,28,-1,30,32,34,36,38,-1,-1,40,42,44,46,-1,-1,48,50,-1,52,54,56,-1,58,60,62,-1,-1,-1,-1,-1,-1,-1,-1,-1,-1,-1,-1,-1,-1,-1,-1,-1,-1,-1,-1,-1,-1],"split_conditions":[-3.1150195E-1,-1.3389466E0,7.0949024E-1,1.709458E-1,1.5918192E0,3.8636371E-1,-2.2826428E0,-6.474116E-2,1.0375916E-1,-7.279808E-1,1.3692527E-1,-7.7786607E-1,1.8265263E0,-2.1977368E-1,-4.4470465E-1,-6.801545E-2,2.5685945E-1,-6.385449E-2,-3.654668E-2,-3.499072E-1,-1.6551265E-1,-4.736068E-1,3.5993293E-1,-4.0120233E-2,1.0030668E-1,5.267276E-1,-2.3719957E0,-1.0887946E0,-3.55771E-1,3.8104698E-2,1.2741148E-1,1.1541176E-1,-5.360696E-1,-6.93532E-2,-2.3314568E-1,-2.0908496E-1,-6.364172E-1,-6.740133E-2,5.0277394E-1,-1.9280232E-1,1.22286685E-1,6.4774364E-2,-6.8216555E-2,2.0485071E-2,-6.278651E-2,9.3784474E-2,-5.316356E-2,1.11088835E-1,-4.4205736E-2,8.731392E-2,-4.284782E-2,-3.19875E-2,4.9014E-2,9.400226E-2,4.8643384E-2,6.917869E-2,2.2700198E-2,9.295932E-2,-5.1113125E-2,-6.09519E-2,6.04545E-2,-6.246356E-2,4.3091614E-2],"split_indices":[104,82,82,4,56,104,2,0,0,104,120,82,7,30,77,0,91,0,71,2,79,75,24,0,0,104,0,26,42,0,0,75,24,0,132,115,82,0,24,58,131,0,0,0,0,0,0,0,0,0,0,0,0,0,0,0,0,0,0,0,0,0,0],"split_type":[0,0,0,0,0,0,0,0,0,0,0,0,0,0,0,0,0,0,0,0,0,0,0,0,0,0,0,0,0,0,0,0,0,0,0,0,0,0,0,0,0,0,0,0,0,0,0,0,0,0,0,0,0,0,0,0,0,0,0,0,0,0,0],"sum_hessian":[2.7896228E3,8.377718E2,1.951851E3,4.1315605E1,7.964562E2,1.6666868E3,2.8516412E2,1.7310625E1,2.4004982E1,7.764274E2,2.0028711E1,4.5516934E2,1.2115175E3,1.3410097E1,2.71754E2,5.3081854E2,2.4560893E2,1.3585669E1,6.4430428E0,1.5632515E2,2.9884418E2,1.1561766E3,5.534089E1,1.2148588E0,1.2195239E1,8.687903E1,1.8487498E2,2.35537E2,1.0071927E1,1.6285299E0,4.8145127E0,9.642543E1,5.9899723E1,1.3847829E2,1.6036589E2,3.769542E2,7.792224E2,4.922763E1,6.1132593E0,3.649627E1,5.038276E1,1.0493335E0,1.8382565E2,1.6339197E1,2.191978E2,6.959317E0,3.1126096E0,9.475415E1,1.6712781E0,2.1579731E1,3.831999E1,1.1437068E2,4.5995213E1,2.8384604E2,9.3108154E1,3.0601398E2,4.7320844E2,3.1776667E0,2.9355927E0,6.731558E0,2.976471E1,4.718021E1,3.2025502E0],"tree_param":{"num_deleted":"0","num_feature":"134","num_nodes":"63","size_leaf_vector":"1"}},{"base_weights":[8.0967403E-4,-1.9275743E-1,5.455224E-1,5.6937593E-1,-3.1017482E-1,3.7883526E-1,8.6315984E-1,-3.9797375E-1,6.4671284E-1,-4.5361394E-1,-5.312652E-2,2.2355062E-1,6.049202E-1,2.50715E-1,8.847984E-1,6.410595E-2,-5.0607544E-1,8.132613E-1,3.5933316E-1,-5.272098E-1,-3.4196064E-1,-1.9111186E-1,1.8996689E-1,1.2252898E-1,6.7244893E-1,6.659365E-1,-3.023532E-1,-3.0891374E-1,8.0677256E-2,8.999754E-1,1.1628517E-1,-6.277E-2,1.0466642E-1,1.2363412E-1,8.74824E-1,5.289792E-1,-1.1374873E-1,2.4113055E-1,-5.3911436E-1,-3.659157E-1,2.6719335E-1,-2.1673933E-1,1.024731E0,-8.109698E-2,3.8986844E-1,-2.3419918E-1,2.4988888E-1,9.198073E-1,1.3052541E-1,4.7724295E-1,8.087217E-1,5.0346226E-2,-4.6980658E-1,1.0713895E-2,-5.3578265E-2,9.3115735E-1,4.8958546E-1,7.1200825E-2,-3.462424E-1,-4.487833E-2,6.9143675E-2,-5.0615337E-2,5.870954E-2,3.2722857E-2,8.977669E-2,-3.5621144E-3,6.914174E-2,7.33002E-2,-4.2479448E-2,-5.023114E-2,5.390811E-2,-5.4873116E-2,3.536273E-2,2.1496657E-2,-3.867784E-2,-2.3841139E-2,7.350462E-2,-2.8560618E-2,1.5079414E-2,1.15274325E-1,4.9005384E-3,-3.5965897E-2,6.68234E-2,-6.299292E-2,4.761272E-2,-7.267937E-2,5.162841E-3,9.425332E-3,9.176678E-2,9.7359106E-2,4.882431E-2,-4.607921E-2,3.7526477E-2,6.420965E-2,-4.725492E-2,-8.655355E-3,8.716762E-2,-6.0469367E-2,-3.3066624E-3,9.432194E-2,5.758222E-2,-4.6446722E-2,6.2219776E-2,5.1822374E-4,-4.822622E-2],"categories":[],"categories_nodes":[],"categories_segments":[],"categories_sizes":[],"default_left":[0,0,0,0,0,0,0,0,0,0,0,0,0,0,0,0,0,0,0,0,0,0,0,0,0,0,0,0,0,0,0,0,0,0,0,0,0,0,0,0,0,0,0,0,0,0,0,0,0,0,0,0,0,0,0,0,0,0,0,0,0,0,0,0,0,0,0,0,0,0,0,0,0,0,0,0,0,0,0,0,0,0,0,0,0,0,0,0,0,0,0,0,0,0,0,0,0,0,0,0,0,0,0,0,0],"id":12,"left_children":[1,3,5,7,9,11,13,15,17,19,21,23,25,27,29,-1,31,33,35,37,39,41,43,45,47,49,51,53,-1,55,57,-1,59,61,63,65,67,69,71,73,75,77,79,81,83,85,87,89,91,93,95,-1,97,-1,-1,99,101,-1,103,-1,-1,-1,-1,-1,-1,-1,-1,-1,-1,-1,-1,-1,-1,-1,-1,-1,-1,-1,-1,-1,-1,-1,-1,-1,-1,-1,-1,-1,-1,-1,-1,-1,-1,-1,-1,-1,-1,-1,-1,-1,-1,-1,-1,-1,-1],"loss_changes":[2.9040274E2,1.820262E2,3.7906677E1,2.0578827E1,6.492314E1,1.6554077E1,3.0614166E0,2.6525986E0,1.1764679E1,9.108917E0,2.123662E1,1.2769406E1,1.0884224E1,3.31439E0,2.681778E0,0E0,1.5018034E0,6.6290436E0,7.6217165E0,6.345215E0,6.692833E0,1.280018E1,1.2459381E1,1.0624501E1,6.8288765E0,4.49411E0,1.9702003E0,5.890357E-1,0E0,2.5401306E0,1.8377271E0,0E0,1.6313099E0,4.4330525E0,1.5344467E0,6.4010353E0,7.077925E0,2.7203135E0,5.9414215E0,5.3581467E0,4.357097E0,1.0070396E1,1.0061464E0,2.0733316E1,1.19270115E1,8.724933E0,1.7775024E1,3.4695625E-1,2.6926794E0,1.2901741E1,5.805565E0,0E0,6.371405E-1,0E0,0E0,3.8471985E-1,2.647491E0,0E0,1.9005379E-1,0E0,0E0,0E0,0E0,0E0,0E0,0E0,0E0,0E0,0E0,0E0,0E0,0E0,0E0,0E0,0E0,0E0,0E0,0E0,0E0,0E0,0E0,0E0,0E0,0E0,0E0,0E0,0E0,0E0,0E0,0E0,0E0,0E0,0E0,0E0,0E0,0E0,0E0,0E0,0E0,0E0,0E0,0E0,0E0,0E0,0E0],"parents":[2147483647,0,0,1,1,2,2,3,3,4,4,5,5,6,6,7,7,8,8,9,9,10,10,11,11,12,12,13,13,14,14,16,16,17,17,18,18,19,19,20,20,21,21,22,22,23,23,24,24,25,25,26,26,27,27,29,29,30,30,32,32,33,33,34,34,35,35,36,36,37,37,38,38,39,39,40,40,41,41,42,42,43,43,44,44,45,45,46,46,47,47,48,48,49,49,50,50,52,52,55,55,56,56,58,58],"right_children":[2,4,6,8,10,12,14,16,18,20,22,24,26,28,30,-1,32,34,36,38,40,42,44,46,48,50,52,54,-1,56,58,-1,60,62,64,66,68,70,72,74,76,78,80,82,84,86,88,90,92,94,96,-1,98,-1,-1,100,102,-1,104,-1,-1,-1,-1,-1,-1,-1,-1,-1,-1,-1,-1,-1,-1,-1,-1,-1,-1,-1,-1,-1,-1,-1,-1,-1,-1,-1,-1,-1,-1,-1,-1,-1,-1,-1,-1,-1,-1,-1,-1,-1,-1,-1,-1,-1,-1],"split_conditions":[6.461999E-1,-1.2024504E0,2.1246092E0,-1.0812857E0,-1.9656086E-1,2.3160434E-1,-2.3230457E0,8.703473E-1,1.2965715E-1,-5.743441E-1,-2.078351E-1,7.5402373E-1,2.0535803E0,-1.0708016E0,6.9719157E0,6.410595E-2,-1.9069351E-2,-1.0103749E0,4.3550268E-2,-1.5302511E0,-2.9519433E-2,1.1517028E0,-1.7158003E-1,-1.3299865E0,-2.7830677E-2,-1.250984E-1,-2.2091292E-1,-1.5574606E-1,8.0677256E-2,1.049688E0,1.6748805E-1,-6.277E-2,1.9245593E-1,8.1382625E-2,-5.8949494E-1,-6.364172E-1,-1.6426528E0,-1.3353191E-1,2.7833632E-1,-1.4174918E0,8.9111894E-2,-1.4939496E-1,2.3537965E-2,1.1422201E0,-1.3681263E0,3.2507807E-1,-2.751487E-1,1.7853746E-2,7.485821E-2,1.3943803E0,-7.1468633E-1,5.0346226E-2,5.9510285E-1,1.0713895E-2,-5.3578265E-2,7.560105E-1,4.8760846E-2,7.1200825E-2,6.508831E-2,-4.487833E-2,6.9143675E-2,-5.0615337E-2,5.870954E-2,3.2722857E-2,8.977669E-2,-3.5621144E-3,6.914174E-2,7.33002E-2,-4.2479448E-2,-5.023114E-2,5.390811E-2,-5.4873116E-2,3.536273E-2,2.1496657E-2,-3.867784E-2,-2.3841139E-2,7.350462E-2,-2.8560618E-2,1.5079414E-2,1.15274325E-1,4.9005384E-3,-3.5965897E-2,6.68234E-2,-6.299292E-2,4.761272E-2,-7.267937E-2,5.162841E-3,9.425332E-3,9.176678E-2,9.7359106E-2,4.882431E-2,-4.607921E-2,3.7526477E-2,6.420965E-2,-4.725492E-2,-8.655355E-3,8.716762E-2,-6.0469367E-2,-3.3066624E-3,9.432194E-2,5.758222E-2,-4.6446722E-2,6.2219776E-2,5.1822374E-4,-4.822622E-2],"split_indices":[82,104,82,82,82,132,36,132,120,82,114,128,6,133,71,0,47,0,84,7,55,24,76,123,55,57,115,17,0,98,89,0,20,59,90,82,104,129,45,0,14,61,85,104,0,104,132,66,84,132,84,0,98,0,0,130,24,0,20,0,0,0,0,0,0,0,0,0,0,0,0,0,0,0,0,0,0,0,0,0,0,0,0,0,0,0,0,0,0,0,0,0,0,0,0,0,0,0,0,0,0,0,0,0,0],"split_type":[0,0,0,0,0,0,0,0,0,0,0,0,0,0,0,0,0,0,0,0,0,0,0,0,0,0,0,0,0,0,0,0,0,0,0,0,0,0,0,0,0,0,0,0,0,0,0,0,0,0,0,0,0,0,0,0,0,0,0,0,0,0,0,0,0,0,0,0,0,0,0,0,0,0,0,0,0,0,0,0,0,0,0,0,0,0,0,0,0,0,0,0,0,0,0,0,0,0,0,0,0,0,0,0,0],"sum_hessian":[2.752242E3,2.0311176E3,7.211243E2,2.7063428E2,1.7604833E3,4.7437723E2,2.467471E2,1.9727812E1,2.5090646E2,1.1294554E3,6.3102783E2,2.824011E2,1.9197615E2,8.849957E0,2.3789714E2,1.394476E0,1.8333336E1,1.5768918E2,9.321729E1,6.785016E2,4.5095392E2,4.026745E2,2.2835336E2,2.3156242E2,5.083866E1,1.801281E2,1.1848046E1,4.6323323E0,4.217625E0,2.3312227E2,4.774875E0,1.5265552E1,3.0677845E0,1.3169736E1,1.4451944E2,6.852591E1,2.4691383E1,1.0058368E1,6.684432E2,4.3427527E2,1.6678625E1,3.9516693E2,7.5075674E0,9.717698E1,1.3117638E2,6.070162E1,1.708608E2,3.4427223E1,1.641144E1,7.9461075E1,1.0066702E2,1.6932487E0,1.0154798E1,1.8208473E0,2.811485E0,2.154808E2,1.764146E1,1.8511974E0,2.923678E0,1.699735E0,1.3680494E0,5.543999E0,7.6257367E0,6.4252687E0,1.3809418E2,1.5484794E1,5.3041115E1,6.2689724E0,1.8422411E1,2.6815393E0,7.376828E0,6.6170056E2,6.742627E0,1.473392E1,4.1954135E2,8.251601E0,8.427025E0,3.3299472E2,6.2172222E1,6.4764547E0,1.0311127E0,7.122083E1,2.5956146E1,9.738599E0,1.2143778E2,2.1722445E1,3.897917E1,1.3949144E2,3.136936E1,2.9495398E1,4.9318247E0,4.5457106E0,1.1865729E1,6.7985016E1,1.1476063E1,6.589067E0,9.407796E1,7.464749E0,2.6900485E0,2.0680621E2,8.674592E0,1.8475051E0,1.5793955E1,1.0842583E0,1.8394196E0],"tree_param":{"num_deleted":"0","num_feature":"134","num_nodes":"105","size_leaf_vector":"1"}},{"base_weights":[2.1145716E-3,1.8842788E-1,-3.0376294E-1,3.0905452E-1,-1.6772707E-1,5.5791546E-2,-3.719961E-1,-8.086747E-2,4.8984632E-1,-1.8442804E-3,-4.596018E-1,-1.33762E-1,8.728541E-1,-3.3249107E-1,-6.0865116E-1,-2.4226668E-1,2.9727703E-1,6.263119E-1,1.2134837E-1,-9.109332E-2,4.7322133E-1,9.1421455E-2,-4.7515887E-1,-2.968079E-1,8.329064E-1,9.630824E-2,-1.7834407E-1,-3.6176878E-1,1.073604E-1,-1.7415406E-1,-6.326189E-1,2.6176289E-2,-5.065772E-1,8.8798785E-1,-8.047619E-3,-2.4264067E-2,6.725287E-1,-1.2177968E-1,5.183359E-1,-1.5444492E-1,5.4087746E-1,-4.6396288E-1,6.0012877E-1,-5.3004044E-1,-1.5172932E-1,2.3914266E-1,-5.027876E-1,9.582988E-1,-2.4489453E-2,1.7076852E-2,-4.223106E-2,-3.0407587E-2,-4.0707773E-1,1.3061775E0,-3.655619E-1,9.8613E-2,-5.7893515E-2,-6.434032E-1,-6.556799E-4,3.0149702E-2,-2.6159266E-2,-1.5771864E-2,-6.059974E-2,1.0280197E-1,2.6218776E-2,-4.059644E-2,3.6217455E-2,2.3253258E-2,-6.5555505E-2,7.2878204E-2,1.6515778E-2,-4.5889877E-2,2.1791255E-2,-4.2686556E-2,7.181107E-2,-4.8442185E-2,-2.700865E-3,7.407743E-2,-4.0804323E-2,-2.3008394E-3,-5.5390652E-2,7.356121E-2,-2.7880147E-2,-1.6702829E-2,-5.8645893E-2,9.090564E-2,-3.2941885E-2,-5.0796535E-2,6.947284E-2,-5.9585202E-2,5.156402E-2,1.4563124E-2,1.0027728E-1,-3.8782664E-2,4.1724455E-2,2.5452984E-2,-4.255217E-2,2.5755173E-2,1.3719486E-1,8.187459E-2,-5.0186433E-2,-1.7788811E-3,-6.4883895E-2],"categories":[],"categories_nodes":[],"categories_segments":[],"categories_sizes":[],"default_left":[0,0,0,0,0,0,0,0,0,0,0,0,0,0,0,0,0,0,0,0,0,0,0,0,0,0,0,0,0,0,0,0,0,0,0,0,0,0,0,0,0,0,0,0,0,0,0,0,0,0,0,0,0,0,0,0,0,0,0,0,0,0,0,0,0,0,0,0,0,0,0,0,0,0,0,0,0,0,0,0,0,0,0,0,0,0,0,0,0,0,0,0,0,0,0,0,0,0,0,0,0,0,0],"id":13,"left_children":[1,3,5,7,9,11,13,15,17,19,21,23,25,27,29,31,33,35,37,39,41,-1,43,45,47,-1,49,51,53,55,57,59,61,63,65,67,69,71,73,75,77,79,81,83,85,87,89,91,-1,-1,-1,93,95,97,99,-1,-1,101,-1,-1,-1,-1,-1,-1,-1,-1,-1,-1,-1,-1,-1,-1,-1,-1,-1,-1,-1,-1,-1,-1,-1,-1,-1,-1,-1,-1,-1,-1,-1,-1,-1,-1,-1,-1,-1,-1,-1,-1,-1,-1,-1,-1,-1],"loss_changes":[1.5758502E2,7.38793E1,2.5700752E1,9.055672E1,2.108079E1,2.6109098E1,8.023918E0,2.4949667E1,4.4046707E1,1.1856983E1,3.806633E0,2.1854126E1,3.1818237E0,9.77755E0,1.1881065E0,2.0322067E1,2.2079979E1,1.9261124E1,2.30693E1,9.508332E0,5.5388203E0,0E0,2.7006035E0,1.315144E1,2.9441557E0,0E0,3.5764903E-1,1.0636345E1,2.7672188E1,4.279946E0,7.9092026E-1,1.1405148E1,4.908409E0,3.3856888E0,1.2178747E1,7.191159E0,1.693689E1,1.7121288E1,1.743768E1,9.016773E0,4.412809E0,2.188313E-1,4.8956604E0,2.6371155E0,4.8477087E0,1.1738065E1,8.419645E0,5.104008E-1,0E0,0E0,0E0,1.3985373E1,7.7212296E0,5.9760857E-1,6.0895953E0,0E0,0E0,3.8214493E-1,0E0,0E0,0E0,0E0,0E0,0E0,0E0,0E0,0E0,0E0,0E0,0E0,0E0,0E0,0E0,0E0,0E0,0E0,0E0,0E0,0E0,0E0,0E0,0E0,0E0,0E0,0E0,0E0,0E0,0E0,0E0,0E0,0E0,0E0,0E0,0E0,0E0,0E0,0E0,0E0,0E0,0E0,0E0,0E0,0E0],"parents":[2147483647,0,0,1,1,2,2,3,3,4,4,5,5,6,6,7,7,8,8,9,9,10,10,11,11,12,12,13,13,14,14,15,15,16,16,17,17,18,18,19,19,20,20,22,22,23,23,24,24,26,26,27,27,28,28,29,29,30,30,31,31,32,32,33,33,34,34,35,35,36,36,37,37,38,38,39,39,40,40,41,41,42,42,43,43,44,44,45,45,46,46,47,47,51,51,52,52,53,53,54,54,57,57],"right_children":[2,4,6,8,10,12,14,16,18,20,22,24,26,28,30,32,34,36,38,40,42,-1,44,46,48,-1,50,52,54,56,58,60,62,64,66,68,70,72,74,76,78,80,82,84,86,88,90,92,-1,-1,-1,94,96,98,100,-1,-1,102,-1,-1,-1,-1,-1,-1,-1,-1,-1,-1,-1,-1,-1,-1,-1,-1,-1,-1,-1,-1,-1,-1,-1,-1,-1,-1,-1,-1,-1,-1,-1,-1,-1,-1,-1,-1,-1,-1,-1,-1,-1,-1,-1,-1,-1],"split_conditions":[6.061592E-1,3.176166E-1,-9.4288975E-1,-1.0931443E0,1.4591377E0,6.983205E-2,1.0829618E0,1.6883658E-2,5.9143865E-1,7.826544E-1,-1.7147027E-1,4.0752283E-1,9.3943554E-1,7.664261E-1,-1.1413243E0,5.3509433E-2,1.7980302E-2,-1.2012061E0,1.4796568E0,1.4373791E0,-1.2478697E0,9.1421455E-2,2.0523226E0,-1.3274746E-1,1.3448906E-1,9.630824E-2,-1.9182503E-1,-6.882814E-1,-4.33479E-1,-9.7366434E-1,8.0563897E-1,-2.5812715E-1,-3.0347106E-1,3.308673E-3,3.0895266E-1,-5.775787E-3,1.6273627E0,-1.4553294E-1,-2.792909E-1,6.870617E-1,-1.0997496E-1,-1.9961126E-1,-2.6482812E-1,-1.3221067E0,-5.247094E-3,-9.4059503E-1,2.6685527E-1,-3.03653E-2,-2.4489453E-2,1.7076852E-2,-4.223106E-2,4.4382524E-1,-3.0569212E0,-2.7133048E-1,-3.5680896E-1,9.8613E-2,-5.7893515E-2,-2.0290081E-1,-6.556799E-4,3.0149702E-2,-2.6159266E-2,-1.5771864E-2,-6.059974E-2,1.0280197E-1,2.6218776E-2,-4.059644E-2,3.6217455E-2,2.3253258E-2,-6.5555505E-2,7.2878204E-2,1.6515778E-2,-4.5889877E-2,2.1791255E-2,-4.2686556E-2,7.181107E-2,-4.8442185E-2,-2.700865E-3,7.407743E-2,-4.0804323E-2,-2.3008394E-3,-5.5390652E-2,7.356121E-2,-2.7880147E-2,-1.6702829E-2,-5.8645893E-2,9.090564E-2,-3.2941885E-2,-5.0796535E-2,6.947284E-2,-5.9585202E-2,5.156402E-2,1.4563124E-2,1.0027728E-1,-3.8782664E-2,4.1724455E-2,2.5452984E-2,-4.255217E-2,2.5755173E-2,1.3719486E-1,8.187459E-2,-5.0186433E-2,-1.7788811E-3,-6.4883895E-2],"split_indices":[133,82,82,132,82,4,82,4,6,42,45,132,10,82,132,20,24,27,4,132,24,0,124,59,75,0,16,42,132,0,128,78,77,59,24,6,27,108,24,82,5,1,77,132,10,132,26,57,0,0,0,4,0,128,11,0,0,5,0,0,0,0,0,0,0,0,0,0,0,0,0,0,0,0,0,0,0,0,0,0,0,0,0,0,0,0,0,0,0,0,0,0,0,0,0,0,0,0,0,0,0,0,0],"split_type":[0,0,0,0,0,0,0,0,0,0,0,0,0,0,0,0,0,0,0,0,0,0,0,0,0,0,0,0,0,0,0,0,0,0,0,0,0,0,0,0,0,0,0,0,0,0,0,0,0,0,0,0,0,0,0,0,0,0,0,0,0,0,0,0,0,0,0,0,0,0,0,0,0,0,0,0,0,0,0,0,0,0,0,0,0,0,0,0,0,0,0,0,0,0,0,0,0,0,0,0,0,0,0],"sum_hessian":[2.763176E3,1.7174453E3,1.0457306E3,1.2830272E3,4.3441812E2,1.668256E2,8.7890497E2,4.0661493E2,8.7641235E2,2.7763474E2,1.5678337E2,1.3608987E2,3.0735733E1,7.552375E2,1.23667496E2,2.8523187E2,1.21383026E2,6.3905273E2,2.3735957E2,2.3440591E2,4.322883E1,1.108727E0,1.5567465E2,1.17041664E2,1.9048206E1,2.8383312E1,2.352421E0,7.0827057E2,4.696689E1,6.8972726E0,1.1677022E2,1.4195668E2,1.432752E2,4.0711075E1,8.067195E1,4.2418507E1,5.966342E2,1.4763583E2,8.972375E1,2.137357E2,2.0670218E1,4.8388724E0,3.8389957E1,1.3254478E2,2.3129856E1,3.2449207E1,8.459246E1,1.7162394E1,1.8858128E0,1.0911022E0,1.2613188E0,8.539755E1,6.2287305E2,1.27881365E1,3.417875E1,1.4124246E0,5.484848E0,1.14765625E2,2.0045955E0,7.252308E1,6.94336E1,3.234949E1,1.1092571E2,3.274188E1,7.9691963E0,3.8835163E1,4.183679E1,3.0601912E1,1.1816596E1,5.366935E2,5.9940792E1,7.392243E1,7.3713394E1,1.5456619E1,7.426713E1,5.876677E1,1.5496893E2,1.7254738E1,3.4154804E0,1.0325477E0,3.8063245E0,3.3403942E1,4.9860144E0,1.8361599E1,1.1418319E2,2.728005E0,2.0401852E1,1.2248353E1,2.0200853E1,7.7889786E1,6.7026753E0,1.1122859E0,1.6050108E1,4.7558804E1,3.783875E1,1.6546057E1,6.0632697E2,1.0448794E0,1.17432575E1,3.0108833E0,3.1167866E1,1.02538E0,1.1374025E2],"tree_param":{"num_deleted":"0","num_feature":"134","num_nodes":"103","size_leaf_vector":"1"}},{"base_weights":[-2.9395698E-3,-5.516417E-1,2.2352864E-1,3.1565034E-1,-5.9829843E-1,3.305446E-1,-4.251897E-1,-6.294578E-2,9.613382E-2,-6.132188E-1,-3.3082016E-2,-4.4605513E-3,4.5338258E-1,7.9986566E-1,-4.91435E-1,-6.628808E-2,-5.0495285E-1,-6.2051874E-2,1.0305625E0,6.396897E-1,-3.5157913E-1,4.9952286E-1,-5.513418E-1,-3.972859E-2,9.379981E-2,-1.4731887E-1,-6.5466154E-1,-5.495023E-1,4.573051E-1,3.4583796E-2,1.1630219E-1,1.0002862E0,3.9143328E-2,-6.756415E-2,-7.921745E-2,5.389321E-1,-3.7385142E-1,-6.585809E-2,2.607947E-1,3.515438E-1,-5.280795E-1,6.212162E-2,-6.658825E-2,1.9263553E-2,-6.082046E-2,8.737658E-2,-5.097115E-2,-4.3016173E-2,1.0287237E-1,5.937876E-2,-5.980746E-2,-3.0642098E-2,4.6459597E-2,7.6533504E-2,4.122066E-2,1.6877804E-2,-6.549386E-2,8.789305E-2,-4.9317986E-2,-5.887006E-2,5.6284603E-2,-6.4746186E-2,1.2237925E-2],"categories":[],"categories_nodes":[],"categories_segments":[],"categories_sizes":[],"default_left":[0,0,0,0,0,0,0,0,0,0,0,0,0,0,0,0,0,0,0,0,0,0,0,0,0,0,0,0,0,0,0,0,0,0,0,0,0,0,0,0,0,0,0,0,0,0,0,0,0,0,0,0,0,0,0,0,0,0,0,0,0,0,0],"id":14,"left_children":[1,3,5,7,9,11,13,-1,-1,15,17,19,21,23,25,-1,27,-1,29,31,33,35,37,-1,-1,39,41,43,45,-1,-1,47,49,-1,51,53,55,-1,57,59,61,-1,-1,-1,-1,-1,-1,-1,-1,-1,-1,-1,-1,-1,-1,-1,-1,-1,-1,-1,-1,-1,-1],"loss_changes":[3.4144482E2,3.2672577E1,1.3516823E2,2.6012815E1,6.4069214E0,6.873036E1,2.2780159E1,0E0,0E0,3.6572876E0,1.3547035E1,1.0063824E2,5.6927597E1,2.7758198E0,1.4638134E1,0E0,1.0439892E1,0E0,2.9848766E-1,3.409265E1,2.576052E1,4.04346E1,4.886257E0,0E0,0E0,1.6461876E1,2.9568253E0,1.0033073E1,4.900474E0,0E0,0E0,4.446869E0,2.162204E1,0E0,1.9916828E1,3.1785797E1,7.898272E0,0E0,3.710082E0,7.8198323E0,3.8839493E0,0E0,0E0,0E0,0E0,0E0,0E0,0E0,0E0,0E0,0E0,0E0,0E0,0E0,0E0,0E0,0E0,0E0,0E0,0E0,0E0,0E0,0E0],"parents":[2147483647,0,0,1,1,2,2,3,3,4,4,5,5,6,6,9,9,10,10,11,11,12,12,13,13,14,14,16,16,18,18,19,19,20,20,21,21,22,22,25,25,26,26,27,27,28,28,31,31,32,32,34,34,35,35,36,36,38,38,39,39,40,40],"right_children":[2,4,6,8,10,12,14,-1,-1,16,18,20,22,24,26,-1,28,-1,30,32,34,36,38,-1,-1,40,42,44,46,-1,-1,48,50,-1,52,54,56,-1,58,60,62,-1,-1,-1,-1,-1,-1,-1,-1,-1,-1,-1,-1,-1,-1,-1,-1,-1,-1,-1,-1,-1,-1],"split_conditions":[-3.1150195E-1,-1.3389466E0,7.0949024E-1,1.709458E-1,1.5918192E0,3.8636371E-1,-2.2826428E0,-6.294578E-2,9.613382E-2,-7.279808E-1,1.3692527E-1,-7.7786607E-1,1.8265263E0,-2.1977368E-1,-4.4470465E-1,-6.628808E-2,2.5685945E-1,-6.2051874E-2,-1.4866379E-1,-3.499072E-1,-1.6551265E-1,7.102618E-2,3.5993293E-1,-3.972859E-2,9.379981E-2,5.267276E-1,-2.3719957E0,-1.0887946E0,-3.55771E-1,3.4583796E-2,1.1630219E-1,-1.5224214E0,-2.9787627E-1,-6.756415E-2,-2.3314568E-1,-6.364172E-1,-1.22478515E-1,-6.585809E-2,5.0277394E-1,-1.9280232E-1,4.929888E-1,6.212162E-2,-6.658825E-2,1.9263553E-2,-6.082046E-2,8.737658E-2,-5.097115E-2,-4.3016173E-2,1.0287237E-1,5.937876E-2,-5.980746E-2,-3.0642098E-2,4.6459597E-2,7.6533504E-2,4.122066E-2,1.6877804E-2,-6.549386E-2,8.789305E-2,-4.9317986E-2,-5.887006E-2,5.6284603E-2,-6.4746186E-2,1.2237925E-2],"split_indices":[104,82,82,4,56,104,2,0,0,104,120,82,7,30,77,0,91,0,13,2,79,54,24,0,0,104,0,26,42,0,0,4,42,0,132,82,67,0,24,58,27,0,0,0,0,0,0,0,0,0,0,0,0,0,0,0,0,0,0,0,0,0,0],"split_type":[0,0,0,0,0,0,0,0,0,0,0,0,0,0,0,0,0,0,0,0,0,0,0,0,0,0,0,0,0,0,0,0,0,0,0,0,0,0,0,0,0,0,0,0,0,0,0,0,0,0,0,0,0,0,0,0,0,0,0,0,0,0,0],"sum_hessian":[2.7457542E3,8.017604E2,1.9439938E3,4.063524E1,7.611251E2,1.669135E3,2.748587E2,1.650363E1,2.4131607E1,7.414672E2,1.9657904E1,4.4808273E2,1.2210522E3,1.3532461E1,2.6132623E2,5.047939E2,2.366733E2,1.293222E1,6.7256827E0,1.5661269E2,2.9147003E2,1.1679204E3,5.313194E1,1.2058243E0,1.2326636E1,8.468816E1,1.7663806E2,2.2661087E2,1.0062419E1,1.6754817E0,5.050201E0,9.743966E1,5.9173027E1,1.3242589E2,1.5904414E2,1.117862E3,5.0058342E1,4.710147E1,6.030469E0,3.6691998E1,4.799617E1,1.0660081E0,1.7557207E2,1.6443535E1,2.1016734E2,7.100786E0,2.9616323E0,1.6239898E0,9.5815674E1,3.1672743E1,2.7500284E1,1.1248486E2,4.6559288E1,3.993533E2,7.185087E2,1.721838E1,3.2839962E1,3.222674E0,2.807795E0,6.405039E0,3.0286957E1,4.0557102E1,7.4390664E0],"tree_param":{"num_deleted":"0","num_feature":"134","num_nodes":"63","size_leaf_vector":"1"}},{"base_weights":[9.027861E-4,-1.8118319E-1,5.025171E-1,5.262561E-1,-2.9271433E-1,3.489126E-1,7.973571E-1,-3.8317558E-1,5.965023E-1,-4.3375376E-1,-4.6663754E-2,2.0558724E-1,5.576043E-1,8.282573E-1,3.9586157E-1,6.0708143E-2,-4.9040478E-1,7.537334E-1,3.2637173E-1,-5.0693905E-1,-3.250669E-1,3.3862236E-1,-1.255618E-1,1.1053402E-1,6.3072354E-1,6.129893E-1,-2.8757924E-1,8.42962E-1,1.6750087E-1,-4.2513812E-1,5.8667094E-1,-6.1317142E-2,1.04887255E-1,1.0997472E-1,8.1146836E-1,4.862331E-1,-1.2339901E-1,2.412111E-1,-5.1902866E-1,-4.3612206E-1,-1.8971278E-1,6.5023726E-1,-4.7505792E-2,-2.2895664E-1,1.243877E-1,5.634974E-2,9.021804E-2,9.039238E-2,2.0090695E-1,6.514185E-1,2.6675215E-2,3.0497295E-1,-5.173762E-1,2.811903E-1,8.6104465E-1,7.061758E-2,-3.3853728E-1,-7.1343095E-3,-5.6245446E-2,-2.2832555E-1,8.2174534E-1,-4.359859E-2,6.6310264E-2,-4.9822927E-2,5.4928433E-2,2.997217E-2,8.330137E-2,-4.390956E-3,6.378401E-2,6.7605615E-2,-4.1953634E-2,-4.8751E-2,5.2259084E-2,-5.365948E-2,2.5456813E-3,-5.7400096E-2,-2.4912668E-2,-2.984783E-2,1.8813914E-2,2.9896323E-2,8.901083E-2,8.653415E-2,-2.9022796E-2,-2.7395068E-2,3.9946657E-2,-3.6534946E-2,2.4117043E-2,-6.0794394E-2,1.0534366E-2,4.4216122E-2,-5.6492742E-2,-3.21812E-2,6.767141E-2,-6.34666E-2,5.837149E-2,-4.0191367E-2,7.877315E-2,-5.968226E-2,7.5577158E-3,-3.6458258E-2,7.527107E-2,8.725678E-2,5.2619945E-2,8.46616E-4,-4.7418192E-2,2.7097577E-2,-5.1624376E-2,8.873977E-2,2.1095382E-2],"categories":[],"categories_nodes":[],"categories_segments":[],"categories_sizes":[],"default_left":[0,0,0,0,0,0,0,0,0,0,0,0,0,0,0,0,0,0,0,0,0,0,0,0,0,0,0,0,0,0,0,0,0,0,0,0,0,0,0,0,0,0,0,0,0,0,0,0,0,0,0,0,0,0,0,0,0,0,0,0,0,0,0,0,0,0,0,0,0,0,0,0,0,0,0,0,0,0,0,0,0,0,0,0,0,0,0,0,0,0,0,0,0,0,0,0,0,0,0,0,0,0,0,0,0,0,0,0,0],"id":15,"left_children":[1,3,5,7,9,11,13,15,17,19,21,23,25,27,29,-1,31,33,35,37,39,41,43,45,47,49,51,53,55,57,59,-1,61,63,65,67,69,71,73,75,77,79,81,83,85,87,-1,-1,89,91,93,95,97,99,101,-1,103,-1,-1,105,107,-1,-1,-1,-1,-1,-1,-1,-1,-1,-1,-1,-1,-1,-1,-1,-1,-1,-1,-1,-1,-1,-1,-1,-1,-1,-1,-1,-1,-1,-1,-1,-1,-1,-1,-1,-1,-1,-1,-1,-1,-1,-1,-1,-1,-1,-1,-1,-1],"loss_changes":[2.4731932E2,1.5690201E2,3.2381516E1,1.7535133E1,5.955487E1,1.4120243E1,2.7269592E0,2.4249866E0,1.0451744E1,8.51413E0,1.9090792E1,1.1395791E1,9.219368E0,2.0714111E0,3.306064E0,0E0,1.4257951E0,5.7996216E0,6.849614E0,6.006653E0,6.5589867E0,1.287882E1,1.3488907E1,9.947651E0,5.8813457E0,4.07489E0,1.8682511E0,2.0182648E0,1.9306144E0,1.6680467E-1,3.301374E0,0E0,1.5085788E0,4.0669603E0,1.3517532E0,5.643734E0,6.3348293E0,2.5150661E0,6.1371307E0,6.0948334E0,8.312887E0,4.7186413E0,1.10237055E1,1.0537018E1,8.841829E0,7.1991096E0,0E0,0E0,4.1945424E0,4.412979E0,4.8702855E0,1.7291727E0,4.889679E-1,2.839504E0,3.7077332E-1,0E0,1.8643638E-1,0E0,0E0,7.754364E-1,3.273468E-1,0E0,0E0,0E0,0E0,0E0,0E0,0E0,0E0,0E0,0E0,0E0,0E0,0E0,0E0,0E0,0E0,0E0,0E0,0E0,0E0,0E0,0E0,0E0,0E0,0E0,0E0,0E0,0E0,0E0,0E0,0E0,0E0,0E0,0E0,0E0,0E0,0E0,0E0,0E0,0E0,0E0,0E0,0E0,0E0,0E0,0E0,0E0,0E0],"parents":[2147483647,0,0,1,1,2,2,3,3,4,4,5,5,6,6,7,7,8,8,9,9,10,10,11,11,12,12,13,13,14,14,16,16,17,17,18,18,19,19,20,20,21,21,22,22,23,23,24,24,25,25,26,26,27,27,28,28,29,29,30,30,32,32,33,33,34,34,35,35,36,36,37,37,38,38,39,39,40,40,41,41,42,42,43,43,44,44,45,45,48,48,49,49,50,50,51,51,52,52,53,53,54,54,56,56,59,59,60,60],"right_children":[2,4,6,8,10,12,14,16,18,20,22,24,26,28,30,-1,32,34,36,38,40,42,44,46,48,50,52,54,56,58,60,-1,62,64,66,68,70,72,74,76,78,80,82,84,86,88,-1,-1,90,92,94,96,98,100,102,-1,104,-1,-1,106,108,-1,-1,-1,-1,-1,-1,-1,-1,-1,-1,-1,-1,-1,-1,-1,-1,-1,-1,-1,-1,-1,-1,-1,-1,-1,-1,-1,-1,-1,-1,-1,-1,-1,-1,-1,-1,-1,-1,-1,-1,-1,-1,-1,-1,-1,-1,-1,-1],"split_conditions":[6.461999E-1,-1.2024504E0,2.1246092E0,-1.0812857E0,-1.9656086E-1,2.3160434E-1,1.049688E0,8.703473E-1,1.2965715E-1,-5.743441E-1,-4.4201213E-1,7.5402373E-1,2.0535803E0,6.9719157E0,-3.0811712E-1,6.0708143E-2,-1.9069351E-2,-1.0103749E0,4.3550268E-2,-1.5302511E0,-2.35203E-1,5.1315826E-1,6.543608E-2,8.5424304E-1,1.3902929E0,1.4790515E0,-2.1861696E-1,-2.3230457E0,1.6907695E-1,8.9111894E-2,4.0313956E-1,-6.1317142E-2,1.9245593E-1,-6.310466E-2,-5.8949494E-1,-6.364172E-1,-1.6426528E0,-1.3353191E-1,1.5962611E0,-2.1611659E-1,3.6388847E-1,-9.700068E-1,-4.7447893E-1,1.4284586E0,-1.1633335E0,-4.624848E-1,9.021804E-2,9.039238E-2,-1.8924087E-1,-7.4544066E-1,-8.4802836E-1,-1.663391E-1,5.475289E-1,-1.0708016E0,7.560105E-1,7.061758E-2,-1.7854346E-1,-7.1343095E-3,-5.6245446E-2,3.5205936E-1,1.4117529E0,-4.359859E-2,6.6310264E-2,-4.9822927E-2,5.4928433E-2,2.997217E-2,8.330137E-2,-4.390956E-3,6.378401E-2,6.7605615E-2,-4.1953634E-2,-4.8751E-2,5.2259084E-2,-5.365948E-2,2.5456813E-3,-5.7400096E-2,-2.4912668E-2,-2.984783E-2,1.8813914E-2,2.9896323E-2,8.901083E-2,8.653415E-2,-2.9022796E-2,-2.7395068E-2,3.9946657E-2,-3.6534946E-2,2.4117043E-2,-6.0794394E-2,1.0534366E-2,4.4216122E-2,-5.6492742E-2,-3.21812E-2,6.767141E-2,-6.34666E-2,5.837149E-2,-4.0191367E-2,7.877315E-2,-5.968226E-2,7.5577158E-3,-3.6458258E-2,7.527107E-2,8.725678E-2,5.2619945E-2,8.46616E-4,-4.7418192E-2,2.7097577E-2,-5.1624376E-2,8.873977E-2,2.1095382E-2],"split_indices":[82,104,82,82,82,132,98,132,120,82,84,128,6,71,103,0,47,0,84,7,77,6,124,2,42,132,115,36,89,14,128,0,20,21,90,82,104,129,104,114,0,4,0,133,133,24,0,0,132,34,4,9,71,133,130,0,5,0,0,57,132,0,0,0,0,0,0,0,0,0,0,0,0,0,0,0,0,0,0,0,0,0,0,0,0,0,0,0,0,0,0,0,0,0,0,0,0,0,0,0,0,0,0,0,0,0,0,0,0],"split_type":[0,0,0,0,0,0,0,0,0,0,0,0,0,0,0,0,0,0,0,0,0,0,0,0,0,0,0,0,0,0,0,0,0,0,0,0,0,0,0,0,0,0,0,0,0,0,0,0,0,0,0,0,0,0,0,0,0,0,0,0,0,0,0,0,0,0,0,0,0,0,0,0,0,0,0,0,0,0,0,0,0,0,0,0,0,0,0,0,0,0,0,0,0,0,0,0,0,0,0,0,0,0,0,0,0,0,0,0,0],"sum_hessian":[2.7057722E3,1.9856282E3,7.201441E2,2.6990555E2,1.7157225E3,4.7491055E2,2.4523357E2,1.9033728E1,2.5087181E2,1.0901001E3,6.256225E2,2.827254E2,1.9218512E2,2.2672153E2,1.851204E1,1.4042267E0,1.7629501E1,1.574417E2,9.3430115E1,6.492544E2,4.408457E2,1.0577843E2,5.1984406E2,2.320933E2,5.0632103E1,1.8062357E2,1.1561554E1,2.2151607E2,5.205464E0,3.2594507E0,1.5252588E1,1.4590483E1,3.0390182E0,1.3196986E1,1.442447E2,6.887051E1,2.455961E1,1.0023298E1,6.3923114E2,2.4093864E2,1.9990706E2,5.8158833E1,4.76196E1,3.6778784E2,1.520562E2,2.1822787E2,1.3865439E1,3.0281507E1,2.0350595E1,1.6940884E2,1.1214722E1,3.1393404E0,8.422214E0,7.4240394E0,2.1409203E2,2.3298512E0,2.875613E0,1.3362249E0,1.9232256E0,3.4209514E0,1.1831636E1,1.6546948E0,1.3843234E0,5.4783473E0,7.718639E0,6.4299984E0,1.3781471E2,1.5473348E1,5.3397156E1,6.2916627E0,1.8267948E1,2.588081E0,7.4352174E0,6.192669E2,1.9964235E1,1.3749136E2,1.0344728E2,1.5538826E2,4.45188E1,2.4510822E1,3.3648006E1,9.463484E0,3.8156113E1,3.4374066E2,2.4047176E1,2.8867926E1,1.2318827E2,1.42058935E1,2.0402199E2,1.5796881E1,4.553715E0,3.9946814E0,1.6541417E2,5.0636206E0,6.151101E0,1.3419027E0,1.7974377E0,7.421345E0,1.0008688E0,3.2288065E0,4.195233E0,2.0541704E2,8.674994E0,1.0716711E0,1.8039417E0,1.272703E0,2.1482484E0,1.0274404E1,1.5572331E0],"tree_param":{"num_deleted":"0","num_feature":"134","num_nodes":"109","size_leaf_vector":"1"}},{"base_weights":[2.8989464E-3,1.7606083E-1,-2.8703713E-1,