/*
 * Auto-generated by export_audio_to_c.py — DO NOT EDIT MANUALLY
 *
 * Audio-enhanced XGBoost sleep stage classifier
 *   Features : 117  (97 IMU + 20 audio)
 *   Trees    : 20
 *   Classes  : 0 = Wake  |  1 = NREM  |  2 = REM
 *
 * Usage:
 *   #include "sleep_model_audio/xgboost_audio.h"
 *   #include "sleep_model_audio/scaler_audio.h"
 *
 *   double raw[NUM_FEATURES];     // fill from sensors
 *   double scaled[NUM_FEATURES];
 *   apply_scaling(raw, scaled);
 *
 *   float sf[NUM_FEATURES];
 *   for (int i = 0; i < NUM_FEATURES; i++) sf[i] = (float)scaled[i];
 *
 *   Eloquent::ML::Port::XGBClassifier clf;
 *   int pred = clf.predict(sf);   // 0=Wake 1=NREM 2=REM
 */

#ifndef XGBOOST_AUDIO_H
#define XGBOOST_AUDIO_H

#define NUM_FEATURES 117
#define NUM_CLASSES  3

#pragma once
#include <cstdarg>
namespace Eloquent {
    namespace ML {
        namespace Port {
            class XGBClassifier {
                public:
                    /**
                    * Predict class for features vector
                    */
                    int predict(float *x) {
                        float votes[3] = { 0.0f };
                        // tree #1
                        if (x[59] <= 0.71954376) {
                            if (x[88] <= -1.2593999) {
                                if (x[59] <= -1.0439765) {
                                    if (x[55] <= -0.31039685) {
                                        votes[0] += 0.11538482;
                                    }

                                    else {
                                        if (x[60] <= -0.8505277) {
                                            if (x[58] <= -0.26569614) {
                                                votes[0] += 0.0766491;
                                            }

                                            else {
                                                votes[0] += -0.031565543;
                                            }
                                        }

                                        else {
                                            if (x[10] <= 0.6507155) {
                                                votes[0] += -0.07284544;
                                            }

                                            else {
                                                votes[0] += -0.0072369524;
                                            }
                                        }
                                    }
                                }

                                else {
                                    if (x[58] <= -0.47561082) {
                                        if (x[24] <= -0.64861095) {
                                            if (x[25] <= 0.0036406538) {
                                                votes[0] += -0.040038027;
                                            }

                                            else {
                                                votes[0] += 0.060943615;
                                            }
                                        }

                                        else {
                                            if (x[7] <= -1.200002) {
                                                votes[0] += 0.043542553;
                                            }

                                            else {
                                                votes[0] += 0.14573263;
                                            }
                                        }
                                    }

                                    else {
                                        if (x[58] <= 1.2495325) {
                                            if (x[101] <= -0.3181935) {
                                                votes[0] += 0.08459633;
                                            }

                                            else {
                                                votes[0] += 0.14625862;
                                            }
                                        }

                                        else {
                                            if (x[104] <= -0.2906245) {
                                                votes[0] += 0.064667076;
                                            }

                                            else {
                                                votes[0] += -0.05972451;
                                            }
                                        }
                                    }
                                }
                            }

                            else {
                                if (x[59] <= -0.14955756) {
                                    if (x[59] <= -0.57501924) {
                                        if (x[112] <= 0.48499334) {
                                            if (x[108] <= -0.87612957) {
                                                votes[0] += -0.01919257;
                                            }

                                            else {
                                                votes[0] += -0.06486469;
                                            }
                                        }

                                        else {
                                            if (x[7] <= -0.7482053) {
                                                votes[0] += 0.086178415;
                                            }

                                            else {
                                                votes[0] += -0.042744424;
                                            }
                                        }
                                    }

                                    else {
                                        if (x[88] <= -0.9153823) {
                                            if (x[55] <= -0.36961296) {
                                                votes[0] += 0.1355366;
                                            }

                                            else {
                                                votes[0] += -0.013261569;
                                            }
                                        }

                                        else {
                                            if (x[109] <= 0.123362705) {
                                                votes[0] += -0.042985853;
                                            }

                                            else {
                                                votes[0] += 0.111622214;
                                            }
                                        }
                                    }
                                }

                                else {
                                    if (x[60] <= -0.45150602) {
                                        if (x[82] <= -0.061616644) {
                                            if (x[45] <= 0.19354485) {
                                                votes[0] += 0.1305841;
                                            }

                                            else {
                                                votes[0] += 0.022967309;
                                            }
                                        }

                                        else {
                                            if (x[109] <= -0.14790003) {
                                                votes[0] += 0.064474;
                                            }

                                            else {
                                                votes[0] += -0.036681205;
                                            }
                                        }
                                    }

                                    else {
                                        if (x[83] <= 1.1537762) {
                                            if (x[76] <= -0.07615753) {
                                                votes[0] += -0.027015412;
                                            }

                                            else {
                                                votes[0] += 0.03090319;
                                            }
                                        }

                                        else {
                                            if (x[108] <= -0.9746387) {
                                                votes[0] += 0.04780655;
                                            }

                                            else {
                                                votes[0] += 0.13922012;
                                            }
                                        }
                                    }
                                }
                            }
                        }

                        else {
                            if (x[59] <= 1.8364217) {
                                if (x[91] <= 1.2545648) {
                                    if (x[88] <= 1.1891959) {
                                        if (x[8] <= 0.5079089) {
                                            if (x[12] <= 0.25868052) {
                                                votes[0] += 0.068567455;
                                            }

                                            else {
                                                votes[0] += 0.013915113;
                                            }
                                        }

                                        else {
                                            votes[0] += 0.14295036;
                                        }
                                    }

                                    else {
                                        if (x[3] <= 0.6770809) {
                                            if (x[74] <= 0.5542326) {
                                                votes[0] += -0.06727233;
                                            }

                                            else {
                                                votes[0] += 0.022451282;
                                            }
                                        }

                                        else {
                                            if (x[100] <= -0.095455244) {
                                                votes[0] += -0.05725927;
                                            }

                                            else {
                                                votes[0] += 0.12526672;
                                            }
                                        }
                                    }
                                }

                                else {
                                    if (x[10] <= 0.43587932) {
                                        if (x[83] <= -0.6787721) {
                                            if (x[88] <= 1.7558131) {
                                                votes[0] += 0.11538482;
                                            }

                                            else {
                                                votes[0] += -0.05298015;
                                            }
                                        }

                                        else {
                                            if (x[28] <= -0.67780054) {
                                                votes[0] += 0.008617538;
                                            }

                                            else {
                                                votes[0] += 0.14484312;
                                            }
                                        }
                                    }

                                    else {
                                        votes[0] += -0.05972451;
                                    }
                                }
                            }

                            else {
                                if (x[74] <= 0.7155795) {
                                    if (x[88] <= -1.5427085) {
                                        if (x[2] <= -0.1876211) {
                                            votes[0] += 0.12096762;
                                        }

                                        else {
                                            votes[0] += -0.05970146;
                                        }
                                    }

                                    else {
                                        if (x[73] <= 0.7437081) {
                                            if (x[90] <= -1.5418009) {
                                                votes[0] += 0.032812875;
                                            }

                                            else {
                                                votes[0] += 0.14276858;
                                            }
                                        }

                                        else {
                                            votes[0] += 0.032812875;
                                        }
                                    }
                                }

                                else {
                                    if (x[90] <= 0.44591543) {
                                        if (x[8] <= 0.63314116) {
                                            votes[0] += 0.13236928;
                                        }

                                        else {
                                            votes[0] += 0.008617538;
                                        }
                                    }

                                    else {
                                        if (x[109] <= -0.21727523) {
                                            if (x[6] <= -1.0727844) {
                                                votes[0] += 0.08333483;
                                            }

                                            else {
                                                votes[0] += 0.008617538;
                                            }
                                        }

                                        else {
                                            votes[0] += -0.06342524;
                                        }
                                    }
                                }
                            }
                        }

                        // tree #2
                        if (x[90] <= 0.74163795) {
                            if (x[91] <= -0.76937896) {
                                if (x[11] <= 0.42892817) {
                                    if (x[59] <= 0.39991096) {
                                        if (x[57] <= -0.015291787) {
                                            if (x[58] <= -0.6169728) {
                                                votes[1] += -0.025504086;
                                            }

                                            else {
                                                votes[1] += 0.11355839;
                                            }
                                        }

                                        else {
                                            if (x[88] <= 0.09643412) {
                                                votes[1] += 0.113173485;
                                            }

                                            else {
                                                votes[1] += -0.027848644;
                                            }
                                        }
                                    }

                                    else {
                                        if (x[82] <= 0.596071) {
                                            if (x[76] <= -0.17670019) {
                                                votes[1] += 0.03257822;
                                            }

                                            else {
                                                votes[1] += -0.050111007;
                                            }
                                        }

                                        else {
                                            if (x[24] <= 0.109841) {
                                                votes[1] += 0.10927724;
                                            }

                                            else {
                                                votes[1] += -0.0039631366;
                                            }
                                        }
                                    }
                                }

                                else {
                                    if (x[4] <= -1.2635487) {
                                        if (x[36] <= -0.03447161) {
                                            if (x[76] <= -0.14599219) {
                                                votes[1] += 0.09009018;
                                            }

                                            else {
                                                votes[1] += -0.041667383;
                                            }
                                        }

                                        else {
                                            votes[1] += 0.13698827;
                                        }
                                    }

                                    else {
                                        if (x[24] <= -0.4403613) {
                                            if (x[83] <= 0.8061954) {
                                                votes[1] += 0.13408004;
                                            }

                                            else {
                                                votes[1] += -0.03559187;
                                            }
                                        }

                                        else {
                                            if (x[55] <= -0.36686677) {
                                                votes[1] += -0.00094033836;
                                            }

                                            else {
                                                votes[1] += -0.066671066;
                                            }
                                        }
                                    }
                                }
                            }

                            else {
                                if (x[57] <= 0.99474204) {
                                    if (x[78] <= 1.3848348) {
                                        if (x[54] <= -0.04567744) {
                                            if (x[58] <= -0.5784028) {
                                                votes[1] += 0.01559635;
                                            }

                                            else {
                                                votes[1] += -0.056226492;
                                            }
                                        }

                                        else {
                                            if (x[59] <= 1.104228) {
                                                votes[1] += 0.0065736882;
                                            }

                                            else {
                                                votes[1] += -0.059214856;
                                            }
                                        }
                                    }

                                    else {
                                        if (x[0] <= -3.0569212) {
                                            if (x[3] <= -3.0689743) {
                                                votes[1] += -0.040992808;
                                            }

                                            else {
                                                votes[1] += 0.13030764;
                                            }
                                        }

                                        else {
                                            if (x[29] <= -0.056390554) {
                                                votes[1] += 0.09009018;
                                            }

                                            else {
                                                votes[1] += -0.059410196;
                                            }
                                        }
                                    }
                                }

                                else {
                                    if (x[88] <= 1.6748677) {
                                        if (x[90] <= 0.6202742) {
                                            if (x[21] <= -0.14537723) {
                                                votes[1] += -0.015793657;
                                            }

                                            else {
                                                votes[1] += -0.07133194;
                                            }
                                        }

                                        else {
                                            if (x[82] <= -0.8029343) {
                                                votes[1] += 0.038843993;
                                            }

                                            else {
                                                votes[1] += -0.06250005;
                                            }
                                        }
                                    }

                                    else {
                                        if (x[4] <= -0.75091225) {
                                            votes[1] += 0.11518418;
                                        }

                                        else {
                                            votes[1] += -0.05921073;
                                        }
                                    }
                                }
                            }
                        }

                        else {
                            if (x[59] <= 0.73202044) {
                                if (x[4] <= -1.3161069) {
                                    if (x[24] <= -0.2965584) {
                                        if (x[0] <= -0.74266165) {
                                            votes[1] += -0.041667383;
                                        }

                                        else {
                                            if (x[16] <= 0.0707407) {
                                                votes[1] += 0.12661341;
                                            }

                                            else {
                                                votes[1] += 0.02922042;
                                            }
                                        }
                                    }

                                    else {
                                        votes[1] += -0.07267143;
                                    }
                                }

                                else {
                                    if (x[59] <= 0.0442564) {
                                        if (x[20] <= 0.3495978) {
                                            if (x[88] <= -0.9760913) {
                                                votes[1] += 0.06690586;
                                            }

                                            else {
                                                votes[1] += 0.12081943;
                                            }
                                        }

                                        else {
                                            if (x[110] <= -0.5370948) {
                                                votes[1] += -0.04990045;
                                            }

                                            else {
                                                votes[1] += 0.083783925;
                                            }
                                        }
                                    }

                                    else {
                                        if (x[0] <= 0.5668435) {
                                            if (x[81] <= -0.23323601) {
                                                votes[1] += 0.09117486;
                                            }

                                            else {
                                                votes[1] += -0.003920965;
                                            }
                                        }

                                        else {
                                            votes[1] += 0.14130181;
                                        }
                                    }
                                }
                            }

                            else {
                                if (x[59] <= 1.104228) {
                                    if (x[26] <= 0.029267142) {
                                        if (x[7] <= -0.9169366) {
                                            if (x[112] <= 0.01513345) {
                                                votes[1] += 0.12959175;
                                            }

                                            else {
                                                votes[1] += -0.008149241;
                                            }
                                        }

                                        else {
                                            if (x[81] <= 0.15307361) {
                                                votes[1] += -0.041623957;
                                            }

                                            else {
                                                votes[1] += 0.09782128;
                                            }
                                        }
                                    }

                                    else {
                                        if (x[31] <= -0.057665486) {
                                            votes[1] += 0.07432757;
                                        }

                                        else {
                                            if (x[13] <= -0.114808954) {
                                                votes[1] += -0.07054417;
                                            }

                                            else {
                                                votes[1] += -0.010642703;
                                            }
                                        }
                                    }
                                }

                                else {
                                    if (x[59] <= 2.552023) {
                                        if (x[42] <= -0.1250984) {
                                            if (x[24] <= -0.25531316) {
                                                votes[1] += 0.105960846;
                                            }

                                            else {
                                                votes[1] += -0.041667383;
                                            }
                                        }

                                        else {
                                            if (x[10] <= 0.49362335) {
                                                votes[1] += -0.048899543;
                                            }

                                            else {
                                                votes[1] += 0.043634217;
                                            }
                                        }
                                    }

                                    else {
                                        if (x[75] <= -0.15581813) {
                                            if (x[2] <= -0.21778868) {
                                                votes[1] += 0.026623726;
                                            }

                                            else {
                                                votes[1] += -0.05357185;
                                            }
                                        }

                                        else {
                                            if (x[9] <= -0.19091326) {
                                                votes[1] += -0.008149241;
                                            }

                                            else {
                                                votes[1] += -0.073778234;
                                            }
                                        }
                                    }
                                }
                            }
                        }

                        // tree #3
                        if (x[88] <= 0.2987974) {
                            if (x[59] <= -1.0184059) {
                                if (x[37] <= -0.09606395) {
                                    if (x[8] <= 0.5644671) {
                                        if (x[81] <= -0.17412004) {
                                            if (x[4] <= -1.5224214) {
                                                votes[2] += -0.06291665;
                                            }

                                            else {
                                                votes[2] += 0.13013558;
                                            }
                                        }

                                        else {
                                            if (x[88] <= 0.055961464) {
                                                votes[2] += -0.042200986;
                                            }

                                            else {
                                                votes[2] += 0.13190892;
                                            }
                                        }
                                    }

                                    else {
                                        if (x[24] <= 2.8059914) {
                                            if (x[88] <= -0.004747524) {
                                                votes[2] += -0.07279807;
                                            }

                                            else {
                                                votes[2] += 0.060073655;
                                            }
                                        }

                                        else {
                                            if (x[5] <= -0.13834816) {
                                                votes[2] += 0.11179962;
                                            }

                                            else {
                                                votes[2] += 0.039278578;
                                            }
                                        }
                                    }
                                }

                                else {
                                    if (x[10] <= 0.82626677) {
                                        if (x[112] <= -0.5188699) {
                                            if (x[112] <= -0.5328369) {
                                                votes[2] += -0.059126567;
                                            }

                                            else {
                                                votes[2] += 0.10816479;
                                            }
                                        }

                                        else {
                                            if (x[2] <= 0.66550237) {
                                                votes[2] += -0.07412446;
                                            }

                                            else {
                                                votes[2] += 0.054376908;
                                            }
                                        }
                                    }

                                    else {
                                        if (x[112] <= -0.15120733) {
                                            votes[2] += 0.13443321;
                                        }

                                        else {
                                            votes[2] += -0.06234787;
                                        }
                                    }
                                }
                            }

                            else {
                                if (x[57] <= -0.17288834) {
                                    if (x[83] <= 1.2617025) {
                                        if (x[21] <= -0.15110873) {
                                            if (x[24] <= 0.56770164) {
                                                votes[2] += -0.061620034;
                                            }

                                            else {
                                                votes[2] += 0.09917171;
                                            }
                                        }

                                        else {
                                            if (x[11] <= 1.0461159) {
                                                votes[2] += -0.07407086;
                                            }

                                            else {
                                                votes[2] += -0.015639946;
                                            }
                                        }
                                    }

                                    else {
                                        votes[2] += 0.0830638;
                                    }
                                }

                                else {
                                    if (x[112] <= 1.6437173) {
                                        if (x[88] <= -0.4094741) {
                                            if (x[35] <= -0.09341808) {
                                                votes[2] += 0.008260306;
                                            }

                                            else {
                                                votes[2] += -0.071049854;
                                            }
                                        }

                                        else {
                                            if (x[54] <= -0.16395555) {
                                                votes[2] += 0.00926603;
                                            }

                                            else {
                                                votes[2] += -0.05703965;
                                            }
                                        }
                                    }

                                    else {
                                        if (x[59] <= -0.5199942) {
                                            votes[2] += 0.1360535;
                                        }

                                        else {
                                            if (x[88] <= -0.36900145) {
                                                votes[2] += -0.069663994;
                                            }

                                            else {
                                                votes[2] += 0.06495084;
                                            }
                                        }
                                    }
                                }
                            }
                        }

                        else {
                            if (x[59] <= -0.14955756) {
                                if (x[74] <= 0.55112207) {
                                    if (x[0] <= 0.21652618) {
                                        if (x[88] <= 0.90588725) {
                                            votes[2] += -0.07306399;
                                        }

                                        else {
                                            if (x[82] <= -1.3855441) {
                                                votes[2] += 0.13084002;
                                            }

                                            else {
                                                votes[2] += -0.012554501;
                                            }
                                        }
                                    }

                                    else {
                                        if (x[84] <= -0.09880127) {
                                            if (x[24] <= -0.3393958) {
                                                votes[2] += -0.07074718;
                                            }

                                            else {
                                                votes[2] += 0.0981348;
                                            }
                                        }

                                        else {
                                            if (x[7] <= 0.35680208) {
                                                votes[2] += -0.05910488;
                                            }

                                            else {
                                                votes[2] += 0.069777094;
                                            }
                                        }
                                    }
                                }

                                else {
                                    if (x[4] <= -1.0726478) {
                                        if (x[109] <= -0.15781887) {
                                            if (x[112] <= -0.3357157) {
                                                votes[2] += 0.010071372;
                                            }

                                            else {
                                                votes[2] += 0.12494043;
                                            }
                                        }

                                        else {
                                            if (x[32] <= 2.6811008) {
                                                votes[2] += -0.0684415;
                                            }

                                            else {
                                                votes[2] += 0.054376908;
                                            }
                                        }
                                    }

                                    else {
                                        if (x[109] <= 0.27423924) {
                                            if (x[74] <= 0.5849567) {
                                                votes[2] += -0.006712485;
                                            }

                                            else {
                                                votes[2] += 0.13014652;
                                            }
                                        }

                                        else {
                                            votes[2] += -0.057217486;
                                        }
                                    }
                                }
                            }

                            else {
                                if (x[57] <= 0.6614117) {
                                    if (x[62] <= 0.6971147) {
                                        if (x[74] <= -0.13104457) {
                                            if (x[100] <= -0.10089348) {
                                                votes[2] += 0.09255287;
                                            }

                                            else {
                                                votes[2] += -0.027561828;
                                            }
                                        }

                                        else {
                                            if (x[106] <= -0.3431041) {
                                                votes[2] += 0.03780431;
                                            }

                                            else {
                                                votes[2] += -0.073696785;
                                            }
                                        }
                                    }

                                    else {
                                        if (x[0] <= -1.3582258) {
                                            if (x[88] <= 1.2499049) {
                                                votes[2] += -0.05921146;
                                            }

                                            else {
                                                votes[2] += 0.1406186;
                                            }
                                        }

                                        else {
                                            votes[2] += -0.06804952;
                                        }
                                    }
                                }

                                else {
                                    if (x[85] <= -0.41478235) {
                                        if (x[24] <= 0.10214586) {
                                            votes[2] += -0.071737364;
                                        }

                                        else {
                                            if (x[88] <= 1.3713229) {
                                                votes[2] += 0.08271024;
                                            }

                                            else {
                                                votes[2] += -0.067882225;
                                            }
                                        }
                                    }

                                    else {
                                        if (x[88] <= 1.6343951) {
                                            if (x[81] <= 0.6266355) {
                                                votes[2] += 0.12584631;
                                            }

                                            else {
                                                votes[2] += 0.015459701;
                                            }
                                        }

                                        else {
                                            votes[2] += -0.061568;
                                        }
                                    }
                                }
                            }
                        }

                        // tree #4
                        if (x[59] <= 0.71954376) {
                            if (x[88] <= -1.2391636) {
                                if (x[59] <= -1.0439765) {
                                    if (x[55] <= -0.31039685) {
                                        votes[0] += 0.10590196;
                                    }

                                    else {
                                        if (x[65] <= -0.29374403) {
                                            if (x[9] <= -0.16033694) {
                                                votes[0] += 0.026487721;
                                            }

                                            else {
                                                votes[0] += -0.047473475;
                                            }
                                        }

                                        else {
                                            votes[0] += -0.07104948;
                                        }
                                    }
                                }

                                else {
                                    if (x[58] <= 1.2495325) {
                                        if (x[58] <= -0.47561082) {
                                            if (x[24] <= -0.64861095) {
                                                votes[0] += 0.018986182;
                                            }

                                            else {
                                                votes[0] += 0.123443745;
                                            }
                                        }

                                        else {
                                            if (x[88] <= -1.2593999) {
                                                votes[0] += 0.12230863;
                                            }

                                            else {
                                                votes[0] += 0.02248585;
                                            }
                                        }
                                    }

                                    else {
                                        if (x[104] <= -0.2906245) {
                                            votes[0] += 0.04648174;
                                        }

                                        else {
                                            votes[0] += -0.059054274;
                                        }
                                    }
                                }
                            }

                            else {
                                if (x[59] <= -0.57501924) {
                                    if (x[112] <= 0.48499334) {
                                        if (x[108] <= -0.87612957) {
                                            if (x[101] <= -0.43564647) {
                                                votes[0] += 0.088764094;
                                            }

                                            else {
                                                votes[0] += -0.032317135;
                                            }
                                        }

                                        else {
                                            if (x[88] <= 2.0795944) {
                                                votes[0] += -0.06303122;
                                            }

                                            else {
                                                votes[0] += 0.015369064;
                                            }
                                        }
                                    }

                                    else {
                                        if (x[7] <= -0.7482053) {
                                            if (x[73] <= 0.6689845) {
                                                votes[0] += 0.11281742;
                                            }

                                            else {
                                                votes[0] += -0.050431807;
                                            }
                                        }

                                        else {
                                            if (x[32] <= -1.1037552) {
                                                votes[0] += 0.050520886;
                                            }

                                            else {
                                                votes[0] += -0.055700373;
                                            }
                                        }
                                    }
                                }

                                else {
                                    if (x[60] <= -0.5381446) {
                                        if (x[57] <= -0.49821216) {
                                            if (x[60] <= -5.764303) {
                                                votes[0] += -0.04163293;
                                            }

                                            else {
                                                votes[0] += 0.099473655;
                                            }
                                        }

                                        else {
                                            if (x[91] <= 0.60540617) {
                                                votes[0] += -0.030237025;
                                            }

                                            else {
                                                votes[0] += 0.06673752;
                                            }
                                        }
                                    }

                                    else {
                                        if (x[0] <= -3.1196811) {
                                            if (x[100] <= -0.101652876) {
                                                votes[0] += -0.02434232;
                                            }

                                            else {
                                                votes[0] += 0.11792449;
                                            }
                                        }

                                        else {
                                            if (x[109] <= -0.026226029) {
                                                votes[0] += -0.029106662;
                                            }

                                            else {
                                                votes[0] += 0.034259547;
                                            }
                                        }
                                    }
                                }
                            }
                        }

                        else {
                            if (x[59] <= 1.8364217) {
                                if (x[91] <= 1.1959577) {
                                    if (x[88] <= 1.1891959) {
                                        if (x[8] <= 0.5079089) {
                                            if (x[83] <= 0.54903823) {
                                                votes[0] += 0.050086636;
                                            }

                                            else {
                                                votes[0] += -0.057076793;
                                            }
                                        }

                                        else {
                                            if (x[86] <= 0.19488195) {
                                                votes[0] += 0.12755571;
                                            }

                                            else {
                                                votes[0] += 0.040959414;
                                            }
                                        }
                                    }

                                    else {
                                        if (x[55] <= -0.44669676) {
                                            if (x[100] <= -0.095455244) {
                                                votes[0] += -0.05603323;
                                            }

                                            else {
                                                votes[0] += 0.111029126;
                                            }
                                        }

                                        else {
                                            if (x[74] <= 0.5542326) {
                                                votes[0] += -0.07124467;
                                            }

                                            else {
                                                votes[0] += 0.02185419;
                                            }
                                        }
                                    }
                                }

                                else {
                                    if (x[8] <= 0.44110903) {
                                        if (x[84] <= -0.72679293) {
                                            if (x[88] <= 1.7760494) {
                                                votes[0] += 0.10139989;
                                            }

                                            else {
                                                votes[0] += -0.051259484;
                                            }
                                        }

                                        else {
                                            if (x[28] <= -0.6299463) {
                                                votes[0] += -0.0046767127;
                                            }

                                            else {
                                                votes[0] += 0.124717824;
                                            }
                                        }
                                    }

                                    else {
                                        votes[0] += -0.05934261;
                                    }
                                }
                            }

                            else {
                                if (x[109] <= -0.32142866) {
                                    if (x[1] <= 0.097307175) {
                                        votes[0] += -0.052110612;
                                    }

                                    else {
                                        votes[0] += 0.0755571;
                                    }
                                }

                                else {
                                    if (x[74] <= 0.7155795) {
                                        if (x[88] <= -1.5427085) {
                                            if (x[0] <= -0.16785076) {
                                                votes[0] += 0.10029411;
                                            }

                                            else {
                                                votes[0] += -0.049706448;
                                            }
                                        }

                                        else {
                                            if (x[90] <= -1.5418009) {
                                                votes[0] += 0.029299682;
                                            }

                                            else {
                                                votes[0] += 0.12404113;
                                            }
                                        }
                                    }

                                    else {
                                        if (x[90] <= 0.44591543) {
                                            if (x[88] <= 1.6951041) {
                                                votes[0] += 0.116444826;
                                            }

                                            else {
                                                votes[0] += 0.0052656494;
                                            }
                                        }

                                        else {
                                            if (x[109] <= -0.21727523) {
                                                votes[0] += 0.07284728;
                                            }

                                            else {
                                                votes[0] += -0.062602594;
                                            }
                                        }
                                    }
                                }
                            }
                        }

                        // tree #5
                        if (x[90] <= 0.70218056) {
                            if (x[91] <= -0.60036683) {
                                if (x[11] <= 0.42892817) {
                                    if (x[57] <= -0.015291787) {
                                        if (x[58] <= -0.53990185) {
                                            if (x[2] <= 0.7409986) {
                                                votes[1] += -0.03417725;
                                            }

                                            else {
                                                votes[1] += 0.11983632;
                                            }
                                        }

                                        else {
                                            if (x[90] <= -1.2140965) {
                                                votes[1] += 0.0018686103;
                                            }

                                            else {
                                                votes[1] += 0.0977706;
                                            }
                                        }
                                    }

                                    else {
                                        if (x[85] <= -0.35165623) {
                                            if (x[59] <= -0.57501924) {
                                                votes[1] += 0.111949645;
                                            }

                                            else {
                                                votes[1] += 0.014515712;
                                            }
                                        }

                                        else {
                                            if (x[88] <= 0.09643412) {
                                                votes[1] += 0.026002666;
                                            }

                                            else {
                                                votes[1] += -0.051820554;
                                            }
                                        }
                                    }
                                }

                                else {
                                    if (x[4] <= -1.257174) {
                                        if (x[108] <= 0.091217704) {
                                            if (x[71] <= -0.09127551) {
                                                votes[1] += 0.025783777;
                                            }

                                            else {
                                                votes[1] += 0.12474071;
                                            }
                                        }

                                        else {
                                            votes[1] += 0.009224874;
                                        }
                                    }

                                    else {
                                        if (x[24] <= -0.4403613) {
                                            if (x[46] <= 0.015338555) {
                                                votes[1] += 0.11149075;
                                            }

                                            else {
                                                votes[1] += -0.05739323;
                                            }
                                        }

                                        else {
                                            if (x[58] <= -0.4884639) {
                                                votes[1] += -0.0063558677;
                                            }

                                            else {
                                                votes[1] += -0.06400891;
                                            }
                                        }
                                    }
                                }
                            }

                            else {
                                if (x[57] <= 0.99474204) {
                                    if (x[78] <= 1.3848348) {
                                        if (x[54] <= -0.04567744) {
                                            if (x[58] <= -0.5784028) {
                                                votes[1] += 0.011927961;
                                            }

                                            else {
                                                votes[1] += -0.055777337;
                                            }
                                        }

                                        else {
                                            if (x[59] <= 1.104228) {
                                                votes[1] += 0.0051733884;
                                            }

                                            else {
                                                votes[1] += -0.06039961;
                                            }
                                        }
                                    }

                                    else {
                                        if (x[0] <= -3.0569212) {
                                            if (x[3] <= -3.0689743) {
                                                votes[1] += -0.027066736;
                                            }

                                            else {
                                                votes[1] += 0.11663293;
                                            }
                                        }

                                        else {
                                            if (x[29] <= -0.056390554) {
                                                votes[1] += 0.0779279;
                                            }

                                            else {
                                                votes[1] += -0.0580659;
                                            }
                                        }
                                    }
                                }

                                else {
                                    if (x[88] <= 1.6748677) {
                                        if (x[2] <= -0.84063303) {
                                            if (x[98] <= -0.045691088) {
                                                votes[1] += 0.0081648;
                                            }

                                            else {
                                                votes[1] += -0.057643253;
                                            }
                                        }

                                        else {
                                            if (x[33] <= 0.17245734) {
                                                votes[1] += -0.071523145;
                                            }

                                            else {
                                                votes[1] += -0.01993931;
                                            }
                                        }
                                    }

                                    else {
                                        if (x[4] <= -0.75091225) {
                                            votes[1] += 0.10936848;
                                        }

                                        else {
                                            votes[1] += -0.05676166;
                                        }
                                    }
                                }
                            }
                        }

                        else {
                            if (x[59] <= 0.73202044) {
                                if (x[4] <= -1.3161069) {
                                    if (x[24] <= -0.2965584) {
                                        if (x[24] <= -0.7573047) {
                                            votes[1] += -0.050414253;
                                        }

                                        else {
                                            if (x[37] <= -0.07403613) {
                                                votes[1] += 0.116524816;
                                            }

                                            else {
                                                votes[1] += 0.02458888;
                                            }
                                        }
                                    }

                                    else {
                                        votes[1] += -0.07018656;
                                    }
                                }

                                else {
                                    if (x[59] <= 0.0442564) {
                                        if (x[20] <= 0.37771794) {
                                            if (x[74] <= -3.5279658) {
                                                votes[1] += -0.03417346;
                                            }

                                            else {
                                                votes[1] += 0.09618052;
                                            }
                                        }

                                        else {
                                            if (x[110] <= -0.42417994) {
                                                votes[1] += -0.044289913;
                                            }

                                            else {
                                                votes[1] += 0.068782136;
                                            }
                                        }
                                    }

                                    else {
                                        if (x[81] <= 0.2731424) {
                                            if (x[81] <= -0.20804368) {
                                                votes[1] += 0.07497073;
                                            }

                                            else {
                                                votes[1] += -0.009741685;
                                            }
                                        }

                                        else {
                                            votes[1] += 0.1261639;
                                        }
                                    }
                                }
                            }

                            else {
                                if (x[59] <= 1.104228) {
                                    if (x[26] <= 0.029267142) {
                                        if (x[7] <= -0.9169366) {
                                            if (x[112] <= 0.01513345) {
                                                votes[1] += 0.11946422;
                                            }

                                            else {
                                                votes[1] += -0.008639899;
                                            }
                                        }

                                        else {
                                            if (x[81] <= 0.15307361) {
                                                votes[1] += -0.04243318;
                                            }

                                            else {
                                                votes[1] += 0.09096674;
                                            }
                                        }
                                    }

                                    else {
                                        if (x[31] <= -0.057665486) {
                                            if (x[6] <= -0.93622285) {
                                                votes[1] += -0.008892424;
                                            }

                                            else {
                                                votes[1] += 0.08658282;
                                            }
                                        }

                                        else {
                                            if (x[13] <= -0.114808954) {
                                                votes[1] += -0.069052145;
                                            }

                                            else {
                                                votes[1] += -0.010306318;
                                            }
                                        }
                                    }
                                }

                                else {
                                    if (x[59] <= 2.552023) {
                                        if (x[42] <= -0.1250984) {
                                            if (x[24] <= -0.25531316) {
                                                votes[1] += 0.0994691;
                                            }

                                            else {
                                                votes[1] += -0.041007277;
                                            }
                                        }

                                        else {
                                            if (x[83] <= 0.013181702) {
                                                votes[1] += 0.01890607;
                                            }

                                            else {
                                                votes[1] += -0.048016425;
                                            }
                                        }
                                    }

                                    else {
                                        if (x[75] <= -0.15581813) {
                                            if (x[64] <= 0.28604907) {
                                                votes[1] += 0.028649254;
                                            }

                                            else {
                                                votes[1] += -0.052052487;
                                            }
                                        }

                                        else {
                                            if (x[110] <= -0.6457868) {
                                                votes[1] += -0.0057322527;
                                            }

                                            else {
                                                votes[1] += -0.071056396;
                                            }
                                        }
                                    }
                                }
                            }
                        }

                        // tree #6
                        if (x[88] <= 0.2987974) {
                            if (x[59] <= -1.0184059) {
                                if (x[37] <= -0.09606395) {
                                    if (x[58] <= -0.03145758) {
                                        if (x[82] <= 0.02642574) {
                                            if (x[88] <= 0.055961464) {
                                                votes[2] += -0.027280523;
                                            }

                                            else {
                                                votes[2] += 0.118741654;
                                            }
                                        }

                                        else {
                                            if (x[4] <= -1.5224214) {
                                                votes[2] += -0.064310126;
                                            }

                                            else {
                                                votes[2] += 0.10924103;
                                            }
                                        }
                                    }

                                    else {
                                        votes[2] += -0.070474;
                                    }
                                }

                                else {
                                    if (x[10] <= 0.82626677) {
                                        if (x[11] <= -0.057700586) {
                                            if (x[83] <= -0.4998426) {
                                                votes[2] += -0.058210284;
                                            }

                                            else {
                                                votes[2] += 0.10881054;
                                            }
                                        }

                                        else {
                                            if (x[62] <= 0.7923221) {
                                                votes[2] += -0.07198765;
                                            }

                                            else {
                                                votes[2] += 0.0680802;
                                            }
                                        }
                                    }

                                    else {
                                        if (x[112] <= -0.15120733) {
                                            votes[2] += 0.119148485;
                                        }

                                        else {
                                            votes[2] += -0.060484696;
                                        }
                                    }
                                }
                            }

                            else {
                                if (x[57] <= -0.17288834) {
                                    if (x[83] <= 1.2617025) {
                                        if (x[21] <= -0.15110873) {
                                            if (x[24] <= 0.56770164) {
                                                votes[2] += -0.05925277;
                                            }

                                            else {
                                                votes[2] += 0.090616964;
                                            }
                                        }

                                        else {
                                            if (x[11] <= 1.0461159) {
                                                votes[2] += -0.07134057;
                                            }

                                            else {
                                                votes[2] += -0.014381319;
                                            }
                                        }
                                    }

                                    else {
                                        votes[2] += 0.07595034;
                                    }
                                }

                                else {
                                    if (x[112] <= 1.6437173) {
                                        if (x[60] <= 0.11750482) {
                                            if (x[88] <= 0.25832474) {
                                                votes[2] += -0.068264626;
                                            }

                                            else {
                                                votes[2] += 0.0045827213;
                                            }
                                        }

                                        else {
                                            if (x[88] <= -0.36900145) {
                                                votes[2] += -0.055784073;
                                            }

                                            else {
                                                votes[2] += -0.0042441348;
                                            }
                                        }
                                    }

                                    else {
                                        if (x[106] <= 0.4188362) {
                                            if (x[4] <= -0.08904262) {
                                                votes[2] += -0.060338337;
                                            }

                                            else {
                                                votes[2] += 0.12222946;
                                            }
                                        }

                                        else {
                                            votes[2] += -0.065857105;
                                        }
                                    }
                                }
                            }
                        }

                        else {
                            if (x[59] <= 0.71954376) {
                                if (x[8] <= 0.45770848) {
                                    if (x[84] <= -0.09880127) {
                                        if (x[58] <= -0.1288849) {
                                            if (x[57] <= -0.27040747) {
                                                votes[2] += -0.032848436;
                                            }

                                            else {
                                                votes[2] += 0.057976346;
                                            }
                                        }

                                        else {
                                            if (x[24] <= -0.3393958) {
                                                votes[2] += -0.06917291;
                                            }

                                            else {
                                                votes[2] += 0.106362894;
                                            }
                                        }
                                    }

                                    else {
                                        if (x[84] <= 0.6021372) {
                                            if (x[56] <= 0.3958592) {
                                                votes[2] += -0.072191164;
                                            }

                                            else {
                                                votes[2] += 0.03595751;
                                            }
                                        }

                                        else {
                                            if (x[88] <= 0.582106) {
                                                votes[2] += -0.070213914;
                                            }

                                            else {
                                                votes[2] += 0.0341541;
                                            }
                                        }
                                    }
                                }

                                else {
                                    if (x[55] <= -0.4773011) {
                                        votes[2] += -0.068590134;
                                    }

                                    else {
                                        if (x[76] <= -0.11778966) {
                                            if (x[109] <= 0.27423924) {
                                                votes[2] += 0.10688297;
                                            }

                                            else {
                                                votes[2] += -0.055528976;
                                            }
                                        }

                                        else {
                                            if (x[60] <= 0.59359425) {
                                                votes[2] += 0.07046269;
                                            }

                                            else {
                                                votes[2] += -0.04182462;
                                            }
                                        }
                                    }
                                }
                            }

                            else {
                                if (x[24] <= -0.15083176) {
                                    if (x[90] <= -1.5314738) {
                                        votes[2] += -0.056190092;
                                    }

                                    else {
                                        if (x[88] <= 0.90588725) {
                                            votes[2] += -0.05390451;
                                        }

                                        else {
                                            if (x[72] <= -0.17441535) {
                                                votes[2] += -0.041588526;
                                            }

                                            else {
                                                votes[2] += 0.1213307;
                                            }
                                        }
                                    }
                                }

                                else {
                                    if (x[0] <= -2.3719957) {
                                        votes[2] += 0.10755861;
                                    }

                                    else {
                                        if (x[82] <= -1.2826264) {
                                            if (x[105] <= -0.10298422) {
                                                votes[2] += 0.07275101;
                                            }

                                            else {
                                                votes[2] += -0.06948883;
                                            }
                                        }

                                        else {
                                            votes[2] += -0.07246369;
                                        }
                                    }
                                }
                            }
                        }

                        // tree #7
                        if (x[59] <= 0.07401959) {
                            if (x[88] <= -1.2391636) {
                                if (x[59] <= -1.0439765) {
                                    if (x[55] <= -0.31039685) {
                                        votes[0] += 0.0986151;
                                    }

                                    else {
                                        if (x[65] <= -0.29374403) {
                                            if (x[5] <= -0.16929246) {
                                                votes[0] += 0.032215055;
                                            }

                                            else {
                                                votes[0] += -0.041448366;
                                            }
                                        }

                                        else {
                                            votes[0] += -0.06938105;
                                        }
                                    }
                                }

                                else {
                                    if (x[58] <= -0.47561082) {
                                        if (x[26] <= -0.76735187) {
                                            if (x[25] <= 0.0036406538) {
                                                votes[0] += -0.055735584;
                                            }

                                            else {
                                                votes[0] += 0.04832294;
                                            }
                                        }

                                        else {
                                            if (x[58] <= -0.516022) {
                                                votes[0] += 0.110622;
                                            }

                                            else {
                                                votes[0] += 0.0022443251;
                                            }
                                        }
                                    }

                                    else {
                                        if (x[101] <= -0.3181935) {
                                            if (x[88] <= -1.4010543) {
                                                votes[0] += 0.10573753;
                                            }

                                            else {
                                                votes[0] += -0.0136967795;
                                            }
                                        }

                                        else {
                                            if (x[88] <= -1.2593999) {
                                                votes[0] += 0.11701019;
                                            }

                                            else {
                                                votes[0] += 0.017952181;
                                            }
                                        }
                                    }
                                }
                            }

                            else {
                                if (x[59] <= -0.57501924) {
                                    if (x[112] <= 0.48499334) {
                                        if (x[108] <= -0.87612957) {
                                            if (x[101] <= -0.43564647) {
                                                votes[0] += 0.08672925;
                                            }

                                            else {
                                                votes[0] += -0.029971495;
                                            }
                                        }

                                        else {
                                            if (x[88] <= 1.93794) {
                                                votes[0] += -0.06101028;
                                            }

                                            else {
                                                votes[0] += -0.0127029;
                                            }
                                        }
                                    }

                                    else {
                                        if (x[7] <= -0.7482053) {
                                            if (x[73] <= 0.6689845) {
                                                votes[0] += 0.103844814;
                                            }

                                            else {
                                                votes[0] += -0.049115773;
                                            }
                                        }

                                        else {
                                            if (x[32] <= -1.1037552) {
                                                votes[0] += 0.04956305;
                                            }

                                            else {
                                                votes[0] += -0.053459197;
                                            }
                                        }
                                    }
                                }

                                else {
                                    if (x[60] <= -0.76136786) {
                                        if (x[55] <= 0.016940102) {
                                            if (x[16] <= 0.1921389) {
                                                votes[0] += 0.0949963;
                                            }

                                            else {
                                                votes[0] += -0.036746893;
                                            }
                                        }

                                        else {
                                            if (x[88] <= 1.7760494) {
                                                votes[0] += -0.05397079;
                                            }

                                            else {
                                                votes[0] += 0.086126536;
                                            }
                                        }
                                    }

                                    else {
                                        if (x[109] <= -0.034332) {
                                            if (x[112] <= 0.16002202) {
                                                votes[0] += -0.034419898;
                                            }

                                            else {
                                                votes[0] += 0.0666387;
                                            }
                                        }

                                        else {
                                            if (x[84] <= 0.43344468) {
                                                votes[0] += 0.06506899;
                                            }

                                            else {
                                                votes[0] += -0.022624437;
                                            }
                                        }
                                    }
                                }
                            }
                        }

                        else {
                            if (x[59] <= 1.8364217) {
                                if (x[90] <= -0.990817) {
                                    if (x[81] <= 0.6804146) {
                                        if (x[81] <= 0.11609696) {
                                            if (x[76] <= -0.15701969) {
                                                votes[0] += -0.033492;
                                            }

                                            else {
                                                votes[0] += 0.05318461;
                                            }
                                        }

                                        else {
                                            if (x[7] <= 0.83585304) {
                                                votes[0] += -0.06142647;
                                            }

                                            else {
                                                votes[0] += 0.024085006;
                                            }
                                        }
                                    }

                                    else {
                                        if (x[109] <= -0.29346216) {
                                            if (x[9] <= -0.17158812) {
                                                votes[0] += -0.050518133;
                                            }

                                            else {
                                                votes[0] += 0.005097102;
                                            }
                                        }

                                        else {
                                            if (x[116] <= -0.43230513) {
                                                votes[0] += -0.013468253;
                                            }

                                            else {
                                                votes[0] += 0.12414999;
                                            }
                                        }
                                    }
                                }

                                else {
                                    if (x[12] <= 0.21599498) {
                                        if (x[62] <= 0.17024426) {
                                            if (x[82] <= -1.1265435) {
                                                votes[0] += 0.011648857;
                                            }

                                            else {
                                                votes[0] += 0.070516884;
                                            }
                                        }

                                        else {
                                            if (x[110] <= -1.7719207) {
                                                votes[0] += 0.0024343682;
                                            }

                                            else {
                                                votes[0] += 0.115292504;
                                            }
                                        }
                                    }

                                    else {
                                        if (x[26] <= -0.29217562) {
                                            if (x[90] <= 0.5347135) {
                                                votes[0] += 0.10619324;
                                            }

                                            else {
                                                votes[0] += 0.026070151;
                                            }
                                        }

                                        else {
                                            if (x[91] <= -1.0554029) {
                                                votes[0] += -0.053953923;
                                            }

                                            else {
                                                votes[0] += 0.020564558;
                                            }
                                        }
                                    }
                                }
                            }

                            else {
                                if (x[109] <= -0.32142866) {
                                    if (x[1] <= 0.097307175) {
                                        votes[0] += -0.052249637;
                                    }

                                    else {
                                        votes[0] += 0.07068824;
                                    }
                                }

                                else {
                                    if (x[104] <= -0.25596154) {
                                        votes[0] += -0.02307768;
                                    }

                                    else {
                                        if (x[66] <= 0.19830187) {
                                            if (x[60] <= 1.2679361) {
                                                votes[0] += 0.109616056;
                                            }

                                            else {
                                                votes[0] += 0.062951915;
                                            }
                                        }

                                        else {
                                            if (x[28] <= -0.4633768) {
                                                votes[0] += -0.053197294;
                                            }

                                            else {
                                                votes[0] += 0.09193168;
                                            }
                                        }
                                    }
                                }
                            }
                        }

                        // tree #8
                        if (x[90] <= 0.74163795) {
                            if (x[91] <= -0.22672626) {
                                if (x[11] <= 0.4313117) {
                                    if (x[57] <= -0.015291787) {
                                        if (x[84] <= -0.6888685) {
                                            if (x[60] <= -0.42517585) {
                                                votes[1] += -0.05657623;
                                            }

                                            else {
                                                votes[1] += 0.035357486;
                                            }
                                        }

                                        else {
                                            if (x[59] <= 0.39991096) {
                                                votes[1] += 0.084742285;
                                            }

                                            else {
                                                votes[1] += -0.025281835;
                                            }
                                        }
                                    }

                                    else {
                                        if (x[85] <= -0.4205073) {
                                            if (x[88] <= 0.582106) {
                                                votes[1] += 0.08549368;
                                            }

                                            else {
                                                votes[1] += -0.02600998;
                                            }
                                        }

                                        else {
                                            if (x[55] <= -0.5449544) {
                                                votes[1] += 0.039226256;
                                            }

                                            else {
                                                votes[1] += -0.035539784;
                                            }
                                        }
                                    }
                                }

                                else {
                                    if (x[4] <= -1.257174) {
                                        if (x[36] <= -0.03447161) {
                                            if (x[76] <= -0.14599219) {
                                                votes[1] += 0.0776686;
                                            }

                                            else {
                                                votes[1] += -0.041091535;
                                            }
                                        }

                                        else {
                                            votes[1] += 0.118358664;
                                        }
                                    }

                                    else {
